{"learner":{"attributes":{"scikit_learn":"{\"_estimator_type\": \"regressor\"}"},"feature_names":[],"feature_types":[],"gradient_booster":{"model":{"cats":{"enc":[],"feature_segments":[],"sorted_idx":[]},"gbtree_model_param":{"num_parallel_tree":"1","num_trees":"500"},"iteration_indptr":[0,1,2,3,4,5,6,7,8,9,10,11,12,13,14,15,16,17,18,19,20,21,22,23,24,25,26,27,28,29,30,31,32,33,34,35,36,37,38,39,40,41,42,43,44,45,46,47,48,49,50,51,52,53,54,55,56,57,58,59,60,61,62,63,64,65,66,67,68,69,70,71,72,73,74,75,76,77,78,79,80,81,82,83,84,85,86,87,88,89,90,91,92,93,94,95,96,97,98,99,100,101,102,103,104,105,106,107,108,109,110,111,112,113,114,115,116,117,118,119,120,121,122,123,124,125,126,127,128,129,130,131,132,133,134,135,136,137,138,139,140,141,142,143,144,145,146,147,148,149,150,151,152,153,154,155,156,157,158,159,160,161,162,163,164,165,166,167,168,169,170,171,172,173,174,175,176,177,178,179,180,181,182,183,184,185,186,187,188,189,190,191,192,193,194,195,196,197,198,199,200,201,202,203,204,205,206,207,208,209,210,211,212,213,214,215,216,217,218,219,220,221,222,223,224,225,226,227,228,229,230,231,232,233,234,235,236,237,238,239,240,241,242,243,244,245,246,247,248,249,250,251,252,253,254,255,256,257,258,259,260,261,262,263,264,265,266,267,268,269,270,271,272,273,274,275,276,277,278,279,280,281,282,283,284,285,286,287,288,289,290,291,292,293,294,295,296,297,298,299,300,301,302,303,304,305,306,307,308,309,310,311,312,313,314,315,316,317,318,319,320,321,322,323,324,325,326,327,328,329,330,331,332,333,334,335,336,337,338,339,340,341,342,343,344,345,346,347,348,349,350,351,352,353,354,355,356,357,358,359,360,361,362,363,364,365,366,367,368,369,370,371,372,373,374,375,376,377,378,379,380,381,382,383,384,385,386,387,388,389,390,391,392,393,394,395,396,397,398,399,400,401,402,403,404,405,406,407,408,409,410,411,412,413,414,415,416,417,418,419,420,421,422,423,424,425,426,427,428,429,430,431,432,433,434,435,436,437,438,439,440,441,442,443,444,445,446,447,448,449,450,451,452,453,454,455,456,457,458,459,460,461,462,463,464,465,466,467,468,469,470,471,472,473,474,475,476,477,478,479,480,481,482,483,484,485,486,487,488,489,490,491,492,493,494,495,496,497,498,499,500],"tree_info":[0,0,0,0,0,0,0,0,0,0,0,0,0,0,0,0,0,0,0,0,0,0,0,0,0,0,0,0,0,0,0,0,0,0,0,0,0,0,0,0,0,0,0,0,0,0,0,0,0,0,0,0,0,0,0,0,0,0,0,0,0,0,0,0,0,0,0,0,0,0,0,0,0,0,0,0,0,0,0,0,0,0,0,0,0,0,0,0,0,0,0,0,0,0,0,0,0,0,0,0,0,0,0,0,0,0,0,0,0,0,0,0,0,0,0,0,0,0,0,0,0,0,0,0,0,0,0,0,0,0,0,0,0,0,0,0,0,0,0,0,0,0,0,0,0,0,0,0,0,0,0,0,0,0,0,0,0,0,0,0,0,0,0,0,0,0,0,0,0,0,0,0,0,0,0,0,0,0,0,0,0,0,0,0,0,0,0,0,0,0,0,0,0,0,0,0,0,0,0,0,0,0,0,0,0,0,0,0,0,0,0,0,0,0,0,0,0,0,0,0,0,0,0,0,0,0,0,0,0,0,0,0,0,0,0,0,0,0,0,0,0,0,0,0,0,0,0,0,0,0,0,0,0,0,0,0,0,0,0,0,0,0,0,0,0,0,0,0,0,0,0,0,0,0,0,0,0,0,0,0,0,0,0,0,0,0,0,0,0,0,0,0,0,0,0,0,0,0,0,0,0,0,0,0,0,0,0,0,0,0,0,0,0,0,0,0,0,0,0,0,0,0,0,0,0,0,0,0,0,0,0,0,0,0,0,0,0,0,0,0,0,0,0,0,0,0,0,0,0,0,0,0,0,0,0,0,0,0,0,0,0,0,0,0,0,0,0,0,0,0,0,0,0,0,0,0,0,0,0,0,0,0,0,0,0,0,0,0,0,0,0,0,0,0,0,0,0,0,0,0,0,0,0,0,0,0,0,0,0,0,0,0,0,0,0,0,0,0,0,0,0,0,0,0,0,0,0,0,0,0,0,0,0,0,0,0,0,0,0,0,0,0,0,0,0,0,0,0,0,0,0,0,0,0,0,0,0,0,0,0,0,0,0,0,0,0,0,0,0,0,0,0,0,0,0,0,0,0,0,0,0,0,0,0,0,0,0,0,0,0,0,0,0,0,0,0,0,0,0,0],"trees":[{"base_weights":[-1.0682119E-6,-1.7199967E-5,5.4380175E-4,-6.030121E-5,5.2784275E-5,1.8097491E-5,4.78954E-5,-2.1080812E-5,-2.746019E-6,1.3350246E-6,7.626547E-6],"categories":[],"categories_nodes":[],"categories_segments":[],"categories_sizes":[],"default_left":[0,0,0,0,0,0,0,0,0,0,0],"id":0,"left_children":[1,3,5,7,9,-1,-1,-1,-1,-1,-1],"loss_changes":[1.6156233E-5,5.387972E-6,3.6335623E-6,2.1256187E-6,1.767548E-6,0E0,0E0,0E0,0E0,0E0,0E0],"parents":[2147483647,0,0,1,1,2,2,3,3,4,4],"right_children":[2,4,6,8,10,-1,-1,-1,-1,-1,-1],"split_conditions":[2.536365E-4,9.508E-5,4.38122E-4,-8.32985E-5,1.172E-4,1.8097491E-5,4.78954E-5,-2.1080812E-5,-2.746019E-6,1.3350246E-6,7.626547E-6],"split_indices":[41,0,41,41,41,0,0,0,0,0,0],"split_type":[0,0,0,0,0,0,0,0,0,0,0],"sum_hessian":[1.8360209E3,1.7841661E3,5.1854687E1,1.1042372E3,6.7992896E2,3.7333836E1,1.452085E1,1.5068279E1,1.089169E3,5.3998926E2,1.3993967E2],"tree_param":{"num_deleted":"0","num_feature":"49","num_nodes":"11","size_leaf_vector":"1"}},{"base_weights":[2.534619E-8,-1.46333705E-5,5.596972E-4,-4.6401008E-5,8.038856E-5,1.223663E-5,3.68383E-5,-1.2035935E-4,-1.3987527E-6,2.1639503E-6,8.196578E-6,-2.7045879E-5,-5.4692173E-6],"categories":[],"categories_nodes":[],"categories_segments":[],"categories_sizes":[],"default_left":[0,0,0,0,0,0,0,0,0,0,0,0,0],"id":1,"left_children":[1,3,5,7,9,-1,-1,11,-1,-1,-1,-1,-1],"loss_changes":[1.551393E-5,5.56627E-6,2.5114114E-6,1.8795065E-6,1.4254417E-6,0E0,0E0,1.2113746E-6,0E0,0E0,0E0,0E0,0E0],"parents":[2147483647,0,0,1,1,2,2,3,3,4,4,7,7],"right_children":[2,4,6,8,10,-1,-1,12,-1,-1,-1,-1,-1],"split_conditions":[3.5449E-4,9.98985E-5,2.5117048E-4,-3.807E-5,1.287525E-4,1.223663E-5,3.68383E-5,-1.02086E-4,-1.3987527E-6,2.1639503E-6,8.196578E-6,-2.7045879E-5,-5.4692173E-6],"split_indices":[0,41,1,0,41,0,0,41,0,0,0,0,0],"split_type":[0,0,0,0,0,0,0,0,0,0,0,0,0],"sum_hessian":[1.8890056E3,1.8417412E3,4.7264347E1,1.3806691E3,4.610722E2,1.7866354E1,2.9397991E1,2.7426965E2,1.1063994E3,3.203096E2,1.4076259E2,5.7473416E0,2.685223E2],"tree_param":{"num_deleted":"0","num_feature":"49","num_nodes":"13","size_leaf_vector":"1"}},{"base_weights":[7.20567E-7,-2.1176902E-5,3.0455593E-4,-5.3034706E-5,1.9416482E-6,1.1577325E-5,7.0544967E-4,-5.476051E-6,-1.8286843E-6,4.1925112E-5,4.7572207E-6],"categories":[],"categories_nodes":[],"categories_segments":[],"categories_sizes":[],"default_left":[0,0,0,0,0,0,0,0,0,0,0],"id":2,"left_children":[1,3,5,7,-1,-1,9,-1,-1,-1,-1],"loss_changes":[1.2569563E-5,3.3711353E-6,3.5539606E-6,1.0667529E-6,0E0,0E0,1.4693842E-6,0E0,0E0,0E0,0E0],"parents":[2147483647,0,0,1,1,2,2,3,3,6,6],"right_children":[2,4,6,8,-1,-1,10,-1,-1,-1,-1],"split_conditions":[1.609025E-4,1E-4,5.3015E-4,-4.393E-5,1.9416482E-6,1.1577325E-5,4.463E-4,-5.476051E-6,-1.8286843E-6,4.1925112E-5,4.7572207E-6],"split_indices":[41,0,0,0,0,0,8,0,0,0,0],"split_type":[0,0,0,0,0,0,0,0,0,0,0],"sum_hessian":[1.8872742E3,1.7612695E3,1.2600471E2,1.1505736E3,6.1069586E2,1.0792698E2,1.807773E1,2.5835846E2,8.922152E2,1.4535043E1,3.5426872E0],"tree_param":{"num_deleted":"0","num_feature":"49","num_nodes":"11","size_leaf_vector":"1"}},{"base_weights":[-9.1579204E-7,-1.36308345E-5,4.8103134E-4,-4.3260698E-5,3.5682872E-6,1.1515275E-5,3.1080366E-5,-4.629313E-4,-4.0124232E-5,-4.3308766E-5,-5.071236E-6,-4.7370972E-6,-1.3061198E-6],"categories":[],"categories_nodes":[],"categories_segments":[],"categories_sizes":[],"default_left":[0,0,0,0,0,0,0,0,0,0,0,0,0],"id":3,"left_children":[1,3,5,7,-1,-1,-1,9,11,-1,-1,-1,-1],"loss_changes":[1.1611565E-5,4.6522946E-6,1.5735368E-6,1.7840734E-6,0E0,0E0,0E0,1.379278E-6,1.0379158E-6,0E0,0E0,0E0,0E0],"parents":[2147483647,0,0,1,1,2,2,3,3,7,7,8,8],"right_children":[2,4,6,8,-1,-1,-1,10,12,-1,-1,-1,-1],"split_conditions":[3.5449E-4,9.98985E-5,2.5117048E-4,-3.3632E-4,3.5682872E-6,1.1515275E-5,3.1080366E-5,-1.0650238E-4,-3.891E-5,-4.3308766E-5,-5.071236E-6,-4.7370972E-6,-1.3061198E-6],"split_indices":[0,41,1,0,0,0,0,1,0,0,0,0,0],"split_type":[0,0,0,0,0,0,0,0,0,0,0,0,0],"sum_hessian":[1.8927745E3,1.8450685E3,4.7706078E1,1.3684996E3,4.7656882E2,1.8086319E1,2.9619757E1,9.064315E0,1.3594353E3,3.624895E0,5.43942E0,2.7621646E2,1.0832189E3],"tree_param":{"num_deleted":"0","num_feature":"49","num_nodes":"13","size_leaf_vector":"1"}},{"base_weights":[7.625777E-7,-2.0696123E-5,2.5746194E-4,-4.7974834E-5,1.5286225E-6,9.6911845E-6,2.866083E-5,-1.561893E-5,-2.2011043E-6],"categories":[],"categories_nodes":[],"categories_segments":[],"categories_sizes":[],"default_left":[0,0,0,0,0,0,0,0,0],"id":4,"left_children":[1,3,5,7,-1,-1,-1,-1,-1],"loss_changes":[1.049006E-5,2.4593776E-6,2.8409831E-6,1.1855409E-6,0E0,0E0,0E0,0E0,0E0],"parents":[2147483647,0,0,1,1,2,2,3,3],"right_children":[2,4,6,8,-1,-1,-1,-1,-1],"split_conditions":[1.8264E-4,9.508E-5,5.091E-4,-8.32985E-5,1.5286225E-6,9.6911845E-6,2.866083E-5,-1.561893E-5,-2.2011043E-6],"split_indices":[0,0,0,41,0,0,0,0,0],"split_type":[0,0,0,0,0,0,0,0,0],"sum_hessian":[1.9023959E3,1.7564827E3,1.4591324E2,1.1465151E3,6.0996747E2,1.2278131E2,2.3131918E1,1.5738242E1,1.130777E3],"tree_param":{"num_deleted":"0","num_feature":"49","num_nodes":"9","size_leaf_vector":"1"}},{"base_weights":[1.1436855E-6,-1.9903386E-5,2.151779E-4,-3.0322676E-6,4.5248723E-7,7.315148E-6,2.0989208E-5],"categories":[],"categories_nodes":[],"categories_segments":[],"categories_sizes":[],"default_left":[0,0,0,0,0,0,0],"id":5,"left_children":[1,3,5,-1,-1,-1,-1],"loss_changes":[8.57889E-6,2.045916E-6,2.3413359E-6,0E0,0E0,0E0,0E0],"parents":[2147483647,0,0,1,1,2,2],"right_children":[2,4,6,-1,-1,-1,-1],"split_conditions":[1.6028E-4,2.9E-5,3.40261E-4,-3.0322676E-6,4.5248723E-7,7.315148E-6,2.0989208E-5],"split_indices":[0,0,41,0,0,0,0],"split_type":[0,0,0,0,0,0,0],"sum_hessian":[1.9024407E3,1.732939E3,1.6950168E2,7.194526E2,1.01348645E3,1.280966E2,4.140507E1],"tree_param":{"num_deleted":"0","num_feature":"49","num_nodes":"7","size_leaf_vector":"1"}},{"base_weights":[-8.1159453E-7,-2.1537873E-5,2.0248092E-4,-3.4336092E-6,1.1260048E-7,7.3059573E-6,3.6328463E-4,2.8278193E-5,1.03395605E-5],"categories":[],"categories_nodes":[],"categories_segments":[],"categories_sizes":[],"default_left":[0,0,0,0,0,0,0,0,0],"id":6,"left_children":[1,3,5,-1,-1,-1,7,-1,-1],"loss_changes":[8.032185E-6,1.9399167E-6,1.5454061E-6,0E0,0E0,0E0,1.3107524E-6,0E0,0E0],"parents":[2147483647,0,0,1,1,2,2,6,6],"right_children":[2,4,6,-1,-1,-1,8,-1,-1],"split_conditions":[1.6028E-4,9.63E-6,4.0753E-4,-3.4336092E-6,1.1260048E-7,7.3059573E-6,3.2888228E-1,2.8278193E-5,1.03395605E-5],"split_indices":[0,0,0,0,0,0,44,0,0],"split_type":[0,0,0,0,0,0,0,0,0],"sum_hessian":[1.9042637E3,1.728892E3,1.7537164E2,5.792841E2,1.1496079E3,1.3127008E2,4.4101562E1,1.8096514E1,2.6005049E1],"tree_param":{"num_deleted":"0","num_feature":"49","num_nodes":"9","size_leaf_vector":"1"}},{"base_weights":[8.759483E-7,-2.243812E-5,1.7418552E-4,-7.128425E-5,-7.473693E-8,7.022694E-6,2.2973689E-5,-2.0982885E-5,-3.1910663E-6],"categories":[],"categories_nodes":[],"categories_segments":[],"categories_sizes":[],"default_left":[0,0,0,0,0,0,0,0,0],"id":7,"left_children":[1,3,5,7,-1,-1,-1,-1,-1],"loss_changes":[7.7662935E-6,1.7330809E-6,2.1286523E-6,1.295002E-6,0E0,0E0,0E0,0E0,0E0],"parents":[2147483647,0,0,1,1,2,2,3,3],"right_children":[2,4,6,8,-1,-1,-1,-1,-1],"split_conditions":[1.172E-4,2.74155E-5,5.3015E-4,-1.02086E-4,-7.473693E-8,7.022694E-6,2.2973689E-5,-2.0982885E-5,-3.1910663E-6],"split_indices":[41,41,0,41,0,0,0,0,0],"split_type":[0,0,0,0,0,0,0,0,0],"sum_hessian":[1.9201205E3,1.6932151E3,2.269053E2,5.0740158E2,1.1858136E3,2.0424796E2,2.2657352E1,9.483304E0,4.9791827E2],"tree_param":{"num_deleted":"0","num_feature":"49","num_nodes":"9","size_leaf_vector":"1"}},{"base_weights":[-5.123959E-7,-2.0843523E-5,1.5287778E-4,-2.9547076E-4,-1.7659064E-5,5.2342307E-6,1.601709E-5,-8.195128E-6,-3.821849E-5,-2.0732948E-6,6.010778E-7],"categories":[],"categories_nodes":[],"categories_segments":[],"categories_sizes":[],"default_left":[0,0,0,0,0,0,0,0,0,0,0],"id":8,"left_children":[1,3,5,7,9,-1,-1,-1,-1,-1,-1],"loss_changes":[6.060106E-6,1.4952936E-6,1.8018927E-6,1.084117E-6,1.1997213E-6,0E0,0E0,0E0,0E0,0E0,0E0],"parents":[2147483647,0,0,1,1,2,2,3,3,4,4],"right_children":[2,4,6,8,10,-1,-1,-1,-1,-1,-1],"split_conditions":[1.172E-4,-8.32985E-5,2.993295E-4,9.9152464E-1,4.174238E-5,5.2342307E-6,1.601709E-5,-8.195128E-6,-3.821849E-5,-2.0732948E-6,6.010778E-7],"split_indices":[41,41,41,45,1,0,0,0,0,0,0],"split_type":[0,0,0,0,0,0,0,0,0,0,0],"sum_hessian":[1.9411947E3,1.7147738E3,2.2642087E2,1.8603756E1,1.69617E3,1.7708427E2,4.9336594E1,1.5581342E1,3.0224142E0,9.409982E2,7.551719E2],"tree_param":{"num_deleted":"0","num_feature":"49","num_nodes":"11","size_leaf_vector":"1"}},{"base_weights":[2.4531516E-7,-2.0558637E-5,1.4795364E-4,-3.311781E-5,-1.8792945E-5,4.992609E-6,1.4146777E-5,-2.3323646E-6,3.9431825E-7],"categories":[],"categories_nodes":[],"categories_segments":[],"categories_sizes":[],"default_left":[0,0,0,0,0,0,0,0,0],"id":9,"left_children":[1,3,5,-1,7,-1,-1,-1,-1],"loss_changes":[5.8333226E-6,1.8731708E-6,1.4933912E-6,0E0,1.2342821E-6,0E0,0E0,0E0,0E0],"parents":[2147483647,0,0,1,1,2,2,4,4],"right_children":[2,4,6,-1,8,-1,-1,-1,-1],"split_conditions":[1.172E-4,-1.76649E-4,3.5449E-4,-3.311781E-5,4.94995E-5,4.992609E-6,1.4146777E-5,-2.3323646E-6,3.9431825E-7],"split_indices":[41,41,0,0,41,0,0,0,0],"split_type":[0,0,0,0,0,0,0,0,0],"sum_hessian":[1.8963114E3,1.6629539E3,2.3335759E2,3.5360487E0,1.6594178E3,1.7333023E2,6.002735E1,8.11465E2,8.4795276E2],"tree_param":{"num_deleted":"0","num_feature":"49","num_nodes":"9","size_leaf_vector":"1"}},{"base_weights":[4.092518E-7,-1.8954815E-5,1.3673709E-4,-2.3781558E-6,4.2959275E-7,4.7140747E-6,1.3718801E-5],"categories":[],"categories_nodes":[],"categories_segments":[],"categories_sizes":[],"default_left":[0,0,0,0,0,0,0],"id":10,"left_children":[1,3,5,-1,-1,-1,-1],"loss_changes":[5.096735E-6,1.3326884E-6,1.3773229E-6,0E0,0E0,0E0,0E0],"parents":[2147483647,0,0,1,1,2,2],"right_children":[2,4,6,-1,-1,-1,-1],"split_conditions":[1.172E-4,4.94995E-5,2.993295E-4,-2.3781558E-6,4.2959275E-7,4.7140747E-6,1.3718801E-5],"split_indices":[41,41,41,0,0,0,0],"split_type":[0,0,0,0,0,0,0],"sum_hessian":[1.928701E3,1.6895742E3,2.391269E2,8.284596E2,8.6111456E2,1.8404276E2,5.5084152E1],"tree_param":{"num_deleted":"0","num_feature":"49","num_nodes":"7","size_leaf_vector":"1"}},{"base_weights":[-7.866093E-7,-2.1152668E-5,1.2195578E-4,-3.4696568E-6,-3.2263935E-7,3.9419715E-6,1.1852891E-5],"categories":[],"categories_nodes":[],"categories_segments":[],"categories_sizes":[],"default_left":[0,0,0,0,0,0,0],"id":11,"left_children":[1,3,5,-1,-1,-1,-1],"loss_changes":[4.925931E-6,1.1980384E-6,1.3730405E-6,0E0,0E0,0E0,0E0],"parents":[2147483647,0,0,1,1,2,2],"right_children":[2,4,6,-1,-1,-1,-1],"split_conditions":[1E0,1.5118E-5,2.647765E-4,-3.4696568E-6,-3.2263935E-7,3.9419715E-6,1.1852891E-5],"split_indices":[38,41,41,0,0,0,0],"split_type":[0,0,0,0,0,0,0],"sum_hessian":[1.9685151E3,1.6890815E3,2.7943356E2,3.9362036E2,1.2954612E3,2.0451044E2,7.492312E1],"tree_param":{"num_deleted":"0","num_feature":"49","num_nodes":"7","size_leaf_vector":"1"}},{"base_weights":[5.906695E-7,-1.6561793E-5,7.007242E-6,-1.9608103E-6,8.401145E-7],"categories":[],"categories_nodes":[],"categories_segments":[],"categories_sizes":[],"default_left":[0,0,0,0,0],"id":12,"left_children":[1,3,-1,-1,-1],"loss_changes":[4.647351E-6,1.3075257E-6,0E0,0E0,0E0],"parents":[2147483647,0,0,1,1],"right_children":[2,4,-1,-1,-1],"split_conditions":[1.32226E-4,6.66855E-5,7.007242E-6,-1.9608103E-6,8.401145E-7],"split_indices":[41,41,0,0,0],"split_type":[0,0,0,0,0],"sum_hessian":[1.9395248E3,1.7280172E3,2.1150754E2,1.0290862E3,6.989311E2],"tree_param":{"num_deleted":"0","num_feature":"49","num_nodes":"5","size_leaf_vector":"1"}},{"base_weights":[7.777086E-7,-1.4538869E-5,6.479702E-6,-2.880216E-5,-1.3098247E-5,-1.8388264E-6,6.209723E-7],"categories":[],"categories_nodes":[],"categories_segments":[],"categories_sizes":[],"default_left":[0,0,0,0,0,0,0],"id":13,"left_children":[1,3,-1,-1,5,-1,-1],"loss_changes":[3.8099695E-6,1.3885385E-6,0E0,0E0,1.0412032E-6,0E0,0E0],"parents":[2147483647,0,0,1,1,4,4],"right_children":[2,4,-1,-1,6,-1,-1],"split_conditions":[1.34982E-4,-1.76649E-4,6.479702E-6,-2.880216E-5,3.852143E-5,-1.8388264E-6,6.209723E-7],"split_indices":[41,41,0,0,1,0,0],"split_type":[0,0,0,0,0,0,0],"sum_hessian":[1.9290743E3,1.7248701E3,2.0420418E2,3.393376E0,1.7214768E3,8.926921E2,8.2878467E2],"tree_param":{"num_deleted":"0","num_feature":"49","num_nodes":"7","size_leaf_vector":"1"}},{"base_weights":[-1.8852728E-7,-1.28358E-5,1.608575E-4,-1.898378E-6,8.1599603E-7,5.530115E-6,1.5856369E-5],"categories":[],"categories_nodes":[],"categories_segments":[],"categories_sizes":[],"default_left":[0,0,0,0,0,0,0],"id":14,"left_children":[1,3,5,-1,-1,-1,-1],"loss_changes":[3.9880892E-6,1.3308544E-6,1.0845908E-6,0E0,0E0,0E0,0E0],"parents":[2147483647,0,0,1,1,2,2],"right_children":[2,4,6,-1,-1,-1,-1],"split_conditions":[9.862861E-1,4.174238E-5,5.091E-4,-1.898378E-6,8.1599603E-7,5.530115E-6,1.5856369E-5],"split_indices":[48,1,0,0,0,0,0],"split_type":[0,0,0,0,0,0,0],"sum_hessian":[1.9560103E3,1.814439E3,1.4157129E2,9.7430316E2,8.4013586E2,1.0841395E2,3.315734E1],"tree_param":{"num_deleted":"0","num_feature":"49","num_nodes":"7","size_leaf_vector":"1"}},{"base_weights":[-6.8971076E-7,-1.5153207E-5,5.723687E-6,-2.7024405E-5,-6.8020057E-7],"categories":[],"categories_nodes":[],"categories_segments":[],"categories_sizes":[],"default_left":[0,0,0,0,0],"id":15,"left_children":[1,3,-1,-1,-1],"loss_changes":[3.2414316E-6,1.3996671E-6,0E0,0E0,0E0],"parents":[2147483647,0,0,1,1],"right_children":[2,4,-1,-1,-1],"split_conditions":[1.0981E-4,-1.76649E-4,5.723687E-6,-2.7024405E-5,-6.8020057E-7],"split_indices":[0,41,0,0,0],"split_type":[0,0,0,0,0],"sum_hessian":[1.9439857E3,1.7278514E3,2.1613422E2,4.0575166E0,1.723794E3],"tree_param":{"num_deleted":"0","num_feature":"49","num_nodes":"5","size_leaf_vector":"1"}},{"base_weights":[4.2792454E-8,-1.7483371E-5,4.0756026E-6,-2.933463E-5,-7.997346E-7],"categories":[],"categories_nodes":[],"categories_segments":[],"categories_sizes":[],"default_left":[0,0,0,0,0],"id":16,"left_children":[1,3,-1,-1,-1],"loss_changes":[2.8432357E-6,1.3792401E-6,0E0,0E0,0E0],"parents":[2147483647,0,0,1,1],"right_children":[2,4,-1,-1,-1],"split_conditions":[1.1095619E-4,-1.76649E-4,4.0756026E-6,-2.933463E-5,-7.997346E-7],"split_indices":[1,41,0,0,0],"split_type":[0,0,0,0,0],"sum_hessian":[1.9892815E3,1.6377451E3,3.5153632E2,3.2466817E0,1.6344984E3],"tree_param":{"num_deleted":"0","num_feature":"49","num_nodes":"5","size_leaf_vector":"1"}},{"base_weights":[-4.2036964E-7,-1.1210717E-5,7.0696524E-6,-1.7950206E-6,8.2718907E-7],"categories":[],"categories_nodes":[],"categories_segments":[],"categories_sizes":[],"default_left":[0,0,0,0,0],"id":17,"left_children":[1,3,-1,-1,-1],"loss_changes":[3.0117164E-6,1.2538908E-6,0E0,0E0,0E0],"parents":[2147483647,0,0,1,1],"right_children":[2,4,-1,-1,-1],"split_conditions":[2.1466E-4,6.071E-5,7.0696524E-6,-1.7950206E-6,8.2718907E-7],"split_indices":[0,0,0,0,0],"split_type":[0,0,0,0,0],"sum_hessian":[1.9661283E3,1.8279626E3,1.3816571E2,9.6723846E2,8.607241E2],"tree_param":{"num_deleted":"0","num_feature":"49","num_nodes":"5","size_leaf_vector":"1"}},{"base_weights":[-1.8491739E-6,-1.0690632E-5,7.347798E-6,-7.596025E-5,-1.1395486E-8,-2.8241833E-5,-3.294619E-6],"categories":[],"categories_nodes":[],"categories_segments":[],"categories_sizes":[],"default_left":[0,0,0,0,0,0,0],"id":18,"left_children":[1,3,-1,5,-1,-1,-1],"loss_changes":[2.5589593E-6,1.2535985E-6,0E0,1.2110366E-6,0E0,0E0,0E0],"parents":[2147483647,0,0,1,1,3,3],"right_children":[2,4,-1,6,-1,-1,-1],"split_conditions":[9.892729E-1,-2.1039048E-5,7.347798E-6,4.4292687E-5,-1.1395486E-8,-2.8241833E-5,-3.294619E-6],"split_indices":[48,1,0,48,0,0,0],"split_type":[0,0,0,0,0,0,0],"sum_hessian":[1.9428145E3,1.8347297E3,1.08084785E2,2.5261032E2,1.5821194E3,3.985369E0,2.4862495E2],"tree_param":{"num_deleted":"0","num_feature":"49","num_nodes":"7","size_leaf_vector":"1"}},{"base_weights":[-1.0330953E-6,-2.1969568E-5,2.5529469E-6,-3.079134E-5,-9.975513E-7],"categories":[],"categories_nodes":[],"categories_segments":[],"categories_sizes":[],"default_left":[0,0,0,0,0],"id":19,"left_children":[1,3,-1,-1,-1],"loss_changes":[2.1199062E-6,1.6497098E-6,0E0,0E0,0E0],"parents":[2147483647,0,0,1,1],"right_children":[2,4,-1,-1,-1],"split_conditions":[9.98985E-5,-1.76649E-4,2.5529469E-6,-3.079134E-5,-9.975513E-7],"split_indices":[41,41,0,0,0],"split_type":[0,0,0,0,0],"sum_hessian":[1.9417277E3,1.3854681E3,5.562596E2,3.6632123E0,1.3818049E3],"tree_param":{"num_deleted":"0","num_feature":"49","num_nodes":"5","size_leaf_vector":"1"}},{"base_weights":[1.0231806E-6,-7.979141E-6,7.152591E-6,-2.3576138E-6,3.5737511E-7],"categories":[],"categories_nodes":[],"categories_segments":[],"categories_sizes":[],"default_left":[0,0,0,0,0],"id":20,"left_children":[1,3,-1,-1,-1],"loss_changes":[2.4995938E-6,1.0897819E-6,0E0,0E0,0E0],"parents":[2147483647,0,0,1,1],"right_children":[2,4,-1,-1,-1],"split_conditions":[2.6487E-4,-1.47E-6,7.152591E-6,-2.3576138E-6,3.5737511E-7],"split_indices":[0,0,0,0,0],"split_type":[0,0,0,0,0],"sum_hessian":[1.9530726E3,1.8375458E3,1.1552689E2,5.1130728E2,1.3262385E3],"tree_param":{"num_deleted":"0","num_feature":"49","num_nodes":"5","size_leaf_vector":"1"}},{"base_weights":[-2.1359117E-6,-7.652096E-6,8.396604E-6,-2.8423294E-5,-3.0833974E-7],"categories":[],"categories_nodes":[],"categories_segments":[],"categories_sizes":[],"default_left":[0,0,0,0,0],"id":21,"left_children":[1,3,-1,-1,-1],"loss_changes":[1.8041998E-6,1.5478363E-6,0E0,0E0,0E0],"parents":[2147483647,0,0,1,1],"right_children":[2,4,-1,-1,-1],"split_conditions":[2.993295E-4,-1.76649E-4,8.396604E-6,-2.8423294E-5,-3.0833974E-7],"split_indices":[41,41,0,0,0],"split_type":[0,0,0,0,0],"sum_hessian":[1.920825E3,1.8614049E3,5.9419987E1,3.9085388E0,1.8574963E3],"tree_param":{"num_deleted":"0","num_feature":"49","num_nodes":"5","size_leaf_vector":"1"}},{"base_weights":[-1.5093184E-6,-7.909861E-7,3.0679141E-6],"categories":[],"categories_nodes":[],"categories_segments":[],"categories_sizes":[],"default_left":[0,0,0],"id":22,"left_children":[1,-1,-1],"loss_changes":[1.709941E-6,0E0,0E0],"parents":[2147483647,0,0],"right_children":[2,-1,-1],"split_conditions":[1.1095619E-4,-7.909861E-7,3.0679141E-6],"split_indices":[1,0,0],"split_type":[0,0,0],"sum_hessian":[1.898572E3,1.547147E3,3.5142508E2],"tree_param":{"num_deleted":"0","num_feature":"49","num_nodes":"3","size_leaf_vector":"1"}},{"base_weights":[2.8684633E-7,-4.1362713E-7,5.2420887E-6],"categories":[],"categories_nodes":[],"categories_segments":[],"categories_sizes":[],"default_left":[0,0,0],"id":23,"left_children":[1,-1,-1],"loss_changes":[1.747419E-6,0E0,0E0],"parents":[2147483647,0,0],"right_children":[2,-1,-1],"split_conditions":[2.1466E-4,-4.1362713E-7,5.2420887E-6],"split_indices":[0,0,0],"split_type":[0,0,0],"sum_hessian":[1.9506151E3,1.8038628E3,1.4675237E2],"tree_param":{"num_deleted":"0","num_feature":"49","num_nodes":"3","size_leaf_vector":"1"}},{"base_weights":[-4.2184897E-8,-1.1303941E-6,1.7103463E-6],"categories":[],"categories_nodes":[],"categories_segments":[],"categories_sizes":[],"default_left":[0,0,0],"id":24,"left_children":[1,-1,-1],"loss_changes":[1.5148223E-6,0E0,0E0],"parents":[2147483647,0,0],"right_children":[2,-1,-1],"split_conditions":[1E-4,-1.1303941E-6,1.7103463E-6],"split_indices":[0,0,0],"split_type":[0,0,0],"sum_hessian":[1.9580334E3,1.1805469E3,7.774866E2],"tree_param":{"num_deleted":"0","num_feature":"49","num_nodes":"3","size_leaf_vector":"1"}},{"base_weights":[5.364363E-7,-2.9690779E-7,6.6342213E-6],"categories":[],"categories_nodes":[],"categories_segments":[],"categories_sizes":[],"default_left":[0,0,0],"id":25,"left_children":[1,-1,-1],"loss_changes":[1.6640237E-6,0E0,0E0],"parents":[2147483647,0,0],"right_children":[2,-1,-1],"split_conditions":[2.3923E-4,-2.9690779E-7,6.6342213E-6],"split_indices":[23,0,0],"split_type":[0,0,0],"sum_hessian":[1.942931E3,1.8530938E3,8.983728E1],"tree_param":{"num_deleted":"0","num_feature":"49","num_nodes":"3","size_leaf_vector":"1"}},{"base_weights":[1.231695E-6,-8.008484E-6,4.496989E-6,-2.8340843E-5,-3.3543148E-7],"categories":[],"categories_nodes":[],"categories_segments":[],"categories_sizes":[],"default_left":[0,0,0,0,0],"id":26,"left_children":[1,3,-1,-1,-1],"loss_changes":[1.5757417E-6,1.2609225E-6,0E0,0E0,0E0],"parents":[2147483647,0,0,1,1],"right_children":[2,4,-1,-1,-1],"split_conditions":[9.805088E-1,-1.76649E-4,4.496989E-6,-2.8340843E-5,-3.3543148E-7],"split_indices":[48,41,0,0,0],"split_type":[0,0,0,0,0],"sum_hessian":[1.920511E3,1.7401589E3,1.80352E2,3.0287664E0,1.7371302E3],"tree_param":{"num_deleted":"0","num_feature":"49","num_nodes":"5","size_leaf_vector":"1"}},{"base_weights":[-3.4386784E-7,-8.742033E-7,2.0694688E-6],"categories":[],"categories_nodes":[],"categories_segments":[],"categories_sizes":[],"default_left":[0,0,0],"id":27,"left_children":[1,-1,-1],"loss_changes":[1.3837338E-6,0E0,0E0],"parents":[2147483647,0,0],"right_children":[2,-1,-1],"split_conditions":[9.98985E-5,-8.742033E-7,2.0694688E-6],"split_indices":[41,0,0],"split_type":[0,0,0],"sum_hessian":[1.9324252E3,1.3702379E3,5.621873E2],"tree_param":{"num_deleted":"0","num_feature":"49","num_nodes":"3","size_leaf_vector":"1"}},{"base_weights":[-9.077712E-7,-1.1867733E-6,1.488438E-6],"categories":[],"categories_nodes":[],"categories_segments":[],"categories_sizes":[],"default_left":[0,0,0],"id":28,"left_children":[1,-1,-1],"loss_changes":[1.3573641E-6,0E0,0E0],"parents":[2147483647,0,0],"right_children":[2,-1,-1],"split_conditions":[5.5872857E-5,-1.1867733E-6,1.488438E-6],"split_indices":[1,0,0],"split_type":[0,0,0],"sum_hessian":[1.9363228E3,1.1103162E3,8.2600665E2],"tree_param":{"num_deleted":"0","num_feature":"49","num_nodes":"3","size_leaf_vector":"1"}},{"base_weights":[1.0375799E-6,-2.1258852E-7,6.418177E-6],"categories":[],"categories_nodes":[],"categories_segments":[],"categories_sizes":[],"default_left":[0,0,0],"id":29,"left_children":[1,-1,-1],"loss_changes":[1.3138836E-6,0E0,0E0],"parents":[2147483647,0,0],"right_children":[2,-1,-1],"split_conditions":[2.5603E-4,-2.1258852E-7,6.418177E-6],"split_indices":[23,0,0],"split_type":[0,0,0],"sum_hessian":[1.9491013E3,1.8722897E3,7.681168E1],"tree_param":{"num_deleted":"0","num_feature":"49","num_nodes":"3","size_leaf_vector":"1"}},{"base_weights":[1.204379E-6,-2.3392191E-7,6.0758152E-6],"categories":[],"categories_nodes":[],"categories_segments":[],"categories_sizes":[],"default_left":[0,0,0],"id":30,"left_children":[1,-1,-1],"loss_changes":[1.3714005E-6,0E0,0E0],"parents":[2147483647,0,0],"right_children":[2,-1,-1],"split_conditions":[9.5238096E-1,-2.3392191E-7,6.0758152E-6],"split_indices":[11,0,0],"split_type":[0,0,0],"sum_hessian":[1.9358242E3,1.8464983E3,8.932596E1],"tree_param":{"num_deleted":"0","num_feature":"49","num_nodes":"3","size_leaf_vector":"1"}},{"base_weights":[-5.169205E-7,-1.0477593E-6,1.5091161E-6],"categories":[],"categories_nodes":[],"categories_segments":[],"categories_sizes":[],"default_left":[0,0,0],"id":31,"left_children":[1,-1,-1],"loss_changes":[1.2177608E-6,0E0,0E0],"parents":[2147483647,0,0],"right_children":[2,-1,-1],"split_conditions":[9.508E-5,-1.0477593E-6,1.5091161E-6],"split_indices":[0,0,0],"split_type":[0,0,0],"sum_hessian":[1.9388344E3,1.1641259E3,7.7470856E2],"tree_param":{"num_deleted":"0","num_feature":"49","num_nodes":"3","size_leaf_vector":"1"}},{"base_weights":[-6.1270094E-7,-2.711943E-6,4.7654882E-7],"categories":[],"categories_nodes":[],"categories_segments":[],"categories_sizes":[],"default_left":[0,0,0],"id":32,"left_children":[1,-1,-1],"loss_changes":[1.0811626E-6,0E0,0E0],"parents":[2147483647,0,0],"right_children":[2,-1,-1],"split_conditions":[-3.807E-5,-2.711943E-6,4.7654882E-7],"split_indices":[0,0,0],"split_type":[0,0,0],"sum_hessian":[1.9856038E3,3.1515262E2,1.6704512E3],"tree_param":{"num_deleted":"0","num_feature":"49","num_nodes":"3","size_leaf_vector":"1"}},{"base_weights":[-5.020105E-7,-2.6493237E-7,5.85095E-6],"categories":[],"categories_nodes":[],"categories_segments":[],"categories_sizes":[],"default_left":[0,0,0],"id":33,"left_children":[1,-1,-1],"loss_changes":[1.0951123E-6,0E0,0E0],"parents":[2147483647,0,0],"right_children":[2,-1,-1],"split_conditions":[2.7143E-4,-2.6493237E-7,5.85095E-6],"split_indices":[23,0,0],"split_type":[0,0,0],"sum_hessian":[1.9406027E3,1.8654203E3,7.518248E1],"tree_param":{"num_deleted":"0","num_feature":"49","num_nodes":"3","size_leaf_vector":"1"}},{"base_weights":[-1.5298019E-6,-2.449964E-7,8.15558E-6],"categories":[],"categories_nodes":[],"categories_segments":[],"categories_sizes":[],"default_left":[0,0,0],"id":34,"left_children":[1,-1,-1],"loss_changes":[1.0876503E-6,0E0,0E0],"parents":[2147483647,0,0],"right_children":[2,-1,-1],"split_conditions":[5.091E-4,-2.449964E-7,8.15558E-6],"split_indices":[0,0,0],"split_type":[0,0,0],"sum_hessian":[1.9577765E3,1.9194564E3,3.8320057E1],"tree_param":{"num_deleted":"0","num_feature":"49","num_nodes":"3","size_leaf_vector":"1"}},{"base_weights":[-8.996983E-7,-2.2855389E-5,1.1417872E-8],"categories":[],"categories_nodes":[],"categories_segments":[],"categories_sizes":[],"default_left":[0,0,0],"id":35,"left_children":[1,-1,-1],"loss_changes":[1.0007261E-6,0E0,0E0],"parents":[2147483647,0,0],"right_children":[2,-1,-1],"split_conditions":[-5.5791E-4,-2.2855389E-5,1.1417872E-8],"split_indices":[0,0,0],"split_type":[0,0,0],"sum_hessian":[1.9433586E3,3.7964134E0,1.9395623E3],"tree_param":{"num_deleted":"0","num_feature":"49","num_nodes":"3","size_leaf_vector":"1"}},{"base_weights":[-7.671476E-7],"categories":[],"categories_nodes":[],"categories_segments":[],"categories_sizes":[],"default_left":[0],"id":36,"left_children":[-1],"loss_changes":[0E0],"parents":[2147483647],"right_children":[-1],"split_conditions":[-3.835738E-8],"split_indices":[0],"split_type":[0],"sum_hessian":[1.9466921E3],"tree_param":{"num_deleted":"0","num_feature":"49","num_nodes":"1","size_leaf_vector":"1"}},{"base_weights":[-4.0862153E-7,-2.2479782E-5,8.3076156E-7,-9.468229E-8,9.853989E-6],"categories":[],"categories_nodes":[],"categories_segments":[],"categories_sizes":[],"default_left":[0,0,0,0,0],"id":37,"left_children":[1,-1,3,-1,-1],"loss_changes":[1.0940015E-6,0E0,1.0483242E-6,0E0,0E0],"parents":[2147483647,0,0,2,2],"right_children":[2,-1,4,-1,-1],"split_conditions":[-1.76649E-4,-2.2479782E-5,4.698205E-4,-9.468229E-8,9.853989E-6],"split_indices":[41,0,41,0,0],"split_type":[0,0,0,0,0],"sum_hessian":[1.9634313E3,4.407129E0,1.9590242E3,1.9331774E3,2.5846792E1],"tree_param":{"num_deleted":"0","num_feature":"49","num_nodes":"5","size_leaf_vector":"1"}},{"base_weights":[-5.111114E-7],"categories":[],"categories_nodes":[],"categories_segments":[],"categories_sizes":[],"default_left":[0],"id":38,"left_children":[-1],"loss_changes":[0E0],"parents":[2147483647],"right_children":[-1],"split_conditions":[-2.555557E-8],"split_indices":[0],"split_type":[0],"sum_hessian":[1.9648535E3],"tree_param":{"num_deleted":"0","num_feature":"49","num_nodes":"1","size_leaf_vector":"1"}},{"base_weights":[1.9115403E-7],"categories":[],"categories_nodes":[],"categories_segments":[],"categories_sizes":[],"default_left":[0],"id":39,"left_children":[-1],"loss_changes":[0E0],"parents":[2147483647],"right_children":[-1],"split_conditions":[9.557701E-9],"split_indices":[0],"split_type":[0],"sum_hessian":[1.9482924E3],"tree_param":{"num_deleted":"0","num_feature":"49","num_nodes":"1","size_leaf_vector":"1"}},{"base_weights":[-1.9425227E-6,-1.7157862E-6,7.196098E-7],"categories":[],"categories_nodes":[],"categories_segments":[],"categories_sizes":[],"default_left":[0,0,0],"id":40,"left_children":[1,-1,-1],"loss_changes":[1.0361141E-6,0E0,0E0],"parents":[2147483647,0,0],"right_children":[2,-1,-1],"split_conditions":[1.3603333E-5,-1.7157862E-6,7.196098E-7],"split_indices":[1,0,0],"split_type":[0,0,0],"sum_hessian":[1.9574086E3,6.560686E2,1.30134E3],"tree_param":{"num_deleted":"0","num_feature":"49","num_nodes":"3","size_leaf_vector":"1"}},{"base_weights":[-1.4888059E-6],"categories":[],"categories_nodes":[],"categories_segments":[],"categories_sizes":[],"default_left":[0],"id":41,"left_children":[-1],"loss_changes":[0E0],"parents":[2147483647],"right_children":[-1],"split_conditions":[-7.4440294E-8],"split_indices":[0],"split_type":[0],"sum_hessian":[1.9545259E3],"tree_param":{"num_deleted":"0","num_feature":"49","num_nodes":"1","size_leaf_vector":"1"}},{"base_weights":[-7.2247263E-7],"categories":[],"categories_nodes":[],"categories_segments":[],"categories_sizes":[],"default_left":[0],"id":42,"left_children":[-1],"loss_changes":[0E0],"parents":[2147483647],"right_children":[-1],"split_conditions":[-3.6123634E-8],"split_indices":[0],"split_type":[0],"sum_hessian":[1.9661697E3],"tree_param":{"num_deleted":"0","num_feature":"49","num_nodes":"1","size_leaf_vector":"1"}},{"base_weights":[3.7681684E-7],"categories":[],"categories_nodes":[],"categories_segments":[],"categories_sizes":[],"default_left":[0],"id":43,"left_children":[-1],"loss_changes":[0E0],"parents":[2147483647],"right_children":[-1],"split_conditions":[1.8840842E-8],"split_indices":[0],"split_type":[0],"sum_hessian":[1.944144E3],"tree_param":{"num_deleted":"0","num_feature":"49","num_nodes":"1","size_leaf_vector":"1"}},{"base_weights":[5.824601E-7,-2.1551288E-7,5.406177E-6],"categories":[],"categories_nodes":[],"categories_segments":[],"categories_sizes":[],"default_left":[0,0,0],"id":44,"left_children":[1,-1,-1],"loss_changes":[1.0138672E-6,0E0,0E0],"parents":[2147483647,0,0],"right_children":[2,-1,-1],"split_conditions":[2.5603E-4,-2.1551288E-7,5.406177E-6],"split_indices":[23,0,0],"split_type":[0,0,0],"sum_hessian":[1.9250023E3,1.8421511E3,8.285109E1],"tree_param":{"num_deleted":"0","num_feature":"49","num_nodes":"3","size_leaf_vector":"1"}},{"base_weights":[-1.304262E-7],"categories":[],"categories_nodes":[],"categories_segments":[],"categories_sizes":[],"default_left":[0],"id":45,"left_children":[-1],"loss_changes":[0E0],"parents":[2147483647],"right_children":[-1],"split_conditions":[-6.52131E-9],"split_indices":[0],"split_type":[0],"sum_hessian":[1.9353452E3],"tree_param":{"num_deleted":"0","num_feature":"49","num_nodes":"1","size_leaf_vector":"1"}},{"base_weights":[-5.3396684E-7],"categories":[],"categories_nodes":[],"categories_segments":[],"categories_sizes":[],"default_left":[0],"id":46,"left_children":[-1],"loss_changes":[0E0],"parents":[2147483647],"right_children":[-1],"split_conditions":[-2.6698343E-8],"split_indices":[0],"split_type":[0],"sum_hessian":[1.9489183E3],"tree_param":{"num_deleted":"0","num_feature":"49","num_nodes":"1","size_leaf_vector":"1"}},{"base_weights":[-3.880495E-7],"categories":[],"categories_nodes":[],"categories_segments":[],"categories_sizes":[],"default_left":[0],"id":47,"left_children":[-1],"loss_changes":[0E0],"parents":[2147483647],"right_children":[-1],"split_conditions":[-1.9402476E-8],"split_indices":[0],"split_type":[0],"sum_hessian":[1.9799606E3],"tree_param":{"num_deleted":"0","num_feature":"49","num_nodes":"1","size_leaf_vector":"1"}},{"base_weights":[-1.6768997E-6],"categories":[],"categories_nodes":[],"categories_segments":[],"categories_sizes":[],"default_left":[0],"id":48,"left_children":[-1],"loss_changes":[0E0],"parents":[2147483647],"right_children":[-1],"split_conditions":[-8.384499E-8],"split_indices":[0],"split_type":[0],"sum_hessian":[1.9644855E3],"tree_param":{"num_deleted":"0","num_feature":"49","num_nodes":"1","size_leaf_vector":"1"}},{"base_weights":[7.5482717E-7],"categories":[],"categories_nodes":[],"categories_segments":[],"categories_sizes":[],"default_left":[0],"id":49,"left_children":[-1],"loss_changes":[0E0],"parents":[2147483647],"right_children":[-1],"split_conditions":[3.774136E-8],"split_indices":[0],"split_type":[0],"sum_hessian":[1.9665658E3],"tree_param":{"num_deleted":"0","num_feature":"49","num_nodes":"1","size_leaf_vector":"1"}},{"base_weights":[2.9292113E-7],"categories":[],"categories_nodes":[],"categories_segments":[],"categories_sizes":[],"default_left":[0],"id":50,"left_children":[-1],"loss_changes":[0E0],"parents":[2147483647],"right_children":[-1],"split_conditions":[1.4646057E-8],"split_indices":[0],"split_type":[0],"sum_hessian":[1.9543684E3],"tree_param":{"num_deleted":"0","num_feature":"49","num_nodes":"1","size_leaf_vector":"1"}},{"base_weights":[5.192191E-7],"categories":[],"categories_nodes":[],"categories_segments":[],"categories_sizes":[],"default_left":[0],"id":51,"left_children":[-1],"loss_changes":[0E0],"parents":[2147483647],"right_children":[-1],"split_conditions":[2.5960956E-8],"split_indices":[0],"split_type":[0],"sum_hessian":[1.9605422E3],"tree_param":{"num_deleted":"0","num_feature":"49","num_nodes":"1","size_leaf_vector":"1"}},{"base_weights":[-2.492692E-7],"categories":[],"categories_nodes":[],"categories_segments":[],"categories_sizes":[],"default_left":[0],"id":52,"left_children":[-1],"loss_changes":[0E0],"parents":[2147483647],"right_children":[-1],"split_conditions":[-1.246346E-8],"split_indices":[0],"split_type":[0],"sum_hessian":[1.955796E3],"tree_param":{"num_deleted":"0","num_feature":"49","num_nodes":"1","size_leaf_vector":"1"}},{"base_weights":[-4.830473E-7],"categories":[],"categories_nodes":[],"categories_segments":[],"categories_sizes":[],"default_left":[0],"id":53,"left_children":[-1],"loss_changes":[0E0],"parents":[2147483647],"right_children":[-1],"split_conditions":[-2.4152365E-8],"split_indices":[0],"split_type":[0],"sum_hessian":[1.9515981E3],"tree_param":{"num_deleted":"0","num_feature":"49","num_nodes":"1","size_leaf_vector":"1"}},{"base_weights":[-1.863459E-6],"categories":[],"categories_nodes":[],"categories_segments":[],"categories_sizes":[],"default_left":[0],"id":54,"left_children":[-1],"loss_changes":[0E0],"parents":[2147483647],"right_children":[-1],"split_conditions":[-9.317295E-8],"split_indices":[0],"split_type":[0],"sum_hessian":[1.9521525E3],"tree_param":{"num_deleted":"0","num_feature":"49","num_nodes":"1","size_leaf_vector":"1"}},{"base_weights":[-1.8448042E-6],"categories":[],"categories_nodes":[],"categories_segments":[],"categories_sizes":[],"default_left":[0],"id":55,"left_children":[-1],"loss_changes":[0E0],"parents":[2147483647],"right_children":[-1],"split_conditions":[-9.224021E-8],"split_indices":[0],"split_type":[0],"sum_hessian":[1.9629633E3],"tree_param":{"num_deleted":"0","num_feature":"49","num_nodes":"1","size_leaf_vector":"1"}},{"base_weights":[6.137358E-7,-5.8898557E-5,4.702129E-7,-2.9182676E-5,-2.479272E-6],"categories":[],"categories_nodes":[],"categories_segments":[],"categories_sizes":[],"default_left":[0,0,0,0,0],"id":56,"left_children":[1,3,-1,-1,-1],"loss_changes":[1.0341066E-6,1.2143541E-6,0E0,0E0,0E0],"parents":[2147483647,0,0,1,1],"right_children":[2,4,-1,-1,-1],"split_conditions":[-2.1039048E-5,4.4292687E-5,4.702129E-7,-2.9182676E-5,-2.479272E-6],"split_indices":[1,48,0,0,0],"split_type":[0,0,0,0,0],"sum_hessian":[1.9746559E3,2.5340315E2,1.7212528E3,3.3434556E0,2.500597E2],"tree_param":{"num_deleted":"0","num_feature":"49","num_nodes":"5","size_leaf_vector":"1"}},{"base_weights":[-2.2829868E-6],"categories":[],"categories_nodes":[],"categories_segments":[],"categories_sizes":[],"default_left":[0],"id":57,"left_children":[-1],"loss_changes":[0E0],"parents":[2147483647],"right_children":[-1],"split_conditions":[-1.1414934E-7],"split_indices":[0],"split_type":[0],"sum_hessian":[1.9355673E3],"tree_param":{"num_deleted":"0","num_feature":"49","num_nodes":"1","size_leaf_vector":"1"}},{"base_weights":[-1.4139468E-7],"categories":[],"categories_nodes":[],"categories_segments":[],"categories_sizes":[],"default_left":[0],"id":58,"left_children":[-1],"loss_changes":[0E0],"parents":[2147483647],"right_children":[-1],"split_conditions":[-7.069734E-9],"split_indices":[0],"split_type":[0],"sum_hessian":[1.9679722E3],"tree_param":{"num_deleted":"0","num_feature":"49","num_nodes":"1","size_leaf_vector":"1"}},{"base_weights":[1.962893E-6],"categories":[],"categories_nodes":[],"categories_segments":[],"categories_sizes":[],"default_left":[0],"id":59,"left_children":[-1],"loss_changes":[0E0],"parents":[2147483647],"right_children":[-1],"split_conditions":[9.814465E-8],"split_indices":[0],"split_type":[0],"sum_hessian":[2.0032384E3],"tree_param":{"num_deleted":"0","num_feature":"49","num_nodes":"1","size_leaf_vector":"1"}},{"base_weights":[1.8745385E-6],"categories":[],"categories_nodes":[],"categories_segments":[],"categories_sizes":[],"default_left":[0],"id":60,"left_children":[-1],"loss_changes":[0E0],"parents":[2147483647],"right_children":[-1],"split_conditions":[9.3726925E-8],"split_indices":[0],"split_type":[0],"sum_hessian":[1.9663145E3],"tree_param":{"num_deleted":"0","num_feature":"49","num_nodes":"1","size_leaf_vector":"1"}},{"base_weights":[1.7486387E-6],"categories":[],"categories_nodes":[],"categories_segments":[],"categories_sizes":[],"default_left":[0],"id":61,"left_children":[-1],"loss_changes":[0E0],"parents":[2147483647],"right_children":[-1],"split_conditions":[8.7431935E-8],"split_indices":[0],"split_type":[0],"sum_hessian":[1.9473507E3],"tree_param":{"num_deleted":"0","num_feature":"49","num_nodes":"1","size_leaf_vector":"1"}},{"base_weights":[1.5490807E-6],"categories":[],"categories_nodes":[],"categories_segments":[],"categories_sizes":[],"default_left":[0],"id":62,"left_children":[-1],"loss_changes":[0E0],"parents":[2147483647],"right_children":[-1],"split_conditions":[7.745404E-8],"split_indices":[0],"split_type":[0],"sum_hessian":[1.9605842E3],"tree_param":{"num_deleted":"0","num_feature":"49","num_nodes":"1","size_leaf_vector":"1"}},{"base_weights":[4.0670545E-7],"categories":[],"categories_nodes":[],"categories_segments":[],"categories_sizes":[],"default_left":[0],"id":63,"left_children":[-1],"loss_changes":[0E0],"parents":[2147483647],"right_children":[-1],"split_conditions":[2.0335273E-8],"split_indices":[0],"split_type":[0],"sum_hessian":[1.930916E3],"tree_param":{"num_deleted":"0","num_feature":"49","num_nodes":"1","size_leaf_vector":"1"}},{"base_weights":[-7.34135E-7],"categories":[],"categories_nodes":[],"categories_segments":[],"categories_sizes":[],"default_left":[0],"id":64,"left_children":[-1],"loss_changes":[0E0],"parents":[2147483647],"right_children":[-1],"split_conditions":[-3.670675E-8],"split_indices":[0],"split_type":[0],"sum_hessian":[1.9281599E3],"tree_param":{"num_deleted":"0","num_feature":"49","num_nodes":"1","size_leaf_vector":"1"}},{"base_weights":[1.2060343E-8],"categories":[],"categories_nodes":[],"categories_segments":[],"categories_sizes":[],"default_left":[0],"id":65,"left_children":[-1],"loss_changes":[0E0],"parents":[2147483647],"right_children":[-1],"split_conditions":[6.0301714E-10],"split_indices":[0],"split_type":[0],"sum_hessian":[1.9583252E3],"tree_param":{"num_deleted":"0","num_feature":"49","num_nodes":"1","size_leaf_vector":"1"}},{"base_weights":[2.0795349E-7],"categories":[],"categories_nodes":[],"categories_segments":[],"categories_sizes":[],"default_left":[0],"id":66,"left_children":[-1],"loss_changes":[0E0],"parents":[2147483647],"right_children":[-1],"split_conditions":[1.0397675E-8],"split_indices":[0],"split_type":[0],"sum_hessian":[1.9736685E3],"tree_param":{"num_deleted":"0","num_feature":"49","num_nodes":"1","size_leaf_vector":"1"}},{"base_weights":[-1.3914673E-6],"categories":[],"categories_nodes":[],"categories_segments":[],"categories_sizes":[],"default_left":[0],"id":67,"left_children":[-1],"loss_changes":[0E0],"parents":[2147483647],"right_children":[-1],"split_conditions":[-6.957337E-8],"split_indices":[0],"split_type":[0],"sum_hessian":[1.9311132E3],"tree_param":{"num_deleted":"0","num_feature":"49","num_nodes":"1","size_leaf_vector":"1"}},{"base_weights":[-1.4126746E-6],"categories":[],"categories_nodes":[],"categories_segments":[],"categories_sizes":[],"default_left":[0],"id":68,"left_children":[-1],"loss_changes":[0E0],"parents":[2147483647],"right_children":[-1],"split_conditions":[-7.063373E-8],"split_indices":[0],"split_type":[0],"sum_hessian":[1.9437073E3],"tree_param":{"num_deleted":"0","num_feature":"49","num_nodes":"1","size_leaf_vector":"1"}},{"base_weights":[3.8958194E-7],"categories":[],"categories_nodes":[],"categories_segments":[],"categories_sizes":[],"default_left":[0],"id":69,"left_children":[-1],"loss_changes":[0E0],"parents":[2147483647],"right_children":[-1],"split_conditions":[1.9479097E-8],"split_indices":[0],"split_type":[0],"sum_hessian":[1.95377E3],"tree_param":{"num_deleted":"0","num_feature":"49","num_nodes":"1","size_leaf_vector":"1"}},{"base_weights":[-8.247305E-7],"categories":[],"categories_nodes":[],"categories_segments":[],"categories_sizes":[],"default_left":[0],"id":70,"left_children":[-1],"loss_changes":[0E0],"parents":[2147483647],"right_children":[-1],"split_conditions":[-4.1236525E-8],"split_indices":[0],"split_type":[0],"sum_hessian":[1.9238918E3],"tree_param":{"num_deleted":"0","num_feature":"49","num_nodes":"1","size_leaf_vector":"1"}},{"base_weights":[-1.320552E-7],"categories":[],"categories_nodes":[],"categories_segments":[],"categories_sizes":[],"default_left":[0],"id":71,"left_children":[-1],"loss_changes":[0E0],"parents":[2147483647],"right_children":[-1],"split_conditions":[-6.6027606E-9],"split_indices":[0],"split_type":[0],"sum_hessian":[1.970682E3],"tree_param":{"num_deleted":"0","num_feature":"49","num_nodes":"1","size_leaf_vector":"1"}},{"base_weights":[1.7356037E-6],"categories":[],"categories_nodes":[],"categories_segments":[],"categories_sizes":[],"default_left":[0],"id":72,"left_children":[-1],"loss_changes":[0E0],"parents":[2147483647],"right_children":[-1],"split_conditions":[8.678019E-8],"split_indices":[0],"split_type":[0],"sum_hessian":[1.9348427E3],"tree_param":{"num_deleted":"0","num_feature":"49","num_nodes":"1","size_leaf_vector":"1"}},{"base_weights":[-7.7196086E-7],"categories":[],"categories_nodes":[],"categories_segments":[],"categories_sizes":[],"default_left":[0],"id":73,"left_children":[-1],"loss_changes":[0E0],"parents":[2147483647],"right_children":[-1],"split_conditions":[-3.8598042E-8],"split_indices":[0],"split_type":[0],"sum_hessian":[1.9433779E3],"tree_param":{"num_deleted":"0","num_feature":"49","num_nodes":"1","size_leaf_vector":"1"}},{"base_weights":[8.512452E-8],"categories":[],"categories_nodes":[],"categories_segments":[],"categories_sizes":[],"default_left":[0],"id":74,"left_children":[-1],"loss_changes":[0E0],"parents":[2147483647],"right_children":[-1],"split_conditions":[4.256226E-9],"split_indices":[0],"split_type":[0],"sum_hessian":[1.9612087E3],"tree_param":{"num_deleted":"0","num_feature":"49","num_nodes":"1","size_leaf_vector":"1"}},{"base_weights":[-4.563275E-7],"categories":[],"categories_nodes":[],"categories_segments":[],"categories_sizes":[],"default_left":[0],"id":75,"left_children":[-1],"loss_changes":[0E0],"parents":[2147483647],"right_children":[-1],"split_conditions":[-2.2816376E-8],"split_indices":[0],"split_type":[0],"sum_hessian":[1.9720712E3],"tree_param":{"num_deleted":"0","num_feature":"49","num_nodes":"1","size_leaf_vector":"1"}},{"base_weights":[-7.0190265E-7],"categories":[],"categories_nodes":[],"categories_segments":[],"categories_sizes":[],"default_left":[0],"id":76,"left_children":[-1],"loss_changes":[0E0],"parents":[2147483647],"right_children":[-1],"split_conditions":[-3.5095134E-8],"split_indices":[0],"split_type":[0],"sum_hessian":[1.9876802E3],"tree_param":{"num_deleted":"0","num_feature":"49","num_nodes":"1","size_leaf_vector":"1"}},{"base_weights":[-6.1002055E-8],"categories":[],"categories_nodes":[],"categories_segments":[],"categories_sizes":[],"default_left":[0],"id":77,"left_children":[-1],"loss_changes":[0E0],"parents":[2147483647],"right_children":[-1],"split_conditions":[-3.0501028E-9],"split_indices":[0],"split_type":[0],"sum_hessian":[1.976206E3],"tree_param":{"num_deleted":"0","num_feature":"49","num_nodes":"1","size_leaf_vector":"1"}},{"base_weights":[-9.627969E-7],"categories":[],"categories_nodes":[],"categories_segments":[],"categories_sizes":[],"default_left":[0],"id":78,"left_children":[-1],"loss_changes":[0E0],"parents":[2147483647],"right_children":[-1],"split_conditions":[-4.8139846E-8],"split_indices":[0],"split_type":[0],"sum_hessian":[1.9498798E3],"tree_param":{"num_deleted":"0","num_feature":"49","num_nodes":"1","size_leaf_vector":"1"}},{"base_weights":[7.371491E-7],"categories":[],"categories_nodes":[],"categories_segments":[],"categories_sizes":[],"default_left":[0],"id":79,"left_children":[-1],"loss_changes":[0E0],"parents":[2147483647],"right_children":[-1],"split_conditions":[3.6857454E-8],"split_indices":[0],"split_type":[0],"sum_hessian":[1.9103103E3],"tree_param":{"num_deleted":"0","num_feature":"49","num_nodes":"1","size_leaf_vector":"1"}},{"base_weights":[-1.3633098E-6],"categories":[],"categories_nodes":[],"categories_segments":[],"categories_sizes":[],"default_left":[0],"id":80,"left_children":[-1],"loss_changes":[0E0],"parents":[2147483647],"right_children":[-1],"split_conditions":[-6.816549E-8],"split_indices":[0],"split_type":[0],"sum_hessian":[1.9747528E3],"tree_param":{"num_deleted":"0","num_feature":"49","num_nodes":"1","size_leaf_vector":"1"}},{"base_weights":[-1.4932392E-6],"categories":[],"categories_nodes":[],"categories_segments":[],"categories_sizes":[],"default_left":[0],"id":81,"left_children":[-1],"loss_changes":[0E0],"parents":[2147483647],"right_children":[-1],"split_conditions":[-7.466196E-8],"split_indices":[0],"split_type":[0],"sum_hessian":[1.9774713E3],"tree_param":{"num_deleted":"0","num_feature":"49","num_nodes":"1","size_leaf_vector":"1"}},{"base_weights":[-1.0637516E-6],"categories":[],"categories_nodes":[],"categories_segments":[],"categories_sizes":[],"default_left":[0],"id":82,"left_children":[-1],"loss_changes":[0E0],"parents":[2147483647],"right_children":[-1],"split_conditions":[-5.318758E-8],"split_indices":[0],"split_type":[0],"sum_hessian":[1.9527012E3],"tree_param":{"num_deleted":"0","num_feature":"49","num_nodes":"1","size_leaf_vector":"1"}},{"base_weights":[1.2919065E-6],"categories":[],"categories_nodes":[],"categories_segments":[],"categories_sizes":[],"default_left":[0],"id":83,"left_children":[-1],"loss_changes":[0E0],"parents":[2147483647],"right_children":[-1],"split_conditions":[6.4595326E-8],"split_indices":[0],"split_type":[0],"sum_hessian":[1.9672354E3],"tree_param":{"num_deleted":"0","num_feature":"49","num_nodes":"1","size_leaf_vector":"1"}},{"base_weights":[-2.6541497E-7],"categories":[],"categories_nodes":[],"categories_segments":[],"categories_sizes":[],"default_left":[0],"id":84,"left_children":[-1],"loss_changes":[0E0],"parents":[2147483647],"right_children":[-1],"split_conditions":[-1.3270749E-8],"split_indices":[0],"split_type":[0],"sum_hessian":[1.9553557E3],"tree_param":{"num_deleted":"0","num_feature":"49","num_nodes":"1","size_leaf_vector":"1"}},{"base_weights":[9.79875E-7],"categories":[],"categories_nodes":[],"categories_segments":[],"categories_sizes":[],"default_left":[0],"id":85,"left_children":[-1],"loss_changes":[0E0],"parents":[2147483647],"right_children":[-1],"split_conditions":[4.899375E-8],"split_indices":[0],"split_type":[0],"sum_hessian":[1.9632329E3],"tree_param":{"num_deleted":"0","num_feature":"49","num_nodes":"1","size_leaf_vector":"1"}},{"base_weights":[-6.7511786E-7],"categories":[],"categories_nodes":[],"categories_segments":[],"categories_sizes":[],"default_left":[0],"id":86,"left_children":[-1],"loss_changes":[0E0],"parents":[2147483647],"right_children":[-1],"split_conditions":[-3.3755892E-8],"split_indices":[0],"split_type":[0],"sum_hessian":[1.9394598E3],"tree_param":{"num_deleted":"0","num_feature":"49","num_nodes":"1","size_leaf_vector":"1"}},{"base_weights":[2.035159E-6],"categories":[],"categories_nodes":[],"categories_segments":[],"categories_sizes":[],"default_left":[0],"id":87,"left_children":[-1],"loss_changes":[0E0],"parents":[2147483647],"right_children":[-1],"split_conditions":[1.01757955E-7],"split_indices":[0],"split_type":[0],"sum_hessian":[1.9621711E3],"tree_param":{"num_deleted":"0","num_feature":"49","num_nodes":"1","size_leaf_vector":"1"}},{"base_weights":[2.5416065E-7],"categories":[],"categories_nodes":[],"categories_segments":[],"categories_sizes":[],"default_left":[0],"id":88,"left_children":[-1],"loss_changes":[0E0],"parents":[2147483647],"right_children":[-1],"split_conditions":[1.2708033E-8],"split_indices":[0],"split_type":[0],"sum_hessian":[1.989367E3],"tree_param":{"num_deleted":"0","num_feature":"49","num_nodes":"1","size_leaf_vector":"1"}},{"base_weights":[-9.547916E-8],"categories":[],"categories_nodes":[],"categories_segments":[],"categories_sizes":[],"default_left":[0],"id":89,"left_children":[-1],"loss_changes":[0E0],"parents":[2147483647],"right_children":[-1],"split_conditions":[-4.773958E-9],"split_indices":[0],"split_type":[0],"sum_hessian":[1.9738735E3],"tree_param":{"num_deleted":"0","num_feature":"49","num_nodes":"1","size_leaf_vector":"1"}},{"base_weights":[7.4623095E-8],"categories":[],"categories_nodes":[],"categories_segments":[],"categories_sizes":[],"default_left":[0],"id":90,"left_children":[-1],"loss_changes":[0E0],"parents":[2147483647],"right_children":[-1],"split_conditions":[3.731155E-9],"split_indices":[0],"split_type":[0],"sum_hessian":[1.9255396E3],"tree_param":{"num_deleted":"0","num_feature":"49","num_nodes":"1","size_leaf_vector":"1"}},{"base_weights":[-1.6561804E-6],"categories":[],"categories_nodes":[],"categories_segments":[],"categories_sizes":[],"default_left":[0],"id":91,"left_children":[-1],"loss_changes":[0E0],"parents":[2147483647],"right_children":[-1],"split_conditions":[-8.2809024E-8],"split_indices":[0],"split_type":[0],"sum_hessian":[1.9303792E3],"tree_param":{"num_deleted":"0","num_feature":"49","num_nodes":"1","size_leaf_vector":"1"}},{"base_weights":[1.4299493E-6],"categories":[],"categories_nodes":[],"categories_segments":[],"categories_sizes":[],"default_left":[0],"id":92,"left_children":[-1],"loss_changes":[0E0],"parents":[2147483647],"right_children":[-1],"split_conditions":[7.149747E-8],"split_indices":[0],"split_type":[0],"sum_hessian":[1.9572285E3],"tree_param":{"num_deleted":"0","num_feature":"49","num_nodes":"1","size_leaf_vector":"1"}},{"base_weights":[-2.627612E-7],"categories":[],"categories_nodes":[],"categories_segments":[],"categories_sizes":[],"default_left":[0],"id":93,"left_children":[-1],"loss_changes":[0E0],"parents":[2147483647],"right_children":[-1],"split_conditions":[-1.313806E-8],"split_indices":[0],"split_type":[0],"sum_hessian":[1.9574053E3],"tree_param":{"num_deleted":"0","num_feature":"49","num_nodes":"1","size_leaf_vector":"1"}},{"base_weights":[1.3162271E-6],"categories":[],"categories_nodes":[],"categories_segments":[],"categories_sizes":[],"default_left":[0],"id":94,"left_children":[-1],"loss_changes":[0E0],"parents":[2147483647],"right_children":[-1],"split_conditions":[6.5811356E-8],"split_indices":[0],"split_type":[0],"sum_hessian":[1.9694631E3],"tree_param":{"num_deleted":"0","num_feature":"49","num_nodes":"1","size_leaf_vector":"1"}},{"base_weights":[2.0632321E-7],"categories":[],"categories_nodes":[],"categories_segments":[],"categories_sizes":[],"default_left":[0],"id":95,"left_children":[-1],"loss_changes":[0E0],"parents":[2147483647],"right_children":[-1],"split_conditions":[1.031616E-8],"split_indices":[0],"split_type":[0],"sum_hessian":[1.9446721E3],"tree_param":{"num_deleted":"0","num_feature":"49","num_nodes":"1","size_leaf_vector":"1"}},{"base_weights":[1.4879387E-7,-2.2698187E-7,5.6090444E-6],"categories":[],"categories_nodes":[],"categories_segments":[],"categories_sizes":[],"default_left":[0,0,0],"id":96,"left_children":[1,-1,-1],"loss_changes":[1.037748E-6,0E0,0E0],"parents":[2147483647,0,0],"right_children":[2,-1,-1],"split_conditions":[3.5449E-4,-2.2698187E-7,5.6090444E-6],"split_indices":[0,0,0],"split_type":[0,0,0],"sum_hessian":[1.9737346E3,1.8953745E3,7.836005E1],"tree_param":{"num_deleted":"0","num_feature":"49","num_nodes":"3","size_leaf_vector":"1"}},{"base_weights":[-4.923455E-7],"categories":[],"categories_nodes":[],"categories_segments":[],"categories_sizes":[],"default_left":[0],"id":97,"left_children":[-1],"loss_changes":[0E0],"parents":[2147483647],"right_children":[-1],"split_conditions":[-2.4617277E-8],"split_indices":[0],"split_type":[0],"sum_hessian":[1.9569872E3],"tree_param":{"num_deleted":"0","num_feature":"49","num_nodes":"1","size_leaf_vector":"1"}},{"base_weights":[-1.3297085E-7],"categories":[],"categories_nodes":[],"categories_segments":[],"categories_sizes":[],"default_left":[0],"id":98,"left_children":[-1],"loss_changes":[0E0],"parents":[2147483647],"right_children":[-1],"split_conditions":[-6.6485426E-9],"split_indices":[0],"split_type":[0],"sum_hessian":[1.9503987E3],"tree_param":{"num_deleted":"0","num_feature":"49","num_nodes":"1","size_leaf_vector":"1"}},{"base_weights":[-4.997783E-7],"categories":[],"categories_nodes":[],"categories_segments":[],"categories_sizes":[],"default_left":[0],"id":99,"left_children":[-1],"loss_changes":[0E0],"parents":[2147483647],"right_children":[-1],"split_conditions":[-2.4988916E-8],"split_indices":[0],"split_type":[0],"sum_hessian":[1.9918092E3],"tree_param":{"num_deleted":"0","num_feature":"49","num_nodes":"1","size_leaf_vector":"1"}},{"base_weights":[-1.7918056E-6],"categories":[],"categories_nodes":[],"categories_segments":[],"categories_sizes":[],"default_left":[0],"id":100,"left_children":[-1],"loss_changes":[0E0],"parents":[2147483647],"right_children":[-1],"split_conditions":[-8.959028E-8],"split_indices":[0],"split_type":[0],"sum_hessian":[1.9761268E3],"tree_param":{"num_deleted":"0","num_feature":"49","num_nodes":"1","size_leaf_vector":"1"}},{"base_weights":[2.3965129E-7],"categories":[],"categories_nodes":[],"categories_segments":[],"categories_sizes":[],"default_left":[0],"id":101,"left_children":[-1],"loss_changes":[0E0],"parents":[2147483647],"right_children":[-1],"split_conditions":[1.1982564E-8],"split_indices":[0],"split_type":[0],"sum_hessian":[1.9557086E3],"tree_param":{"num_deleted":"0","num_feature":"49","num_nodes":"1","size_leaf_vector":"1"}},{"base_weights":[-8.2681237E-7],"categories":[],"categories_nodes":[],"categories_segments":[],"categories_sizes":[],"default_left":[0],"id":102,"left_children":[-1],"loss_changes":[0E0],"parents":[2147483647],"right_children":[-1],"split_conditions":[-4.134062E-8],"split_indices":[0],"split_type":[0],"sum_hessian":[1.9494811E3],"tree_param":{"num_deleted":"0","num_feature":"49","num_nodes":"1","size_leaf_vector":"1"}},{"base_weights":[1.67575E-6],"categories":[],"categories_nodes":[],"categories_segments":[],"categories_sizes":[],"default_left":[0],"id":103,"left_children":[-1],"loss_changes":[0E0],"parents":[2147483647],"right_children":[-1],"split_conditions":[8.3787505E-8],"split_indices":[0],"split_type":[0],"sum_hessian":[1.9598627E3],"tree_param":{"num_deleted":"0","num_feature":"49","num_nodes":"1","size_leaf_vector":"1"}},{"base_weights":[1.3746247E-6],"categories":[],"categories_nodes":[],"categories_segments":[],"categories_sizes":[],"default_left":[0],"id":104,"left_children":[-1],"loss_changes":[0E0],"parents":[2147483647],"right_children":[-1],"split_conditions":[6.873124E-8],"split_indices":[0],"split_type":[0],"sum_hessian":[1.9384937E3],"tree_param":{"num_deleted":"0","num_feature":"49","num_nodes":"1","size_leaf_vector":"1"}},{"base_weights":[6.6461774E-7],"categories":[],"categories_nodes":[],"categories_segments":[],"categories_sizes":[],"default_left":[0],"id":105,"left_children":[-1],"loss_changes":[0E0],"parents":[2147483647],"right_children":[-1],"split_conditions":[3.3230886E-8],"split_indices":[0],"split_type":[0],"sum_hessian":[1.9928713E3],"tree_param":{"num_deleted":"0","num_feature":"49","num_nodes":"1","size_leaf_vector":"1"}},{"base_weights":[-1.0946414E-8],"categories":[],"categories_nodes":[],"categories_segments":[],"categories_sizes":[],"default_left":[0],"id":106,"left_children":[-1],"loss_changes":[0E0],"parents":[2147483647],"right_children":[-1],"split_conditions":[-5.4732074E-10],"split_indices":[0],"split_type":[0],"sum_hessian":[1.9523167E3],"tree_param":{"num_deleted":"0","num_feature":"49","num_nodes":"1","size_leaf_vector":"1"}},{"base_weights":[-1.1547751E-7],"categories":[],"categories_nodes":[],"categories_segments":[],"categories_sizes":[],"default_left":[0],"id":107,"left_children":[-1],"loss_changes":[0E0],"parents":[2147483647],"right_children":[-1],"split_conditions":[-5.7738756E-9],"split_indices":[0],"split_type":[0],"sum_hessian":[1.9467545E3],"tree_param":{"num_deleted":"0","num_feature":"49","num_nodes":"1","size_leaf_vector":"1"}},{"base_weights":[-5.156221E-7],"categories":[],"categories_nodes":[],"categories_segments":[],"categories_sizes":[],"default_left":[0],"id":108,"left_children":[-1],"loss_changes":[0E0],"parents":[2147483647],"right_children":[-1],"split_conditions":[-2.5781105E-8],"split_indices":[0],"split_type":[0],"sum_hessian":[1.9499181E3],"tree_param":{"num_deleted":"0","num_feature":"49","num_nodes":"1","size_leaf_vector":"1"}},{"base_weights":[-2.3921902E-7],"categories":[],"categories_nodes":[],"categories_segments":[],"categories_sizes":[],"default_left":[0],"id":109,"left_children":[-1],"loss_changes":[0E0],"parents":[2147483647],"right_children":[-1],"split_conditions":[-1.1960951E-8],"split_indices":[0],"split_type":[0],"sum_hessian":[1.9279912E3],"tree_param":{"num_deleted":"0","num_feature":"49","num_nodes":"1","size_leaf_vector":"1"}},{"base_weights":[-9.2033633E-7],"categories":[],"categories_nodes":[],"categories_segments":[],"categories_sizes":[],"default_left":[0],"id":110,"left_children":[-1],"loss_changes":[0E0],"parents":[2147483647],"right_children":[-1],"split_conditions":[-4.601682E-8],"split_indices":[0],"split_type":[0],"sum_hessian":[1.9632322E3],"tree_param":{"num_deleted":"0","num_feature":"49","num_nodes":"1","size_leaf_vector":"1"}},{"base_weights":[4.2604876E-7],"categories":[],"categories_nodes":[],"categories_segments":[],"categories_sizes":[],"default_left":[0],"id":111,"left_children":[-1],"loss_changes":[0E0],"parents":[2147483647],"right_children":[-1],"split_conditions":[2.1302439E-8],"split_indices":[0],"split_type":[0],"sum_hessian":[1.9458259E3],"tree_param":{"num_deleted":"0","num_feature":"49","num_nodes":"1","size_leaf_vector":"1"}},{"base_weights":[-4.4740815E-7],"categories":[],"categories_nodes":[],"categories_segments":[],"categories_sizes":[],"default_left":[0],"id":112,"left_children":[-1],"loss_changes":[0E0],"parents":[2147483647],"right_children":[-1],"split_conditions":[-2.2370408E-8],"split_indices":[0],"split_type":[0],"sum_hessian":[1.971257E3],"tree_param":{"num_deleted":"0","num_feature":"49","num_nodes":"1","size_leaf_vector":"1"}},{"base_weights":[-7.7110093E-7],"categories":[],"categories_nodes":[],"categories_segments":[],"categories_sizes":[],"default_left":[0],"id":113,"left_children":[-1],"loss_changes":[0E0],"parents":[2147483647],"right_children":[-1],"split_conditions":[-3.8555047E-8],"split_indices":[0],"split_type":[0],"sum_hessian":[1.987671E3],"tree_param":{"num_deleted":"0","num_feature":"49","num_nodes":"1","size_leaf_vector":"1"}},{"base_weights":[-4.926863E-7],"categories":[],"categories_nodes":[],"categories_segments":[],"categories_sizes":[],"default_left":[0],"id":114,"left_children":[-1],"loss_changes":[0E0],"parents":[2147483647],"right_children":[-1],"split_conditions":[-2.4634316E-8],"split_indices":[0],"split_type":[0],"sum_hessian":[1.961297E3],"tree_param":{"num_deleted":"0","num_feature":"49","num_nodes":"1","size_leaf_vector":"1"}},{"base_weights":[1.6409274E-6],"categories":[],"categories_nodes":[],"categories_segments":[],"categories_sizes":[],"default_left":[0],"id":115,"left_children":[-1],"loss_changes":[0E0],"parents":[2147483647],"right_children":[-1],"split_conditions":[8.204637E-8],"split_indices":[0],"split_type":[0],"sum_hessian":[2.0023873E3],"tree_param":{"num_deleted":"0","num_feature":"49","num_nodes":"1","size_leaf_vector":"1"}},{"base_weights":[4.6509675E-7],"categories":[],"categories_nodes":[],"categories_segments":[],"categories_sizes":[],"default_left":[0],"id":116,"left_children":[-1],"loss_changes":[0E0],"parents":[2147483647],"right_children":[-1],"split_conditions":[2.3254838E-8],"split_indices":[0],"split_type":[0],"sum_hessian":[1.969859E3],"tree_param":{"num_deleted":"0","num_feature":"49","num_nodes":"1","size_leaf_vector":"1"}},{"base_weights":[2.0251616E-6],"categories":[],"categories_nodes":[],"categories_segments":[],"categories_sizes":[],"default_left":[0],"id":117,"left_children":[-1],"loss_changes":[0E0],"parents":[2147483647],"right_children":[-1],"split_conditions":[1.0125808E-7],"split_indices":[0],"split_type":[0],"sum_hessian":[1.9264674E3],"tree_param":{"num_deleted":"0","num_feature":"49","num_nodes":"1","size_leaf_vector":"1"}},{"base_weights":[3.496823E-7],"categories":[],"categories_nodes":[],"categories_segments":[],"categories_sizes":[],"default_left":[0],"id":118,"left_children":[-1],"loss_changes":[0E0],"parents":[2147483647],"right_children":[-1],"split_conditions":[1.7484115E-8],"split_indices":[0],"split_type":[0],"sum_hessian":[1.9321432E3],"tree_param":{"num_deleted":"0","num_feature":"49","num_nodes":"1","size_leaf_vector":"1"}},{"base_weights":[-1.9049771E-6],"categories":[],"categories_nodes":[],"categories_segments":[],"categories_sizes":[],"default_left":[0],"id":119,"left_children":[-1],"loss_changes":[0E0],"parents":[2147483647],"right_children":[-1],"split_conditions":[-9.524886E-8],"split_indices":[0],"split_type":[0],"sum_hessian":[1.9470072E3],"tree_param":{"num_deleted":"0","num_feature":"49","num_nodes":"1","size_leaf_vector":"1"}},{"base_weights":[6.599742E-7],"categories":[],"categories_nodes":[],"categories_segments":[],"categories_sizes":[],"default_left":[0],"id":120,"left_children":[-1],"loss_changes":[0E0],"parents":[2147483647],"right_children":[-1],"split_conditions":[3.299871E-8],"split_indices":[0],"split_type":[0],"sum_hessian":[1.9566874E3],"tree_param":{"num_deleted":"0","num_feature":"49","num_nodes":"1","size_leaf_vector":"1"}},{"base_weights":[-1.3837188E-6],"categories":[],"categories_nodes":[],"categories_segments":[],"categories_sizes":[],"default_left":[0],"id":121,"left_children":[-1],"loss_changes":[0E0],"parents":[2147483647],"right_children":[-1],"split_conditions":[-6.918594E-8],"split_indices":[0],"split_type":[0],"sum_hessian":[1.9418947E3],"tree_param":{"num_deleted":"0","num_feature":"49","num_nodes":"1","size_leaf_vector":"1"}},{"base_weights":[3.115497E-7],"categories":[],"categories_nodes":[],"categories_segments":[],"categories_sizes":[],"default_left":[0],"id":122,"left_children":[-1],"loss_changes":[0E0],"parents":[2147483647],"right_children":[-1],"split_conditions":[1.5577486E-8],"split_indices":[0],"split_type":[0],"sum_hessian":[1.9482197E3],"tree_param":{"num_deleted":"0","num_feature":"49","num_nodes":"1","size_leaf_vector":"1"}},{"base_weights":[1.697306E-8],"categories":[],"categories_nodes":[],"categories_segments":[],"categories_sizes":[],"default_left":[0],"id":123,"left_children":[-1],"loss_changes":[0E0],"parents":[2147483647],"right_children":[-1],"split_conditions":[8.48653E-10],"split_indices":[0],"split_type":[0],"sum_hessian":[1.9794717E3],"tree_param":{"num_deleted":"0","num_feature":"49","num_nodes":"1","size_leaf_vector":"1"}},{"base_weights":[-1.5112514E-7],"categories":[],"categories_nodes":[],"categories_segments":[],"categories_sizes":[],"default_left":[0],"id":124,"left_children":[-1],"loss_changes":[0E0],"parents":[2147483647],"right_children":[-1],"split_conditions":[-7.556257E-9],"split_indices":[0],"split_type":[0],"sum_hessian":[1.9721486E3],"tree_param":{"num_deleted":"0","num_feature":"49","num_nodes":"1","size_leaf_vector":"1"}},{"base_weights":[-5.2500894E-7],"categories":[],"categories_nodes":[],"categories_segments":[],"categories_sizes":[],"default_left":[0],"id":125,"left_children":[-1],"loss_changes":[0E0],"parents":[2147483647],"right_children":[-1],"split_conditions":[-2.6250447E-8],"split_indices":[0],"split_type":[0],"sum_hessian":[1.9398564E3],"tree_param":{"num_deleted":"0","num_feature":"49","num_nodes":"1","size_leaf_vector":"1"}},{"base_weights":[2.891464E-9],"categories":[],"categories_nodes":[],"categories_segments":[],"categories_sizes":[],"default_left":[0],"id":126,"left_children":[-1],"loss_changes":[0E0],"parents":[2147483647],"right_children":[-1],"split_conditions":[1.445732E-10],"split_indices":[0],"split_type":[0],"sum_hessian":[1.9373212E3],"tree_param":{"num_deleted":"0","num_feature":"49","num_nodes":"1","size_leaf_vector":"1"}},{"base_weights":[1.1601377E-6],"categories":[],"categories_nodes":[],"categories_segments":[],"categories_sizes":[],"default_left":[0],"id":127,"left_children":[-1],"loss_changes":[0E0],"parents":[2147483647],"right_children":[-1],"split_conditions":[5.8006886E-8],"split_indices":[0],"split_type":[0],"sum_hessian":[1.9491062E3],"tree_param":{"num_deleted":"0","num_feature":"49","num_nodes":"1","size_leaf_vector":"1"}},{"base_weights":[4.523568E-7],"categories":[],"categories_nodes":[],"categories_segments":[],"categories_sizes":[],"default_left":[0],"id":128,"left_children":[-1],"loss_changes":[0E0],"parents":[2147483647],"right_children":[-1],"split_conditions":[2.261784E-8],"split_indices":[0],"split_type":[0],"sum_hessian":[1.936927E3],"tree_param":{"num_deleted":"0","num_feature":"49","num_nodes":"1","size_leaf_vector":"1"}},{"base_weights":[-1.0477197E-6],"categories":[],"categories_nodes":[],"categories_segments":[],"categories_sizes":[],"default_left":[0],"id":129,"left_children":[-1],"loss_changes":[0E0],"parents":[2147483647],"right_children":[-1],"split_conditions":[-5.2385985E-8],"split_indices":[0],"split_type":[0],"sum_hessian":[1.9802367E3],"tree_param":{"num_deleted":"0","num_feature":"49","num_nodes":"1","size_leaf_vector":"1"}},{"base_weights":[1.3403649E-6],"categories":[],"categories_nodes":[],"categories_segments":[],"categories_sizes":[],"default_left":[0],"id":130,"left_children":[-1],"loss_changes":[0E0],"parents":[2147483647],"right_children":[-1],"split_conditions":[6.701824E-8],"split_indices":[0],"split_type":[0],"sum_hessian":[1.9683628E3],"tree_param":{"num_deleted":"0","num_feature":"49","num_nodes":"1","size_leaf_vector":"1"}},{"base_weights":[3.9385563E-7],"categories":[],"categories_nodes":[],"categories_segments":[],"categories_sizes":[],"default_left":[0],"id":131,"left_children":[-1],"loss_changes":[0E0],"parents":[2147483647],"right_children":[-1],"split_conditions":[1.9692783E-8],"split_indices":[0],"split_type":[0],"sum_hessian":[1.946133E3],"tree_param":{"num_deleted":"0","num_feature":"49","num_nodes":"1","size_leaf_vector":"1"}},{"base_weights":[2.3750644E-7],"categories":[],"categories_nodes":[],"categories_segments":[],"categories_sizes":[],"default_left":[0],"id":132,"left_children":[-1],"loss_changes":[0E0],"parents":[2147483647],"right_children":[-1],"split_conditions":[1.1875322E-8],"split_indices":[0],"split_type":[0],"sum_hessian":[1.967548E3],"tree_param":{"num_deleted":"0","num_feature":"49","num_nodes":"1","size_leaf_vector":"1"}},{"base_weights":[3.938034E-7],"categories":[],"categories_nodes":[],"categories_segments":[],"categories_sizes":[],"default_left":[0],"id":133,"left_children":[-1],"loss_changes":[0E0],"parents":[2147483647],"right_children":[-1],"split_conditions":[1.969017E-8],"split_indices":[0],"split_type":[0],"sum_hessian":[1.9437526E3],"tree_param":{"num_deleted":"0","num_feature":"49","num_nodes":"1","size_leaf_vector":"1"}},{"base_weights":[-6.9010497E-7],"categories":[],"categories_nodes":[],"categories_segments":[],"categories_sizes":[],"default_left":[0],"id":134,"left_children":[-1],"loss_changes":[0E0],"parents":[2147483647],"right_children":[-1],"split_conditions":[-3.450525E-8],"split_indices":[0],"split_type":[0],"sum_hessian":[1.9302383E3],"tree_param":{"num_deleted":"0","num_feature":"49","num_nodes":"1","size_leaf_vector":"1"}},{"base_weights":[-9.163401E-7],"categories":[],"categories_nodes":[],"categories_segments":[],"categories_sizes":[],"default_left":[0],"id":135,"left_children":[-1],"loss_changes":[0E0],"parents":[2147483647],"right_children":[-1],"split_conditions":[-4.5817007E-8],"split_indices":[0],"split_type":[0],"sum_hessian":[1.9538802E3],"tree_param":{"num_deleted":"0","num_feature":"49","num_nodes":"1","size_leaf_vector":"1"}},{"base_weights":[-1.0603974E-6],"categories":[],"categories_nodes":[],"categories_segments":[],"categories_sizes":[],"default_left":[0],"id":136,"left_children":[-1],"loss_changes":[0E0],"parents":[2147483647],"right_children":[-1],"split_conditions":[-5.301987E-8],"split_indices":[0],"split_type":[0],"sum_hessian":[1.9926282E3],"tree_param":{"num_deleted":"0","num_feature":"49","num_nodes":"1","size_leaf_vector":"1"}},{"base_weights":[-4.814264E-7],"categories":[],"categories_nodes":[],"categories_segments":[],"categories_sizes":[],"default_left":[0],"id":137,"left_children":[-1],"loss_changes":[0E0],"parents":[2147483647],"right_children":[-1],"split_conditions":[-2.4071321E-8],"split_indices":[0],"split_type":[0],"sum_hessian":[1.9316774E3],"tree_param":{"num_deleted":"0","num_feature":"49","num_nodes":"1","size_leaf_vector":"1"}},{"base_weights":[-5.704331E-7],"categories":[],"categories_nodes":[],"categories_segments":[],"categories_sizes":[],"default_left":[0],"id":138,"left_children":[-1],"loss_changes":[0E0],"parents":[2147483647],"right_children":[-1],"split_conditions":[-2.8521654E-8],"split_indices":[0],"split_type":[0],"sum_hessian":[1.9440774E3],"tree_param":{"num_deleted":"0","num_feature":"49","num_nodes":"1","size_leaf_vector":"1"}},{"base_weights":[3.0375613E-8],"categories":[],"categories_nodes":[],"categories_segments":[],"categories_sizes":[],"default_left":[0],"id":139,"left_children":[-1],"loss_changes":[0E0],"parents":[2147483647],"right_children":[-1],"split_conditions":[1.5187807E-9],"split_indices":[0],"split_type":[0],"sum_hessian":[1.9656613E3],"tree_param":{"num_deleted":"0","num_feature":"49","num_nodes":"1","size_leaf_vector":"1"}},{"base_weights":[-1.1984234E-6],"categories":[],"categories_nodes":[],"categories_segments":[],"categories_sizes":[],"default_left":[0],"id":140,"left_children":[-1],"loss_changes":[0E0],"parents":[2147483647],"right_children":[-1],"split_conditions":[-5.992117E-8],"split_indices":[0],"split_type":[0],"sum_hessian":[1.9482548E3],"tree_param":{"num_deleted":"0","num_feature":"49","num_nodes":"1","size_leaf_vector":"1"}},{"base_weights":[4.9782427E-9],"categories":[],"categories_nodes":[],"categories_segments":[],"categories_sizes":[],"default_left":[0],"id":141,"left_children":[-1],"loss_changes":[0E0],"parents":[2147483647],"right_children":[-1],"split_conditions":[2.4891214E-10],"split_indices":[0],"split_type":[0],"sum_hessian":[1.9718658E3],"tree_param":{"num_deleted":"0","num_feature":"49","num_nodes":"1","size_leaf_vector":"1"}},{"base_weights":[2.6631035E-8],"categories":[],"categories_nodes":[],"categories_segments":[],"categories_sizes":[],"default_left":[0],"id":142,"left_children":[-1],"loss_changes":[0E0],"parents":[2147483647],"right_children":[-1],"split_conditions":[1.3315518E-9],"split_indices":[0],"split_type":[0],"sum_hessian":[1.973849E3],"tree_param":{"num_deleted":"0","num_feature":"49","num_nodes":"1","size_leaf_vector":"1"}},{"base_weights":[-3.0009585E-7],"categories":[],"categories_nodes":[],"categories_segments":[],"categories_sizes":[],"default_left":[0],"id":143,"left_children":[-1],"loss_changes":[0E0],"parents":[2147483647],"right_children":[-1],"split_conditions":[-1.5004792E-8],"split_indices":[0],"split_type":[0],"sum_hessian":[1.9252515E3],"tree_param":{"num_deleted":"0","num_feature":"49","num_nodes":"1","size_leaf_vector":"1"}},{"base_weights":[-8.682091E-7],"categories":[],"categories_nodes":[],"categories_segments":[],"categories_sizes":[],"default_left":[0],"id":144,"left_children":[-1],"loss_changes":[0E0],"parents":[2147483647],"right_children":[-1],"split_conditions":[-4.3410456E-8],"split_indices":[0],"split_type":[0],"sum_hessian":[1.9418362E3],"tree_param":{"num_deleted":"0","num_feature":"49","num_nodes":"1","size_leaf_vector":"1"}},{"base_weights":[6.520218E-7],"categories":[],"categories_nodes":[],"categories_segments":[],"categories_sizes":[],"default_left":[0],"id":145,"left_children":[-1],"loss_changes":[0E0],"parents":[2147483647],"right_children":[-1],"split_conditions":[3.260109E-8],"split_indices":[0],"split_type":[0],"sum_hessian":[1.9292924E3],"tree_param":{"num_deleted":"0","num_feature":"49","num_nodes":"1","size_leaf_vector":"1"}},{"base_weights":[-2.2502945E-7],"categories":[],"categories_nodes":[],"categories_segments":[],"categories_sizes":[],"default_left":[0],"id":146,"left_children":[-1],"loss_changes":[0E0],"parents":[2147483647],"right_children":[-1],"split_conditions":[-1.1251473E-8],"split_indices":[0],"split_type":[0],"sum_hessian":[1.9720741E3],"tree_param":{"num_deleted":"0","num_feature":"49","num_nodes":"1","size_leaf_vector":"1"}},{"base_weights":[-1.124238E-6],"categories":[],"categories_nodes":[],"categories_segments":[],"categories_sizes":[],"default_left":[0],"id":147,"left_children":[-1],"loss_changes":[0E0],"parents":[2147483647],"right_children":[-1],"split_conditions":[-5.62119E-8],"split_indices":[0],"split_type":[0],"sum_hessian":[1.9414762E3],"tree_param":{"num_deleted":"0","num_feature":"49","num_nodes":"1","size_leaf_vector":"1"}},{"base_weights":[6.9779213E-7],"categories":[],"categories_nodes":[],"categories_segments":[],"categories_sizes":[],"default_left":[0],"id":148,"left_children":[-1],"loss_changes":[0E0],"parents":[2147483647],"right_children":[-1],"split_conditions":[3.4889606E-8],"split_indices":[0],"split_type":[0],"sum_hessian":[1.9689211E3],"tree_param":{"num_deleted":"0","num_feature":"49","num_nodes":"1","size_leaf_vector":"1"}},{"base_weights":[8.914461E-7],"categories":[],"categories_nodes":[],"categories_segments":[],"categories_sizes":[],"default_left":[0],"id":149,"left_children":[-1],"loss_changes":[0E0],"parents":[2147483647],"right_children":[-1],"split_conditions":[4.4572307E-8],"split_indices":[0],"split_type":[0],"sum_hessian":[1.9431699E3],"tree_param":{"num_deleted":"0","num_feature":"49","num_nodes":"1","size_leaf_vector":"1"}},{"base_weights":[1.8753796E-7],"categories":[],"categories_nodes":[],"categories_segments":[],"categories_sizes":[],"default_left":[0],"id":150,"left_children":[-1],"loss_changes":[0E0],"parents":[2147483647],"right_children":[-1],"split_conditions":[9.376898E-9],"split_indices":[0],"split_type":[0],"sum_hessian":[1.9420856E3],"tree_param":{"num_deleted":"0","num_feature":"49","num_nodes":"1","size_leaf_vector":"1"}},{"base_weights":[9.863662E-7],"categories":[],"categories_nodes":[],"categories_segments":[],"categories_sizes":[],"default_left":[0],"id":151,"left_children":[-1],"loss_changes":[0E0],"parents":[2147483647],"right_children":[-1],"split_conditions":[4.9318313E-8],"split_indices":[0],"split_type":[0],"sum_hessian":[1.9545884E3],"tree_param":{"num_deleted":"0","num_feature":"49","num_nodes":"1","size_leaf_vector":"1"}},{"base_weights":[-1.0842817E-6],"categories":[],"categories_nodes":[],"categories_segments":[],"categories_sizes":[],"default_left":[0],"id":152,"left_children":[-1],"loss_changes":[0E0],"parents":[2147483647],"right_children":[-1],"split_conditions":[-5.4214087E-8],"split_indices":[0],"split_type":[0],"sum_hessian":[1.964361E3],"tree_param":{"num_deleted":"0","num_feature":"49","num_nodes":"1","size_leaf_vector":"1"}},{"base_weights":[5.0859535E-7],"categories":[],"categories_nodes":[],"categories_segments":[],"categories_sizes":[],"default_left":[0],"id":153,"left_children":[-1],"loss_changes":[0E0],"parents":[2147483647],"right_children":[-1],"split_conditions":[2.5429769E-8],"split_indices":[0],"split_type":[0],"sum_hessian":[1.9644347E3],"tree_param":{"num_deleted":"0","num_feature":"49","num_nodes":"1","size_leaf_vector":"1"}},{"base_weights":[-1.572626E-6],"categories":[],"categories_nodes":[],"categories_segments":[],"categories_sizes":[],"default_left":[0],"id":154,"left_children":[-1],"loss_changes":[0E0],"parents":[2147483647],"right_children":[-1],"split_conditions":[-7.86313E-8],"split_indices":[0],"split_type":[0],"sum_hessian":[1.9312021E3],"tree_param":{"num_deleted":"0","num_feature":"49","num_nodes":"1","size_leaf_vector":"1"}},{"base_weights":[-3.8670166E-7],"categories":[],"categories_nodes":[],"categories_segments":[],"categories_sizes":[],"default_left":[0],"id":155,"left_children":[-1],"loss_changes":[0E0],"parents":[2147483647],"right_children":[-1],"split_conditions":[-1.9335083E-8],"split_indices":[0],"split_type":[0],"sum_hessian":[1.9530901E3],"tree_param":{"num_deleted":"0","num_feature":"49","num_nodes":"1","size_leaf_vector":"1"}},{"base_weights":[-9.679601E-7],"categories":[],"categories_nodes":[],"categories_segments":[],"categories_sizes":[],"default_left":[0],"id":156,"left_children":[-1],"loss_changes":[0E0],"parents":[2147483647],"right_children":[-1],"split_conditions":[-4.8398004E-8],"split_indices":[0],"split_type":[0],"sum_hessian":[1.9505494E3],"tree_param":{"num_deleted":"0","num_feature":"49","num_nodes":"1","size_leaf_vector":"1"}},{"base_weights":[-1.0372062E-6],"categories":[],"categories_nodes":[],"categories_segments":[],"categories_sizes":[],"default_left":[0],"id":157,"left_children":[-1],"loss_changes":[0E0],"parents":[2147483647],"right_children":[-1],"split_conditions":[-5.1860308E-8],"split_indices":[0],"split_type":[0],"sum_hessian":[1.9401239E3],"tree_param":{"num_deleted":"0","num_feature":"49","num_nodes":"1","size_leaf_vector":"1"}},{"base_weights":[-8.977488E-7],"categories":[],"categories_nodes":[],"categories_segments":[],"categories_sizes":[],"default_left":[0],"id":158,"left_children":[-1],"loss_changes":[0E0],"parents":[2147483647],"right_children":[-1],"split_conditions":[-4.488744E-8],"split_indices":[0],"split_type":[0],"sum_hessian":[1.9862373E3],"tree_param":{"num_deleted":"0","num_feature":"49","num_nodes":"1","size_leaf_vector":"1"}},{"base_weights":[1.3046246E-6],"categories":[],"categories_nodes":[],"categories_segments":[],"categories_sizes":[],"default_left":[0],"id":159,"left_children":[-1],"loss_changes":[0E0],"parents":[2147483647],"right_children":[-1],"split_conditions":[6.523123E-8],"split_indices":[0],"split_type":[0],"sum_hessian":[1.95897E3],"tree_param":{"num_deleted":"0","num_feature":"49","num_nodes":"1","size_leaf_vector":"1"}},{"base_weights":[6.2597013E-7],"categories":[],"categories_nodes":[],"categories_segments":[],"categories_sizes":[],"default_left":[0],"id":160,"left_children":[-1],"loss_changes":[0E0],"parents":[2147483647],"right_children":[-1],"split_conditions":[3.129851E-8],"split_indices":[0],"split_type":[0],"sum_hessian":[1.9761586E3],"tree_param":{"num_deleted":"0","num_feature":"49","num_nodes":"1","size_leaf_vector":"1"}},{"base_weights":[-2.008142E-7],"categories":[],"categories_nodes":[],"categories_segments":[],"categories_sizes":[],"default_left":[0],"id":161,"left_children":[-1],"loss_changes":[0E0],"parents":[2147483647],"right_children":[-1],"split_conditions":[-1.00407105E-8],"split_indices":[0],"split_type":[0],"sum_hessian":[1.9899196E3],"tree_param":{"num_deleted":"0","num_feature":"49","num_nodes":"1","size_leaf_vector":"1"}},{"base_weights":[1.3403509E-6],"categories":[],"categories_nodes":[],"categories_segments":[],"categories_sizes":[],"default_left":[0],"id":162,"left_children":[-1],"loss_changes":[0E0],"parents":[2147483647],"right_children":[-1],"split_conditions":[6.7017545E-8],"split_indices":[0],"split_type":[0],"sum_hessian":[1.9645485E3],"tree_param":{"num_deleted":"0","num_feature":"49","num_nodes":"1","size_leaf_vector":"1"}},{"base_weights":[7.4016E-7],"categories":[],"categories_nodes":[],"categories_segments":[],"categories_sizes":[],"default_left":[0],"id":163,"left_children":[-1],"loss_changes":[0E0],"parents":[2147483647],"right_children":[-1],"split_conditions":[3.7008E-8],"split_indices":[0],"split_type":[0],"sum_hessian":[1.9620927E3],"tree_param":{"num_deleted":"0","num_feature":"49","num_nodes":"1","size_leaf_vector":"1"}},{"base_weights":[2.4005874E-7],"categories":[],"categories_nodes":[],"categories_segments":[],"categories_sizes":[],"default_left":[0],"id":164,"left_children":[-1],"loss_changes":[0E0],"parents":[2147483647],"right_children":[-1],"split_conditions":[1.2002937E-8],"split_indices":[0],"split_type":[0],"sum_hessian":[2.0010966E3],"tree_param":{"num_deleted":"0","num_feature":"49","num_nodes":"1","size_leaf_vector":"1"}},{"base_weights":[1.1012796E-6,1.07582025E-7,-2.461653E-5],"categories":[],"categories_nodes":[],"categories_segments":[],"categories_sizes":[],"default_left":[0,0,0],"id":165,"left_children":[1,-1,-1],"loss_changes":[1.0106703E-6,0E0,0E0],"parents":[2147483647,0,0],"right_children":[2,-1,-1],"split_conditions":[5.2785E-4,1.07582025E-7,-2.461653E-5],"split_indices":[31,0,0],"split_type":[0,0,0],"sum_hessian":[1.9469968E3,1.9438546E3,3.142214E0],"tree_param":{"num_deleted":"0","num_feature":"49","num_nodes":"3","size_leaf_vector":"1"}},{"base_weights":[5.895813E-7],"categories":[],"categories_nodes":[],"categories_segments":[],"categories_sizes":[],"default_left":[0],"id":166,"left_children":[-1],"loss_changes":[0E0],"parents":[2147483647],"right_children":[-1],"split_conditions":[2.9479066E-8],"split_indices":[0],"split_type":[0],"sum_hessian":[1.9522314E3],"tree_param":{"num_deleted":"0","num_feature":"49","num_nodes":"1","size_leaf_vector":"1"}},{"base_weights":[2.6201434E-7],"categories":[],"categories_nodes":[],"categories_segments":[],"categories_sizes":[],"default_left":[0],"id":167,"left_children":[-1],"loss_changes":[0E0],"parents":[2147483647],"right_children":[-1],"split_conditions":[1.3100717E-8],"split_indices":[0],"split_type":[0],"sum_hessian":[1.9869435E3],"tree_param":{"num_deleted":"0","num_feature":"49","num_nodes":"1","size_leaf_vector":"1"}},{"base_weights":[-6.680696E-7],"categories":[],"categories_nodes":[],"categories_segments":[],"categories_sizes":[],"default_left":[0],"id":168,"left_children":[-1],"loss_changes":[0E0],"parents":[2147483647],"right_children":[-1],"split_conditions":[-3.340348E-8],"split_indices":[0],"split_type":[0],"sum_hessian":[1.9755836E3],"tree_param":{"num_deleted":"0","num_feature":"49","num_nodes":"1","size_leaf_vector":"1"}},{"base_weights":[-2.522354E-7],"categories":[],"categories_nodes":[],"categories_segments":[],"categories_sizes":[],"default_left":[0],"id":169,"left_children":[-1],"loss_changes":[0E0],"parents":[2147483647],"right_children":[-1],"split_conditions":[-1.261177E-8],"split_indices":[0],"split_type":[0],"sum_hessian":[1.9399302E3],"tree_param":{"num_deleted":"0","num_feature":"49","num_nodes":"1","size_leaf_vector":"1"}},{"base_weights":[-3.5994012E-7],"categories":[],"categories_nodes":[],"categories_segments":[],"categories_sizes":[],"default_left":[0],"id":170,"left_children":[-1],"loss_changes":[0E0],"parents":[2147483647],"right_children":[-1],"split_conditions":[-1.7997007E-8],"split_indices":[0],"split_type":[0],"sum_hessian":[1.9638363E3],"tree_param":{"num_deleted":"0","num_feature":"49","num_nodes":"1","size_leaf_vector":"1"}},{"base_weights":[-3.6925425E-7],"categories":[],"categories_nodes":[],"categories_segments":[],"categories_sizes":[],"default_left":[0],"id":171,"left_children":[-1],"loss_changes":[0E0],"parents":[2147483647],"right_children":[-1],"split_conditions":[-1.8462712E-8],"split_indices":[0],"split_type":[0],"sum_hessian":[1.9744166E3],"tree_param":{"num_deleted":"0","num_feature":"49","num_nodes":"1","size_leaf_vector":"1"}},{"base_weights":[1.0471828E-6],"categories":[],"categories_nodes":[],"categories_segments":[],"categories_sizes":[],"default_left":[0],"id":172,"left_children":[-1],"loss_changes":[0E0],"parents":[2147483647],"right_children":[-1],"split_conditions":[5.2359137E-8],"split_indices":[0],"split_type":[0],"sum_hessian":[1.9382745E3],"tree_param":{"num_deleted":"0","num_feature":"49","num_nodes":"1","size_leaf_vector":"1"}},{"base_weights":[1.0921361E-6],"categories":[],"categories_nodes":[],"categories_segments":[],"categories_sizes":[],"default_left":[0],"id":173,"left_children":[-1],"loss_changes":[0E0],"parents":[2147483647],"right_children":[-1],"split_conditions":[5.4606808E-8],"split_indices":[0],"split_type":[0],"sum_hessian":[1.9314188E3],"tree_param":{"num_deleted":"0","num_feature":"49","num_nodes":"1","size_leaf_vector":"1"}},{"base_weights":[-6.492167E-7],"categories":[],"categories_nodes":[],"categories_segments":[],"categories_sizes":[],"default_left":[0],"id":174,"left_children":[-1],"loss_changes":[0E0],"parents":[2147483647],"right_children":[-1],"split_conditions":[-3.2460836E-8],"split_indices":[0],"split_type":[0],"sum_hessian":[1.975038E3],"tree_param":{"num_deleted":"0","num_feature":"49","num_nodes":"1","size_leaf_vector":"1"}},{"base_weights":[9.605674E-7],"categories":[],"categories_nodes":[],"categories_segments":[],"categories_sizes":[],"default_left":[0],"id":175,"left_children":[-1],"loss_changes":[0E0],"parents":[2147483647],"right_children":[-1],"split_conditions":[4.802837E-8],"split_indices":[0],"split_type":[0],"sum_hessian":[1.9565226E3],"tree_param":{"num_deleted":"0","num_feature":"49","num_nodes":"1","size_leaf_vector":"1"}},{"base_weights":[-7.035686E-8],"categories":[],"categories_nodes":[],"categories_segments":[],"categories_sizes":[],"default_left":[0],"id":176,"left_children":[-1],"loss_changes":[0E0],"parents":[2147483647],"right_children":[-1],"split_conditions":[-3.5178431E-9],"split_indices":[0],"split_type":[0],"sum_hessian":[1.9623102E3],"tree_param":{"num_deleted":"0","num_feature":"49","num_nodes":"1","size_leaf_vector":"1"}},{"base_weights":[4.6236764E-7],"categories":[],"categories_nodes":[],"categories_segments":[],"categories_sizes":[],"default_left":[0],"id":177,"left_children":[-1],"loss_changes":[0E0],"parents":[2147483647],"right_children":[-1],"split_conditions":[2.3118382E-8],"split_indices":[0],"split_type":[0],"sum_hessian":[1.9679166E3],"tree_param":{"num_deleted":"0","num_feature":"49","num_nodes":"1","size_leaf_vector":"1"}},{"base_weights":[-1.1400506E-6],"categories":[],"categories_nodes":[],"categories_segments":[],"categories_sizes":[],"default_left":[0],"id":178,"left_children":[-1],"loss_changes":[0E0],"parents":[2147483647],"right_children":[-1],"split_conditions":[-5.700253E-8],"split_indices":[0],"split_type":[0],"sum_hessian":[1.9429446E3],"tree_param":{"num_deleted":"0","num_feature":"49","num_nodes":"1","size_leaf_vector":"1"}},{"base_weights":[-5.7031565E-7],"categories":[],"categories_nodes":[],"categories_segments":[],"categories_sizes":[],"default_left":[0],"id":179,"left_children":[-1],"loss_changes":[0E0],"parents":[2147483647],"right_children":[-1],"split_conditions":[-2.8515784E-8],"split_indices":[0],"split_type":[0],"sum_hessian":[1.9451335E3],"tree_param":{"num_deleted":"0","num_feature":"49","num_nodes":"1","size_leaf_vector":"1"}},{"base_weights":[1.6462251E-6],"categories":[],"categories_nodes":[],"categories_segments":[],"categories_sizes":[],"default_left":[0],"id":180,"left_children":[-1],"loss_changes":[0E0],"parents":[2147483647],"right_children":[-1],"split_conditions":[8.231125E-8],"split_indices":[0],"split_type":[0],"sum_hessian":[1.9212032E3],"tree_param":{"num_deleted":"0","num_feature":"49","num_nodes":"1","size_leaf_vector":"1"}},{"base_weights":[-6.8262005E-7],"categories":[],"categories_nodes":[],"categories_segments":[],"categories_sizes":[],"default_left":[0],"id":181,"left_children":[-1],"loss_changes":[0E0],"parents":[2147483647],"right_children":[-1],"split_conditions":[-3.4131002E-8],"split_indices":[0],"split_type":[0],"sum_hessian":[1.9622009E3],"tree_param":{"num_deleted":"0","num_feature":"49","num_nodes":"1","size_leaf_vector":"1"}},{"base_weights":[5.778163E-7],"categories":[],"categories_nodes":[],"categories_segments":[],"categories_sizes":[],"default_left":[0],"id":182,"left_children":[-1],"loss_changes":[0E0],"parents":[2147483647],"right_children":[-1],"split_conditions":[2.8890815E-8],"split_indices":[0],"split_type":[0],"sum_hessian":[1.9597916E3],"tree_param":{"num_deleted":"0","num_feature":"49","num_nodes":"1","size_leaf_vector":"1"}},{"base_weights":[1.0016735E-6],"categories":[],"categories_nodes":[],"categories_segments":[],"categories_sizes":[],"default_left":[0],"id":183,"left_children":[-1],"loss_changes":[0E0],"parents":[2147483647],"right_children":[-1],"split_conditions":[5.0083674E-8],"split_indices":[0],"split_type":[0],"sum_hessian":[1.9619619E3],"tree_param":{"num_deleted":"0","num_feature":"49","num_nodes":"1","size_leaf_vector":"1"}},{"base_weights":[-9.5057096E-8],"categories":[],"categories_nodes":[],"categories_segments":[],"categories_sizes":[],"default_left":[0],"id":184,"left_children":[-1],"loss_changes":[0E0],"parents":[2147483647],"right_children":[-1],"split_conditions":[-4.752855E-9],"split_indices":[0],"split_type":[0],"sum_hessian":[1.9436403E3],"tree_param":{"num_deleted":"0","num_feature":"49","num_nodes":"1","size_leaf_vector":"1"}},{"base_weights":[-4.3505958E-7],"categories":[],"categories_nodes":[],"categories_segments":[],"categories_sizes":[],"default_left":[0],"id":185,"left_children":[-1],"loss_changes":[0E0],"parents":[2147483647],"right_children":[-1],"split_conditions":[-2.175298E-8],"split_indices":[0],"split_type":[0],"sum_hessian":[1.9681422E3],"tree_param":{"num_deleted":"0","num_feature":"49","num_nodes":"1","size_leaf_vector":"1"}},{"base_weights":[-8.1836944E-8],"categories":[],"categories_nodes":[],"categories_segments":[],"categories_sizes":[],"default_left":[0],"id":186,"left_children":[-1],"loss_changes":[0E0],"parents":[2147483647],"right_children":[-1],"split_conditions":[-4.0918473E-9],"split_indices":[0],"split_type":[0],"sum_hessian":[1.9844473E3],"tree_param":{"num_deleted":"0","num_feature":"49","num_nodes":"1","size_leaf_vector":"1"}},{"base_weights":[1.3130796E-7],"categories":[],"categories_nodes":[],"categories_segments":[],"categories_sizes":[],"default_left":[0],"id":187,"left_children":[-1],"loss_changes":[0E0],"parents":[2147483647],"right_children":[-1],"split_conditions":[6.565398E-9],"split_indices":[0],"split_type":[0],"sum_hessian":[1.9877885E3],"tree_param":{"num_deleted":"0","num_feature":"49","num_nodes":"1","size_leaf_vector":"1"}},{"base_weights":[4.691046E-7],"categories":[],"categories_nodes":[],"categories_segments":[],"categories_sizes":[],"default_left":[0],"id":188,"left_children":[-1],"loss_changes":[0E0],"parents":[2147483647],"right_children":[-1],"split_conditions":[2.345523E-8],"split_indices":[0],"split_type":[0],"sum_hessian":[1.9600294E3],"tree_param":{"num_deleted":"0","num_feature":"49","num_nodes":"1","size_leaf_vector":"1"}},{"base_weights":[-1.0435568E-6],"categories":[],"categories_nodes":[],"categories_segments":[],"categories_sizes":[],"default_left":[0],"id":189,"left_children":[-1],"loss_changes":[0E0],"parents":[2147483647],"right_children":[-1],"split_conditions":[-5.2177842E-8],"split_indices":[0],"split_type":[0],"sum_hessian":[1.9483286E3],"tree_param":{"num_deleted":"0","num_feature":"49","num_nodes":"1","size_leaf_vector":"1"}},{"base_weights":[4.4472648E-7],"categories":[],"categories_nodes":[],"categories_segments":[],"categories_sizes":[],"default_left":[0],"id":190,"left_children":[-1],"loss_changes":[0E0],"parents":[2147483647],"right_children":[-1],"split_conditions":[2.2236325E-8],"split_indices":[0],"split_type":[0],"sum_hessian":[1.9595869E3],"tree_param":{"num_deleted":"0","num_feature":"49","num_nodes":"1","size_leaf_vector":"1"}},{"base_weights":[-3.7912426E-7],"categories":[],"categories_nodes":[],"categories_segments":[],"categories_sizes":[],"default_left":[0],"id":191,"left_children":[-1],"loss_changes":[0E0],"parents":[2147483647],"right_children":[-1],"split_conditions":[-1.8956213E-8],"split_indices":[0],"split_type":[0],"sum_hessian":[1.92517E3],"tree_param":{"num_deleted":"0","num_feature":"49","num_nodes":"1","size_leaf_vector":"1"}},{"base_weights":[-1.2731075E-6],"categories":[],"categories_nodes":[],"categories_segments":[],"categories_sizes":[],"default_left":[0],"id":192,"left_children":[-1],"loss_changes":[0E0],"parents":[2147483647],"right_children":[-1],"split_conditions":[-6.365538E-8],"split_indices":[0],"split_type":[0],"sum_hessian":[1.966211E3],"tree_param":{"num_deleted":"0","num_feature":"49","num_nodes":"1","size_leaf_vector":"1"}},{"base_weights":[-5.9031714E-7],"categories":[],"categories_nodes":[],"categories_segments":[],"categories_sizes":[],"default_left":[0],"id":193,"left_children":[-1],"loss_changes":[0E0],"parents":[2147483647],"right_children":[-1],"split_conditions":[-2.9515858E-8],"split_indices":[0],"split_type":[0],"sum_hessian":[1.9383562E3],"tree_param":{"num_deleted":"0","num_feature":"49","num_nodes":"1","size_leaf_vector":"1"}},{"base_weights":[2.5618144E-7],"categories":[],"categories_nodes":[],"categories_segments":[],"categories_sizes":[],"default_left":[0],"id":194,"left_children":[-1],"loss_changes":[0E0],"parents":[2147483647],"right_children":[-1],"split_conditions":[1.2809072E-8],"split_indices":[0],"split_type":[0],"sum_hessian":[1.9415607E3],"tree_param":{"num_deleted":"0","num_feature":"49","num_nodes":"1","size_leaf_vector":"1"}},{"base_weights":[2.1616488E-8],"categories":[],"categories_nodes":[],"categories_segments":[],"categories_sizes":[],"default_left":[0],"id":195,"left_children":[-1],"loss_changes":[0E0],"parents":[2147483647],"right_children":[-1],"split_conditions":[1.0808244E-9],"split_indices":[0],"split_type":[0],"sum_hessian":[1.9748455E3],"tree_param":{"num_deleted":"0","num_feature":"49","num_nodes":"1","size_leaf_vector":"1"}},{"base_weights":[-1.0393873E-6],"categories":[],"categories_nodes":[],"categories_segments":[],"categories_sizes":[],"default_left":[0],"id":196,"left_children":[-1],"loss_changes":[0E0],"parents":[2147483647],"right_children":[-1],"split_conditions":[-5.1969362E-8],"split_indices":[0],"split_type":[0],"sum_hessian":[1.9621786E3],"tree_param":{"num_deleted":"0","num_feature":"49","num_nodes":"1","size_leaf_vector":"1"}},{"base_weights":[-1.0434164E-6],"categories":[],"categories_nodes":[],"categories_segments":[],"categories_sizes":[],"default_left":[0],"id":197,"left_children":[-1],"loss_changes":[0E0],"parents":[2147483647],"right_children":[-1],"split_conditions":[-5.2170822E-8],"split_indices":[0],"split_type":[0],"sum_hessian":[1.9743899E3],"tree_param":{"num_deleted":"0","num_feature":"49","num_nodes":"1","size_leaf_vector":"1"}},{"base_weights":[-1.0315167E-6],"categories":[],"categories_nodes":[],"categories_segments":[],"categories_sizes":[],"default_left":[0],"id":198,"left_children":[-1],"loss_changes":[0E0],"parents":[2147483647],"right_children":[-1],"split_conditions":[-5.1575835E-8],"split_indices":[0],"split_type":[0],"sum_hessian":[1.9661085E3],"tree_param":{"num_deleted":"0","num_feature":"49","num_nodes":"1","size_leaf_vector":"1"}},{"base_weights":[7.6518745E-7],"categories":[],"categories_nodes":[],"categories_segments":[],"categories_sizes":[],"default_left":[0],"id":199,"left_children":[-1],"loss_changes":[0E0],"parents":[2147483647],"right_children":[-1],"split_conditions":[3.8259373E-8],"split_indices":[0],"split_type":[0],"sum_hessian":[1.960898E3],"tree_param":{"num_deleted":"0","num_feature":"49","num_nodes":"1","size_leaf_vector":"1"}},{"base_weights":[-7.646363E-7],"categories":[],"categories_nodes":[],"categories_segments":[],"categories_sizes":[],"default_left":[0],"id":200,"left_children":[-1],"loss_changes":[0E0],"parents":[2147483647],"right_children":[-1],"split_conditions":[-3.8231814E-8],"split_indices":[0],"split_type":[0],"sum_hessian":[1.9791301E3],"tree_param":{"num_deleted":"0","num_feature":"49","num_nodes":"1","size_leaf_vector":"1"}},{"base_weights":[2.4306783E-7],"categories":[],"categories_nodes":[],"categories_segments":[],"categories_sizes":[],"default_left":[0],"id":201,"left_children":[-1],"loss_changes":[0E0],"parents":[2147483647],"right_children":[-1],"split_conditions":[1.2153392E-8],"split_indices":[0],"split_type":[0],"sum_hessian":[1.9690349E3],"tree_param":{"num_deleted":"0","num_feature":"49","num_nodes":"1","size_leaf_vector":"1"}},{"base_weights":[1.0244637E-6],"categories":[],"categories_nodes":[],"categories_segments":[],"categories_sizes":[],"default_left":[0],