{"learner":{"attributes":{"scikit_learn":"{\"_estimator_type\": \"classifier\"}"},"feature_names":[],"feature_types":[],"gradient_booster":{"model":{"cats":{"enc":[],"feature_segments":[],"sorted_idx":[]},"gbtree_model_param":{"num_parallel_tree":"1","num_trees":"1200"},"iteration_indptr":[0,4,8,12,16,20,24,28,32,36,40,44,48,52,56,60,64,68,72,76,80,84,88,92,96,100,104,108,112,116,120,124,128,132,136,140,144,148,152,156,160,164,168,172,176,180,184,188,192,196,200,204,208,212,216,220,224,228,232,236,240,244,248,252,256,260,264,268,272,276,280,284,288,292,296,300,304,308,312,316,320,324,328,332,336,340,344,348,352,356,360,364,368,372,376,380,384,388,392,396,400,404,408,412,416,420,424,428,432,436,440,444,448,452,456,460,464,468,472,476,480,484,488,492,496,500,504,508,512,516,520,524,528,532,536,540,544,548,552,556,560,564,568,572,576,580,584,588,592,596,600,604,608,612,616,620,624,628,632,636,640,644,648,652,656,660,664,668,672,676,680,684,688,692,696,700,704,708,712,716,720,724,728,732,736,740,744,748,752,756,760,764,768,772,776,780,784,788,792,796,800,804,808,812,816,820,824,828,832,836,840,844,848,852,856,860,864,868,872,876,880,884,888,892,896,900,904,908,912,916,920,924,928,932,936,940,944,948,952,956,960,964,968,972,976,980,984,988,992,996,1000,1004,1008,1012,1016,1020,1024,1028,1032,1036,1040,1044,1048,1052,1056,1060,1064,1068,1072,1076,1080,1084,1088,1092,1096,1100,1104,1108,1112,1116,1120,1124,1128,1132,1136,1140,1144,1148,1152,1156,1160,1164,1168,1172,1176,1180,1184,1188,1192,1196,1200],"tree_info":[0,1,2,3,0,1,2,3,0,1,2,3,0,1,2,3,0,1,2,3,0,1,2,3,0,1,2,3,0,1,2,3,0,1,2,3,0,1,2,3,0,1,2,3,0,1,2,3,0,1,2,3,0,1,2,3,0,1,2,3,0,1,2,3,0,1,2,3,0,1,2,3,0,1,2,3,0,1,2,3,0,1,2,3,0,1,2,3,0,1,2,3,0,1,2,3,0,1,2,3,0,1,2,3,0,1,2,3,0,1,2,3,0,1,2,3,0,1,2,3,0,1,2,3,0,1,2,3,0,1,2,3,0,1,2,3,0,1,2,3,0,1,2,3,0,1,2,3,0,1,2,3,0,1,2,3,0,1,2,3,0,1,2,3,0,1,2,3,0,1,2,3,0,1,2,3,0,1,2,3,0,1,2,3,0,1,2,3,0,1,2,3,0,1,2,3,0,1,2,3,0,1,2,3,0,1,2,3,0,1,2,3,0,1,2,3,0,1,2,3,0,1,2,3,0,1,2,3,0,1,2,3,0,1,2,3,0,1,2,3,0,1,2,3,0,1,2,3,0,1,2,3,0,1,2,3,0,1,2,3,0,1,2,3,0,1,2,3,0,1,2,3,0,1,2,3,0,1,2,3,0,1,2,3,0,1,2,3,0,1,2,3,0,1,2,3,0,1,2,3,0,1,2,3,0,1,2,3,0,1,2,3,0,1,2,3,0,1,2,3,0,1,2,3,0,1,2,3,0,1,2,3,0,1,2,3,0,1,2,3,0,1,2,3,0,1,2,3,0,1,2,3,0,1,2,3,0,1,2,3,0,1,2,3,0,1,2,3,0,1,2,3,0,1,2,3,0,1,2,3,0,1,2,3,0,1,2,3,0,1,2,3,0,1,2,3,0,1,2,3,0,1,2,3,0,1,2,3,0,1,2,3,0,1,2,3,0,1,2,3,0,1,2,3,0,1,2,3,0,1,2,3,0,1,2,3,0,1,2,3,0,1,2,3,0,1,2,3,0,1,2,3,0,1,2,3,0,1,2,3,0,1,2,3,0,1,2,3,0,1,2,3,0,1,2,3,0,1,2,3,0,1,2,3,0,1,2,3,0,1,2,3,0,1,2,3,0,1,2,3,0,1,2,3,0,1,2,3,0,1,2,3,0,1,2,3,0,1,2,3,0,1,2,3,0,1,2,3,0,1,2,3,0,1,2,3,0,1,2,3,0,1,2,3,0,1,2,3,0,1,2,3,0,1,2,3,0,1,2,3,0,1,2,3,0,1,2,3,0,1,2,3,0,1,2,3,0,1,2,3,0,1,2,3,0,1,2,3,0,1,2,3,0,1,2,3,0,1,2,3,0,1,2,3,0,1,2,3,0,1,2,3,0,1,2,3,0,1,2,3,0,1,2,3,0,1,2,3,0,1,2,3,0,1,2,3,0,1,2,3,0,1,2,3,0,1,2,3,0,1,2,3,0,1,2,3,0,1,2,3,0,1,2,3,0,1,2,3,0,1,2,3,0,1,2,3,0,1,2,3,0,1,2,3,0,1,2,3,0,1,2,3,0,1,2,3,0,1,2,3,0,1,2,3,0,1,2,3,0,1,2,3,0,1,2,3,0,1,2,3,0,1,2,3,0,1,2,3,0,1,2,3,0,1,2,3,0,1,2,3,0,1,2,3,0,1,2,3,0,1,2,3,0,1,2,3,0,1,2,3,0,1,2,3,0,1,2,3,0,1,2,3,0,1,2,3,0,1,2,3,0,1,2,3,0,1,2,3,0,1,2,3,0,1,2,3,0,1,2,3,0,1,2,3,0,1,2,3,0,1,2,3,0,1,2,3,0,1,2,3,0,1,2,3,0,1,2,3,0,1,2,3,0,1,2,3,0,1,2,3,0,1,2,3,0,1,2,3,0,1,2,3,0,1,2,3,0,1,2,3,0,1,2,3,0,1,2,3,0,1,2,3,0,1,2,3,0,1,2,3,0,1,2,3,0,1,2,3,0,1,2,3,0,1,2,3,0,1,2,3,0,1,2,3,0,1,2,3,0,1,2,3,0,1,2,3,0,1,2,3,0,1,2,3,0,1,2,3,0,1,2,3,0,1,2,3,0,1,2,3,0,1,2,3,0,1,2,3,0,1,2,3,0,1,2,3,0,1,2,3,0,1,2,3,0,1,2,3,0,1,2,3,0,1,2,3,0,1,2,3,0,1,2,3,0,1,2,3,0,1,2,3,0,1,2,3,0,1,2,3,0,1,2,3,0,1,2,3,0,1,2,3,0,1,2,3,0,1,2,3,0,1,2,3,0,1,2,3,0,1,2,3,0,1,2,3,0,1,2,3,0,1,2,3,0,1,2,3,0,1,2,3,0,1,2,3,0,1,2,3,0,1,2,3,0,1,2,3,0,1,2,3,0,1,2,3,0,1,2,3,0,1,2,3,0,1,2,3,0,1,2,3,0,1,2,3,0,1,2,3,0,1,2,3,0,1,2,3,0,1,2,3,0,1,2,3,0,1,2,3,0,1,2,3,0,1,2,3,0,1,2,3,0,1,2,3,0,1,2,3,0,1,2,3,0,1,2,3,0,1,2,3,0,1,2,3,0,1,2,3,0,1,2,3,0,1,2,3,0,1,2,3,0,1,2,3,0,1,2,3,0,1,2,3,0,1,2,3,0,1,2,3,0,1,2,3,0,1,2,3],"trees":[{"base_weights":[-3.7484614E-3,5.933147E-1,-1.0281266E-1,6.153826E-1,-9.031109E-2,6.279543E-1,-8.100282E-2,3.167574E-2,-1.7814213E-2],"categories":[],"categories_nodes":[],"categories_segments":[],"categories_sizes":[],"default_left":[0,0,0,0,0,0,0,0,0],"id":0,"left_children":[1,3,-1,5,-1,7,-1,-1,-1],"loss_changes":[1.1308413E3,3.8964264E1,0E0,2.094458E1,0E0,4.0886536E0,0E0,0E0,0E0],"parents":[2147483647,0,0,1,1,3,3,5,5],"right_children":[2,4,-1,6,-1,8,-1,-1,-1],"split_conditions":[1E-4,4.761905E-2,-1.0281266E-1,1E0,-9.031109E-2,2.642E-4,-8.100282E-2,3.167574E-2,-1.7814213E-2],"split_indices":[1,5,0,7,0,3,0,0,0],"split_type":[0,0,0,0,0,0,0,0,0],"sum_hessian":[9.207824E2,7.138407E2,2.069417E2,7.0807227E2,5.7684097E0,7.048276E2,3.2447305E0,7.012223E2,3.605256E0],"tree_param":{"num_deleted":"0","num_feature":"9","num_nodes":"9","size_leaf_vector":"1"}},{"base_weights":[-3.3535756E-2,-2.65441E-2,1.6426594E0,3.1965855E-1,-2.6088297E-1,1.00512914E-1,-2.6072472E-2],"categories":[],"categories_nodes":[],"categories_segments":[],"categories_sizes":[],"default_left":[0,0,0,0,0,0,0],"id":1,"left_children":[1,-1,3,-1,5,-1,-1],"loss_changes":[2.4868756E2,0E0,6.189669E2,0E0,3.0457771E1,0E0,0E0],"parents":[2147483647,0,0,2,2,4,4],"right_children":[2,-1,4,-1,6,-1,-1],"split_conditions":[9.929238E-5,-2.65441E-2,4.761905E-2,3.1965855E-1,1.4285715E-1,1.00512914E-1,-2.6072472E-2],"split_indices":[1,0,5,0,5,0,0],"split_type":[0,0,0,0,0,0,0],"sum_hessian":[2.9626587E2,2.2900172E2,6.7264145E1,1.8567707E1,4.8696438E1,4.320787E0,4.4375652E1],"tree_param":{"num_deleted":"0","num_feature":"9","num_nodes":"7","size_leaf_vector":"1"}},{"base_weights":[5.62638E-3,-5.017975E-1,2.5454192E0,-2.693503E-2,-2.2748293E-1,5.0792184E0,-1.8281186E-1,-2.4735214E-2,-9.859692E-2,5.4743247E0,7.120735E-2,5.335942E-2,-3.686394E-1,5.335942E-2,-1.5010445E-2,1.7891835E-1,2.9421017E-1,1.5041313E-2,-2.3714185E-2],"categories":[],"categories_nodes":[],"categories_segments":[],"categories_sizes":[],"default_left":[0,0,0,0,0,0,0,0,0,0,0,0,0,0,0,0,0,0,0],"id":2,"left_children":[1,3,5,-1,7,9,11,-1,13,15,-1,-1,17,-1,-1,-1,-1,-1,-1],"loss_changes":[4.577628E2,2.8744965E0,4.0980246E2,0E0,1.2199194E0,3.654071E1,7.2333126E0,0E0,6.454737E0,2.0178223E-1,0E0,0E0,2.0083027E0,0E0,0E0,0E0,0E0,0E0,0E0],"parents":[2147483647,0,0,1,1,2,2,4,4,5,5,6,6,8,8,9,9,12,12],"right_children":[2,4,6,-1,8,10,12,-1,14,16,-1,-1,18,-1,-1,-1,-1,-1,-1],"split_conditions":[4.761905E-2,1E-4,1.6714523E-4,-2.693503E-2,-2.954723E-1,7.4983924E-5,1.8067524E-4,-2.4735214E-2,-1.05603136E-1,1.4285715E-1,7.120735E-2,5.335942E-2,1E0,5.335942E-2,-1.5010445E-2,1.7891835E-1,2.9421017E-1,1.5041313E-2,-2.3714185E-2],"split_indices":[5,8,1,0,0,4,1,0,0,5,0,0,7,0,0,0,0,0,0],"split_type":[0,0,0,0,0,0,0,0,0,0,0,0,0,0,0,0,0,0,0],"sum_hessian":[3.532075E2,2.9506003E2,5.814746E1,2.5922333E2,3.5836685E1,2.9701221E1,2.844624E1,1.07370615E1,2.5099625E1,2.6354605E1,3.3466165E0,3.0677319E0,2.5378508E1,3.0677319E0,2.2031893E1,6.414348E0,1.9940256E1,3.207174E0,2.2171335E1],"tree_param":{"num_deleted":"0","num_feature":"9","num_nodes":"19","size_leaf_vector":"1"}},{"base_weights":[-1.2636292E-3,-4.4822958E-1,2.343366E-1,1.19511746E-1,-4.8798192E-1,-5.117853E-1,9.82413E-2,6.2437028E-2,-2.6430408E-2],"categories":[],"categories_nodes":[],"categories_segments":[],"categories_sizes":[],"default_left":[0,0,0,0,0,0,0,0,0],"id":3,"left_children":[1,3,-1,-1,5,7,-1,-1,-1],"loss_changes":[9.6247534E2,4.8483856E1,0E0,0E0,2.5199684E1,1.2838516E1,0E0,0E0,0E0],"parents":[2147483647,0,0,1,1,4,4,5,5],"right_children":[2,4,-1,-1,6,8,-1,-1,-1],"split_conditions":[1.6714523E-4,-2.166E-4,2.343366E-1,1.19511746E-1,9.452848E-5,-9.81585E-5,9.82413E-2,6.2437028E-2,-2.6430408E-2],"split_indices":[1,3,0,0,4,8,0,0,0],"split_type":[0,0,0,0,0,0,0,0,0],"sum_hessian":[4.5733084E2,4.1834872E2,3.8982094E1,4.961357E0,4.133874E2,4.1019794E2,3.189444E0,3.189444E0,4.0700848E2],"tree_param":{"num_deleted":"0","num_feature":"9","num_nodes":"9","size_leaf_vector":"1"}},{"base_weights":[2.7834792E-2,5.833106E-1,-8.9703985E-2,6.094238E-1,-8.256262E-2,6.2209237E-1,-7.804876E-2,3.1384088E-2,-1.40282735E-2],"categories":[],"categories_nodes":[],"categories_segments":[],"categories_sizes":[],"default_left":[0,0,0,0,0,0,0,0,0],"id":4,"left_children":[1,3,-1,5,-1,7,-1,-1,-1],"loss_changes":[9.335562E2,4.22545E1,0E0,2.0203156E1,0E0,3.6881714E0,0E0,0E0,0E0],"parents":[2147483647,0,0,1,1,3,3,5,5],"right_children":[2,4,-1,6,-1,8,-1,-1,-1],"split_conditions":[1E-4,4.761905E-2,-8.9703985E-2,1E0,-8.256262E-2,2.642E-4,-7.804876E-2,3.1384088E-2,-1.40282735E-2],"split_indices":[1,5,0,7,0,3,0,0,0],"split_type":[0,0,0,0,0,0,0,0,0],"sum_hessian":[9.2042554E2,7.058897E2,2.1453589E2,6.984548E2,7.434908E0,6.951108E2,3.343966E0,6.911358E2,3.9749765E0],"tree_param":{"num_deleted":"0","num_feature":"9","num_nodes":"9","size_leaf_vector":"1"}},{"base_weights":[4.1545436E-2,2.2941263E-1,-4.754116E-1,-2.6467312E-2,-2.2416271E-1,9.689706E-2,-2.6113136E-2],"categories":[],"categories_nodes":[],"categories_segments":[],"categories_sizes":[],"default_left":[0,0,0,0,0,0,0],"id":5,"left_children":[1,-1,3,-1,5,-1,-1],"loss_changes":[7.1496564E2,0E0,3.5834885E0,0E0,3.3249146E1,0E0,0E0],"parents":[2147483647,0,0,2,2,4,4],"right_children":[2,-1,4,-1,6,-1,-1],"split_conditions":[2.794826E-6,2.2941263E-1,1.00708094E-4,-2.6467312E-2,1.4285715E-1,9.689706E-2,-2.6113136E-2],"split_indices":[4,0,1,0,5,0,0],"split_type":[0,0,0,0,0,0,0],"sum_hessian":[3.0225415E2,3.0053556E1,2.722006E2,2.2318372E2,4.901688E1,5.272771E0,4.374411E1],"tree_param":{"num_deleted":"0","num_feature":"9","num_nodes":"7","size_leaf_vector":"1"}},{"base_weights":[-2.3550075E-2,-5.0281966E-1,1.9784023E0,-2.6838034E-2,-2.6282063E-1,3.5982E0,-4.2012018E-1,-3.3603942E-1,1.070223E-1,3.8725977E0,2.3478469E-2,1.625028E-2,-2.6085494E-2,-2.4697749E-2,-1.1892519E-2,-7.7421204E-3,1.7056484E-2,1.2370284E-1,2.0749591E-1],"categories":[],"categories_nodes":[],"categories_segments":[],"categories_sizes":[],"default_left":[0,0,0,0,0,0,0,0,0,0,0,0,0,0,0,0,0,0,0],"id":6,"left_children":[1,3,5,-1,7,9,11,13,15,17,-1,-1,-1,-1,-1,-1,-1,-1,-1],"loss_changes":[3.447679E2,2.220253E0,2.7117816E2,0E0,1.0616195E0,3.383905E1,2.3553028E0,3.7649083E-1,4.830355E-1,4.489563E0,0E0,0E0,0E0,0E0,0E0,0E0,0E0,0E0,0E0],"parents":[2147483647,0,0,1,1,2,2,4,4,5,5,6,6,7,7,8,8,9,9],"right_children":[2,4,6,-1,8,10,12,14,16,18,-1,-1,-1,-1,-1,-1,-1,-1,-1],"split_conditions":[4.761905E-2,1E-4,7.864273E-5,-2.6838034E-2,5.596E-5,1.7218667E-4,-9.650293E-1,-2.954723E-1,3.165021E-5,1.4285715E-1,2.3478469E-2,1.625028E-2,-2.6085494E-2,-2.4697749E-2,-1.1892519E-2,-7.7421204E-3,1.7056484E-2,1.2370284E-1,2.0749591E-1],"split_indices":[5,8,4,0,2,1,0,0,4,5,0,0,0,0,0,0,0,0,0],"split_type":[0,0,0,0,0,0,0,0,0,0,0,0,0,0,0,0,0,0,0],"sum_hessian":[3.57293E2,2.8888293E2,6.841006E1,2.5200717E2,3.6875782E1,4.053519E1,2.7874866E1,3.0858116E1,6.0176644E0,3.7048084E1,3.4871075E0,3.0805905E0,2.4794275E1,1.0285496E1,2.057262E1,3.0002587E0,3.0174057E0,7.7724586E0,2.9275625E1],"tree_param":{"num_deleted":"0","num_feature":"9","num_nodes":"19","size_leaf_vector":"1"}},{"base_weights":[-3.9415396E-4,-4.8166987E-1,3.3527367E0,1.2013584E0,-5.107652E-1,1.7916664E0,1.8260889E-1,3.9579566E-3,1.0011597E-1,-5.2566564E-1,4.4583768E-2,8.376328E-3,1.312375E-1,-2.6783124E-2,1.478979E-2],"categories":[],"categories_nodes":[],"categories_segments":[],"categories_sizes":[],"default_left":[0,0,0,0,0,0,0,0,0,0,0,0,0,0,0],"id":7,"left_children":[1,3,5,7,9,11,-1,-1,-1,13,-1,-1,-1,-1,-1],"loss_changes":[7.418491E2,2.0298698E1,2.0427795E1,6.249975E0,8.741142E0,1.4781174E1,0E0,0E0,0E0,3.38031E0,0E0,0E0,0E0,0E0,0E0],"parents":[2147483647,0,0,1,1,2,2,3,3,4,4,5,5,9,9],"right_children":[2,4,6,8,10,12,-1,-1,-1,14,-1,-1,-1,-1,-1],"split_conditions":[1.488119E-4,-2.0367E-4,7.864273E-5,2.3831904E-5,2.026E-4,1.7218667E-4,1.8260889E-1,3.9579566E-3,1.0011597E-1,1.4152E-4,4.4583768E-2,8.376328E-3,1.312375E-1,-2.6783124E-2,1.478979E-2],"split_indices":[1,3,4,1,3,1,0,0,0,2,0,0,0,0,0],"split_type":[0,0,0,0,0,0,0,0,0,0,0,0,0,0,0],"sum_hessian":[4.5769577E2,4.0099695E2,5.669884E1,6.129737E0,3.948672E2,1.0249364E1,4.6449474E1,3.0105655E0,3.1191714E0,3.913346E2,3.532613E0,3.8821006E0,6.367263E0,3.869732E2,4.3613935E0],"tree_param":{"num_deleted":"0","num_feature":"9","num_nodes":"15","size_leaf_vector":"1"}},{"base_weights":[1.2644262E-2,5.789665E-1,-1.5944618E0,6.014746E-1,-7.3794656E-2,-3.8029216E-2,-8.0310225E-2,-5.659861E-2,6.131781E-1,3.0951535E-2,-1.9732824E-2],"categories":[],"categories_nodes":[],"categories_segments":[],"categories_sizes":[],"default_left":[0,0,0,0,0,0,0,0,0,0,0],"id":8,"left_children":[1,3,5,7,-1,-1,-1,-1,9,-1,-1],"loss_changes":[8.357955E2,3.229297E1,1.1213989E0,1.4334656E1,0E0,0E0,0E0,0E0,4.187561E0,0E0,0E0],"parents":[2147483647,0,0,1,1,2,2,3,3,8,8],"right_children":[2,4,6,8,-1,-1,-1,-1,10,-1,-1],"split_conditions":[1E-4,4.761905E-2,7.5455E-5,-1.58527E-4,-7.3794656E-2,-3.8029216E-2,-8.0310225E-2,-5.659861E-2,1.5431E-4,3.0951535E-2,-1.9732824E-2],"split_indices":[1,5,8,8,0,0,0,0,2,0,0],"split_type":[0,0,0,0,0,0,0,0,0,0,0],"sum_hessian":[9.1630115E2,6.7801697E2,2.3828416E2,6.713703E2,6.6466393E0,4.2222357E0,2.3406192E2,3.8604558E0,6.675099E2,6.640394E2,3.470426E0],"tree_param":{"num_deleted":"0","num_feature":"9","num_nodes":"11","size_leaf_vector":"1"}},{"base_weights":[-2.9425187E-2,1.7471175E-1,-4.8397425E-1,-2.6388748E-2,-2.9347003E-1,6.32245E-1,-2.610352E-2,-3.9085723E-3,9.162585E-2],"categories":[],"categories_nodes":[],"categories_segments":[],"categories_sizes":[],"default_left":[0,0,0,0,0,0,0,0,0],"id":9,"left_children":[1,-1,3,-1,5,7,-1,-1,-1],"loss_changes":[4.782569E2,0E0,2.0515137E0,0E0,1.1267265E1,9.256538E0,0E0,0E0,0E0],"parents":[2147483647,0,0,2,2,4,4,5,5],"right_children":[2,-1,4,-1,6,8,-1,-1,-1],"split_conditions":[2.794826E-6,1.7471175E-1,1E-4,-2.6388748E-2,1.1643381E-4,3.3580574E-5,-2.610352E-2,-3.9085723E-3,9.162585E-2],"split_indices":[4,0,1,0,1,4,0,0,0],"split_type":[0,0,0,0,0,0,0,0,0],"sum_hessian":[2.9654184E2,3.3118702E1,2.6342313E2,2.1273969E2,5.068345E1,9.687656E0,4.0995792E1,6.6729465E0,3.0147092E0],"tree_param":{"num_deleted":"0","num_feature":"9","num_nodes":"9","size_leaf_vector":"1"}},{"base_weights":[9.2663355E-3,-4.844184E-1,1.6903936E0,-2.6740754E-2,-1.4659017E-1,2.9001327E0,-3.6273816E-1,9.441014E-2,-3.613345E-1,1.6021164E-2,3.0572114E0,2.0771747E-2,-2.6121244E-2,5.930763E-2,-1.1688665E-2,-2.5000019E-2,-4.917825E-3,1.619985E-1,3.246093E-2],"categories":[],"categories_nodes":[],"categories_segments":[],"categories_sizes":[],"default_left":[0,0,0,0,0,0,0,0,0,0,0,0,0,0,0,0,0,0,0],"id":10,"left_children":[1,3,5,-1,7,9,11,13,15,-1,17,-1,-1,-1,-1,-1,-1,-1,-1],"loss_changes":[2.9309628E2,4.5695343E0,2.0016052E2,0E0,1.9394972E0,1.9505737E1,4.020814E0,6.7769175E0,6.683259E-1,0E0,1.8815857E1,0E0,0E0,0E0,0E0,0E0,0E0,0E0,0E0],"parents":[2147483647,0,0,1,1,2,2,4,4,5,5,6,6,7,7,8,8,10,10],"right_children":[2,4,6,-1,8,10,12,14,16,-1,18,-1,-1,-1,-1,-1,-1,-1,-1],"split_conditions":[4.761905E-2,1E-4,7.864273E-5,-2.6740754E-2,4.2102984E-1,-1.269E-4,1E0,-2.9465508E-1,7.4000877E-6,1.6021164E-2,3.0115273E0,2.0771747E-2,-2.6121244E-2,5.930763E-2,-1.1688665E-2,-2.5000019E-2,-4.917825E-3,1.619985E-1,3.246093E-2],"split_indices":[5,8,4,0,6,3,7,0,4,0,6,0,0,0,0,0,0,0,0],"split_type":[0,0,0,0,0,0,0,0,0,0,0,0,0,0,0,0,0,0,0],"sum_hessian":[3.5116403E2,2.7199966E2,7.916437E1,2.3618312E2,3.581655E1,4.9553867E1,2.9610497E1,1.7140596E1,1.8675953E1,3.0186374E0,4.6535233E1,4.769002E0,2.4841494E1,3.357422E0,1.3783174E1,1.1638029E1,7.0379243E0,4.2931385E1,3.603846E0],"tree_param":{"num_deleted":"0","num_feature":"9","num_nodes":"19","size_leaf_vector":"1"}},{"base_weights":[8.075097E-3,-4.662246E-1,2.6492944E0,9.704909E-2,-4.942833E-1,1.3834858E0,1.4334509E-1,6.227804E-2,-5.1999766E-1,1.2722988E-1,2.16955E-1,-2.6652906E-2,3.081136E-2,-8.945966E-3,2.828498E-2],"categories":[],"categories_nodes":[],"categories_segments":[],"categories_sizes":[],"default_left":[0,0,0,0,0,0,0,0,0,0,0,0,0,0,0],"id":11,"left_children":[1,3,5,-1,7,9,-1,-1,11,-1,13,-1,-1,-1,-1],"loss_changes":[5.6743616E2,2.6897057E1,1.5027863E1,0E0,1.7665909E1,1.5766888E1,0E0,0E0,5.9015656E0,0E0,1.0818866E0,0E0,0E0,0E0,0E0],"parents":[2147483647,0,0,1,1,2,2,4,4,5,5,8,8,10,10],"right_children":[2,4,6,-1,8,10,-1,-1,12,-1,14,-1,-1,-1,-1],"split_conditions":[1.3688763E-4,-9.81585E-5,1.7218667E-4,9.704909E-2,-2.0367E-4,4.7619048E-1,1.4334509E-1,6.227804E-2,2.026E-4,1.2722988E-1,1.13215E-4,-2.6652906E-2,3.081136E-2,-8.945966E-3,2.828498E-2],"split_indices":[1,8,1,0,3,5,0,0,3,0,8,0,0,0,0],"split_type":[0,0,0,0,0,0,0,0,0,0,0,0,0,0,0],"sum_hessian":[4.5097388E2,3.8301672E2,6.7957146E1,3.627542E0,3.793892E2,1.1048196E1,5.690895E1,4.8346734E0,3.745545E2,4.9449143E0,6.1032815E0,3.708229E2,3.7316124E0,3.0865607E0,3.0167208E0],"tree_param":{"num_deleted":"0","num_feature":"9","num_nodes":"15","size_leaf_vector":"1"}},{"base_weights":[1.2032653E-2,5.7013917E-1,-1.4434817E0,5.8760107E-1,-7.4719846E-2,-3.359794E-2,-7.2514266E-2,-5.283112E-2,5.994855E-1,-1.9100135E-2,3.0265016E-2],"categories":[],"categories_nodes":[],"categories_segments":[],"categories_sizes":[],"default_left":[0,0,0,0,0,0,0,0,0,0,0],"id":12,"left_children":[1,3,5,7,-1,-1,-1,-1,9,-1,-1],"loss_changes":[7.3854803E2,2.456929E1,3.4814453E-1,1.3381256E1,0E0,0E0,0E0,0E0,3.931305E0,0E0,0E0],"parents":[2147483647,0,0,1,1,2,2,3,3,8,8],"right_children":[2,4,6,8,-1,-1,-1,-1,10,-1,-1],"split_conditions":[1E-4,1.03908E-4,7.5455E-5,-1.58527E-4,-7.4719846E-2,-3.359794E-2,-7.2514266E-2,-5.283112E-2,2.794826E-6,-1.9100135E-2,3.0265016E-2],"split_indices":[1,8,8,8,0,0,0,0,4,0,0],"split_type":[0,0,0,0,0,0,0,0,0,0,0],"sum_hessian":[9.07157E2,6.561639E2,2.5099304E2,6.5137E2,4.793911E0,3.0660815E0,2.4792697E2,4.0434995E0,6.473265E2,3.4314432E0,6.438951E2],"tree_param":{"num_deleted":"0","num_feature":"9","num_nodes":"11","size_leaf_vector":"1"}},{"base_weights":[-2.961145E-3,1.4566262E-1,-4.7032532E-1,1.6645564E-2,-4.8874915E-1,-2.6330663E-2,-3.091957E-1,9.2167445E-2,-2.6130164E-2],"categories":[],"categories_nodes":[],"categories_segments":[],"categories_sizes":[],"default_left":[0,0,0,0,0,0,0,0,0],"id":13,"left_children":[1,-1,3,-1,5,-1,7,-1,-1],"loss_changes":[4.0776184E2,0E0,3.9785423E0,0E0,1.5536423E0,0E0,2.2274038E1,0E0,0E0],"parents":[2147483647,0,0,2,2,4,4,6,6],"right_children":[2,-1,4,-1,6,-1,8,-1,-1],"split_conditions":[2.794826E-6,1.4566262E-1,1.1166954E-5,1.6645564E-2,1.1302E-4,-2.6330663E-2,1.4285715E-1,9.2167445E-2,-2.6130164E-2],"split_indices":[4,0,4,0,1,0,5,0,0],"split_type":[0,0,0,0,0,0,0,0,0],"sum_hessian":[2.9717422E2,4.0324978E1,2.5684924E2,5.3765044E0,2.5147273E2,2.0608153E2,4.5391212E1,3.4053469E0,4.1985867E1],"tree_param":{"num_deleted":"0","num_feature":"9","num_nodes":"9","size_leaf_vector":"1"}},{"base_weights":[4.726519E-3,-4.1854665E-1,1.3771079E0,-4.8662385E-1,1.5176706E-1,2.4081624E0,-3.721091E-1,-2.6644899E-2,-2.803362E-1,1.8710742E-3,2.5599055E0,3.2374594E-2,-2.6251717E-2,-2.43851E-2,1.0463863E-1,1.3422877E-1,3.445141E-2],"categories":[],"categories_nodes":[],"categories_segments":[],"categories_sizes":[],"default_left":[0,0,0,0,0,0,0,0,0,0,0,0,0,0,0,0,0],"id":14,"left_children":[1,3,5,7,-1,9,11,-1,13,-1,15,-1,-1,-1,-1,-1,-1],"loss_changes":[2.0794957E2,6.581072E1,1.5308455E2,2.4201431E0,0E0,1.9051117E1,5.3543377E0,0E0,2.6328932E1,0E0,9.814056E0,0E0,0E0,0E0,0E0,0E0,0E0],"parents":[2147483647,0,0,1,1,2,2,3,3,5,5,6,6,8,8,10,10],"right_children":[2,4,6,8,-1,10,12,-1,14,-1,16,-1,-1,-1,-1,-1,-1],"split_conditions":[1.00708094E-4,1.03908E-4,7.864273E-5,8.2996194E-5,1.5176706E-1,-1.5086E-4,-1.0200336E0,-2.6644899E-2,3.214525E-5,1.8710742E-3,1.7218667E-4,3.2374594E-2,-2.6251717E-2,-2.43851E-2,1.0463863E-1,1.3422877E-1,3.445141E-2],"split_indices":[1,8,4,1,0,3,0,0,4,0,1,0,0,0,0,0,0],"split_type":[0,0,0,0,0,0,0,0,0,0,0,0,0,0,0,0,0],"sum_hessian":[3.5599084E2,2.7260757E2,8.338326E1,2.6818076E2,4.4268193E0,5.2223846E1,3.1159416E1,2.1775179E2,5.0428974E1,3.2165806E0,4.9007267E1,3.6421309E0,2.7517286E1,4.710717E1,3.3218071E0,4.553783E1,3.4694355E0],"tree_param":{"num_deleted":"0","num_feature":"9","num_nodes":"17","size_leaf_vector":"1"}},{"base_weights":[3.1175835E-3,-4.7568846E-1,2.2461543E0,7.019814E-2,-5.016815E-1,1.1516155E0,1.23878814E-1,-5.2012604E-1,4.575893E-2,2.5442002E-2,9.872229E-2,2.3581173E-2,-2.6534868E-2,-2.2001296E-2,2.6842192E-2],"categories":[],"categories_nodes":[],"categories_segments":[],"categories_sizes":[],"default_left":[0,0,0,0,0,0,0,0,0,0,0,0,0,0,0],"id":15,"left_children":[1,3,5,-1,7,9,-1,11,-1,13,-1,-1,-1,-1,-1],"loss_changes":[4.878774E2,1.8994987E1,1.7388397E1,0E0,1.0145187E1,1.4605289E1,0E0,4.086197E0,0E0,2.066782E0,0E0,0E0,0E0,0E0,0E0],"parents":[2147483647,0,0,1,1,2,2,4,4,5,5,7,7,9,9],"right_children":[2,4,6,-1,8,10,-1,12,-1,14,-1,-1,-1,-1,-1],"split_conditions":[1.3688763E-4,-9.81585E-5,7.864273E-5,7.019814E-2,3E0,1.7218667E-4,1.23878814E-1,-2.166E-4,4.575893E-2,1.13215E-4,9.872229E-2,2.3581173E-2,-2.6534868E-2,-2.2001296E-2,2.6842192E-2],"split_indices":[1,8,4,0,7,1,0,3,0,8,0,0,0,0,0],"split_type":[0,0,0,0,0,0,0,0,0,0,0,0,0,0,0],"sum_hessian":[4.522758E2,3.7336417E2,7.891162E1,4.3696027E0,3.6899457E2,1.4815608E1,6.4096016E1,3.6487753E2,4.117035E0,6.6900854E0,8.125523E0,3.3883166E0,3.614892E2,3.5753975E0,3.114688E0],"tree_param":{"num_deleted":"0","num_feature":"9","num_nodes":"15","size_leaf_vector":"1"}},{"base_weights":[8.382254E-4,5.609137E-1,-6.699725E-2,5.8755887E-1,-6.6478655E-2,-5.029396E-2,6.000291E-1,3.0300805E-2,-5.9200577E-3],"categories":[],"categories_nodes":[],"categories_segments":[],"categories_sizes":[],"default_left":[0,0,0,0,0,0,0,0,0],"id":16,"left_children":[1,3,-1,5,-1,-1,7,-1,-1],"loss_changes":[6.6635516E2,3.230957E1,0E0,1.2881561E1,0E0,0E0,2.7115479E0,0E0,0E0],"parents":[2147483647,0,0,1,1,3,3,6,6],"right_children":[2,4,-1,6,-1,-1,8,-1,-1],"split_conditions":[1E-4,4.761905E-2,-6.699725E-2,-1.58527E-4,-6.6478655E-2,-5.029396E-2,9.929238E-5,3.0300805E-2,-5.9200577E-3],"split_indices":[1,5,0,8,0,0,1,0,0],"split_type":[0,0,0,0,0,0,0,0,0],"sum_hessian":[8.8536066E2,6.249053E2,2.6045538E2,6.1689966E2,8.005607E0,4.171763E0,6.127279E2,6.0781915E2,4.908751E0],"tree_param":{"num_deleted":"0","num_feature":"9","num_nodes":"9","size_leaf_vector":"1"}},{"base_weights":[1.5777854E-2,1.2077289E-1,-4.667078E-1,7.745327E-3,-4.8171628E-1,-2.6226852E-2,-3.570073E-1,1.0750855E-2,-2.5242625E-2],"categories":[],"categories_nodes":[],"categories_segments":[],"categories_sizes":[],"default_left":[0,0,0,0,0,0,0,0,0],"id":17,"left_children":[1,-1,3,-1,5,-1,7,-1,-1],"loss_changes":[3.4260748E2,0E0,2.373413E0,0E0,1.0988197E0,0E0,5.579338E0,0E0,0E0],"parents":[2147483647,0,0,2,2,4,4,6,6],"right_children":[2,-1,4,-1,6,-1,8,-1,-1],"split_conditions":[2.794826E-6,1.2077289E-1,1.1166954E-5,7.745327E-3,1E-4,-2.6226852E-2,-3.8841933E-1,1.0750855E-2,-2.5242625E-2],"split_indices":[4,0,4,0,8,0,6,0,0],"split_type":[0,0,0,0,0,0,0,0,0],"sum_hessian":[2.9393597E2,4.853535E1,2.4540062E2,5.565608E0,2.39835E2,1.761464E2,6.3688625E1,1.2986916E1,5.070171E1],"tree_param":{"num_deleted":"0","num_feature":"9","num_nodes":"9","size_leaf_vector":"1"}},{"base_weights":[5.446081E-3,-4.7897476E-1,1.3193065E0,-2.6570315E-2,-1.4492433E-1,2.1482923E0,-2.1278767E-1,-2.4631094E-2,-2.9197326E-3,1.1208415E-3,2.267169E0,3.381231E-2,-3.9136082E-1,7.386163E-2,-1.3230569E-2,1.1721263E-1,4.2148314E-2,-5.63424E-3,-2.5840694E-2],"categories":[],"categories_nodes":[],"categories_segments":[],"categories_sizes":[],"default_left":[0,0,0,0,0,0,0,0,0,0,0,0,0,0,0,0,0,0,0],"id":18,"left_children":[1,3,5,-1,7,9,11,-1,13,-1,15,-1,17,-1,-1,-1,-1,-1,-1],"loss_changes":[2.262516E2,4.47213E0,1.2207921E2,0E0,1.8062228E0,1.5675201E1,5.746763E0,0E0,1.0849374E1,0E0,4.4925537E0,0E0,9.6922016E-1,0E0,0E0,0E0,0E0,0E0,0E0],"parents":[2147483647,0,0,1,1,2,2,4,4,5,5,6,6,8,8,10,10,12,12],"right_children":[2,4,6,-1,8,10,12,-1,14,-1,16,-1,18,-1,-1,-1,-1,-1,-1],"split_conditions":[4.761905E-2,1E-4,1.6714523E-4,-2.6570315E-2,-2.998227E-1,-2.0367E-4,-9.4608074E-1,-2.4631094E-2,-2.6613793E-1,1.1208415E-3,2.23558E-4,3.381231E-2,2.0382334E-4,7.386163E-2,-1.3230569E-2,1.1721263E-1,4.2148314E-2,-5.63424E-3,-2.5840694E-2],"split_indices":[5,8,1,0,0,3,0,0,0,0,8,0,1,0,0,0,0,0,0],"split_type":[0,0,0,0,0,0,0,0,0,0,0,0,0,0,0,0,0,0,0],"sum_hessian":[3.5349078E2,2.5873172E2,9.475904E1,2.231206E2,3.5611122E1,6.1227734E1,3.353131E1,9.610588E0,2.6000532E1,3.3054175E0,5.7922314E1,5.1424537E0,2.8388859E1,3.2084281E0,2.2792105E1,5.433545E1,3.5868642E0,9.401965E0,1.8986895E1],"tree_param":{"num_deleted":"0","num_feature":"9","num_nodes":"19","size_leaf_vector":"1"}},{"base_weights":[-1.5180702E-2,-4.3843302E-1,1.7246495E0,-4.6774408E-1,8.70583E-2,1.1787738E0,1.0159179E-1,8.4517807E-1,-4.971103E-1,5.0456053E-1,1.6947365E0,-1.1039524E-2,8.6243756E-2,6.3221954E-2,-2.597309E-2,-3.8966076E-3,5.6366175E-2,9.799101E-2,4.6947714E-2],"categories":[],"categories_nodes":[],"categories_segments":[],"categories_sizes":[],"default_left":[0,0,0,0,0,0,0,0,0,0,0,0,0,0,0,0,0,0,0],"id":19,"left_children":[1,3,5,7,-1,9,-1,11,13,15,17,-1,-1,-1,-1,-1,-1,-1,-1],"loss_changes":[3.2843585E2,2.3731102E1,1.2239319E1,1.409729E1,0E0,1.0905876E1,0E0,8.005714E0,1.4343254E1,5.9211683E0,1.9118996E0,0E0,0E0,0E0,0E0,0E0,0E0,0E0,0E0],"parents":[2147483647,0,0,1,1,2,2,3,3,5,5,7,7,8,8,9,9,10,10],"right_children":[2,4,6,8,-1,10,-1,12,14,16,18,-1,-1,-1,-1,-1,-1,-1,-1],"split_conditions":[4.2857143E-1,2.642E-4,7.619048E-1,-2.0367E-4,8.70583E-2,8.6217064E-1,1.0159179E-1,0E0,-1.7525E-4,1.257915E-4,2.169129E0,-1.1039524E-2,8.6243756E-2,6.3221954E-2,-2.597309E-2,-3.8966076E-3,5.6366175E-2,9.799101E-2,4.6947714E-2],"split_indices":[5,3,5,3,0,6,0,2,2,8,6,0,0,0,0,0,0,0,0],"split_type":[0,0,0,0,0,0,0,0,0,0,0,0,0,0,0,0,0,0,0],"sum_hessian":[4.439829E2,3.5771002E2,8.6272896E1,3.5373837E2,3.971645E0,3.280864E1,5.346426E1,7.131215E0,3.4660715E2,1.5080593E1,1.7728046E1,3.5629017E0,3.5683134E0,3.646559E0,3.429606E2,8.24428E0,6.836313E0,1.1945256E1,5.78279E0],"tree_param":{"num_deleted":"0","num_feature":"9","num_nodes":"19","size_leaf_vector":"1"}},{"base_weights":[-1.509962E-2,5.269946E-1,-1.0290815E0,-9.212894E-1,5.7509035E-1,-5.433267E-1,-6.295097E-2,-2.2034068E-2,-5.395887E-2,5.959755E-1,-5.7818837E-2,-1.1503116E0,3.887526E-1,-4.0612977E-2,3.0314475E-2,-5.9666283E-2,-1.9580046E-2,3.0125154E-2,-7.365232E-2],"categories":[],"categories_nodes":[],"categories_segments":[],"categories_sizes":[],"default_left":[0,0,0,0,0,0,0,0,0,0,0,0,0,0,0,0,0,0,0],"id":20,"left_children":[1,3,5,7,9,11,-1,-1,-1,13,-1,15,17,-1,-1,-1,-1,-1,-1],"loss_changes":[4.9069055E2,4.1050476E1,3.4050934E1,9.723892E-1,2.1071503E1,5.7969215E1,0E0,0E0,0E0,8.59111E0,0E0,1.5504227E0,1.714244E1,0E0,0E0,0E0,0E0,0E0,0E0],"parents":[2147483647,0,0,1,1,2,2,3,3,4,4,5,5,9,9,11,11,12,12],"right_children":[2,4,6,8,10,12,-1,-1,-1,14,-1,16,18,-1,-1,-1,-1,-1,-1],"split_conditions":[1E-4,2.794826E-6,4.761905E-2,7.67015E-5,4.761905E-2,2.794826E-6,-6.295097E-2,-2.2034068E-2,-5.395887E-2,-1.58527E-4,-5.7818837E-2,9.004578E-1,1E0,-4.0612977E-2,3.0314475E-2,-5.9666283E-2,-1.9580046E-2,3.0125154E-2,-7.365232E-2],"split_indices":[8,4,5,8,5,4,0,0,0,8,0,0,7,0,0,0,0,0,0],"split_type":[0,0,0,0,0,0,0,0,0,0,0,0,0,0,0,0,0,0,0],"sum_hessian":[8.907076E2,5.807225E2,3.099851E2,1.808171E1,5.6264075E2,1.00672485E2,2.0931262E2,5.408733E0,1.2672978E1,5.56583E2,6.057768E0,6.0826904E1,3.9845585E1,3.4814706E0,5.531015E2,5.7021328E1,3.8055751E0,3.6348816E1,3.4967685E0],"tree_param":{"num_deleted":"0","num_feature":"9","num_nodes":"19","size_leaf_vector":"1"}},{"base_weights":[-5.2394946E-3,2.0540612E0,-4.683085E-1,3.426155E-2,1.0650859E-1,1.2467332E-2,-4.878708E-1,-2.6175965E-2,-3.4816432E-1,6.799512E-2,-2.6175017E-2],"categories":[],"categories_nodes":[],"categories_segments":[],"categories_sizes":[],"default_left":[0,0,0,0,0,0,0,0,0,0,0],"id":21,"left_children":[1,3,5,-1,-1,-1,7,-1,9,-1,-1],"loss_changes":[2.8040076E2,4.164398E0,3.491764E0,0E0,0E0,0E0,9.832306E-1,0E0,1.58540535E1,0E0,0E0],"parents":[2147483647,0,0,1,1,2,2,6,6,8,8],"right_children":[2,4,6,-1,-1,-1,8,-1,10,-1,-1],"split_conditions":[2.794826E-6,7.67015E-5,1.1166954E-5,3.426155E-2,1.0650859E-1,1.2467332E-2,9.52381E-2,-2.6175965E-2,1.4285715E-1,6.799512E-2,-2.6175017E-2],"split_indices":[4,8,4,0,0,0,5,0,5,0,0],"split_type":[0,0,0,0,0,0,0,0,0,0,0],"sum_hessian":[2.9203622E2,5.298269E1,2.3905353E2,3.3177052E0,4.9664986E1,6.0316734E0,2.3302185E2,1.8346135E2,4.9560505E1,3.9849012E0,4.5575603E1],"tree_param":{"num_deleted":"0","num_feature":"9","num_nodes":"11","size_leaf_vector":"1"}},{"base_weights":[-1.1271823E-2,-4.8691702E-1,1.1594306E0,-5.193312E-1,-3.5017708E-1,1.809955E0,-3.659836E-1,-2.6209144E-2,-1.2836031E-2,-2.5614336E-2,-2.3200183E-1,-1.2140446E-2,1.9278793E0,1.47642335E-2,-4.8626393E-1,4.0165562E-2,-1.8766638E-2,1.0139357E-1,2.1590551E-2,-2.5977528E-2,-1.3180353E-2],"categories":[],"categories_nodes":[],"categories_segments":[],"categories_sizes":[],"default_left":[0,0,0,0,0,0,0,0,0,0,0,0,0,0,0,0,0,0,0,0,0],"id":22,"left_children":[1,3,5,7,9,11,13,-1,-1,-1,15,-1,17,-1,19,-1,-1,-1,-1,-1,-1],"loss_changes":[1.9327087E2,9.120064E-1,1.0017136E2,1.1697769E-1,8.4594965E-1,1.752626E1,2.5942607E0,0E0,0E0,0E0,4.8951116E0,0E0,9.110001E0,0E0,5.905819E-2,0E0,0E0,0E0,0E0,0E0,0E0],"parents":[2147483647,0,0,1,1,2,2,3,3,4,4,5,5,6,6,10,10,12,12,14,14],"right_children":[2,4,6,8,10,12,14,-1,-1,-1,16,-1,18,-1,20,-1,-1,-1,-1,-1,-1],"split_conditions":[4.761905E-2,8.225143E-5,1.8067524E-4,1.1504E-4,-2.954723E-1,-1.7651E-4,-1.0355332E0,-2.6209144E-2,-1.2836031E-2,-2.5614336E-2,-2.6613793E-1,-1.2140446E-2,1.5431E-4,1.47642335E-2,3.1962476E0,4.0165562E-2,-1.8766638E-2,1.0139357E-1,2.1590551E-2,-2.5977528E-2,-1.3180353E-2],"split_indices":[5,1,1,2,0,3,0,0,0,0,0,0,2,0,6,0,0,0,0,0,0],"split_type":[0,0,0,0,0,0,0,0,0,0,0,0,0,0,0,0,0,0,0,0,0],"sum_hessian":[3.4507193E2,2.4579277E2,9.927917E1,1.9643086E2,4.9361923E1,6.9467636E1,2.9811527E1,1.9188972E2,4.541128E0,1.9406136E1,2.9955786E1,3.71635E0,6.575129E1,4.364075E0,2.5447453E1,3.0828733E0,2.6872913E1,6.1298817E1,4.4524684E0,2.09779E1,4.4695525E0],"tree_param":{"num_deleted":"0","num_feature":"9","num_nodes":"21","size_leaf_vector":"1"}},{"base_weights":[6.0667284E-3,-4.5991248E-1,1.7476174E0,6.268982E-2,-4.843451E-1,8.6788857E-1,9.5895104E-2,-5.0384337E-1,6.1169673E-2,-7.302403E-2,6.960164E-2,-2.6550964E-2,3.4416813E-4,-2.1356398E-2,1.5254038E-2],"categories":[],"categories_nodes":[],"categories_segments":[],"categories_sizes":[],"default_left":[0,0,0,0,0,0,0,0,0,0,0,0,0,0,0],"id":23,"left_children":[1,3,5,-1,7,9,-1,11,-1,13,-1,-1,-1,-1,-1],"loss_changes":[3.635897E2,1.5407135E1,1.2502899E1,0E0,1.2244751E1,8.566375E0,0E0,4.805786E0,0E0,1.0796751E0,0E0,0E0,0E0,0E0,0E0],"parents":[2147483647,0,0,1,1,2,2,4,4,5,5,7,7,9,9],"right_children":[2,4,6,-1,8,10,-1,12,-1,14,-1,-1,-1,-1,-1],"split_conditions":[1.3688763E-4,-9.81585E-5,7.864273E-5,6.268982E-2,1.5431E-4,1.7218667E-4,9.5895104E-2,1.0893E-4,6.1169673E-2,1.20818E-4,6.960164E-2,-2.6550964E-2,3.4416813E-4,-2.1356398E-2,1.5254038E-2],"split_indices":[1,8,4,0,2,1,0,8,0,8,0,0,0,0,0],"split_type":[0,0,0,0,0,0,0,0,0,0,0,0,0,0,0],"sum_hessian":[4.4604147E2,3.524688E2,9.3572655E1,4.247279E0,3.4822156E2,1.6163769E1,7.740888E1,3.4498758E2,3.2339613E0,6.09073E0,1.0073039E1,3.275204E2,1.7467201E1,3.0782359E0,3.0124943E0],"tree_param":{"num_deleted":"0","num_feature":"9","num_nodes":"15","size_leaf_vector":"1"}},{"base_weights":[2.6772856E-3,5.4579383E-1,-5.725301E-2,5.729091E-1,-5.877189E-2,5.8107406E-1,-2.626147E-2,2.9277314E-2,-2.9545731E-3],"categories":[],"categories_nodes":[],"categories_segments":[],"categories_sizes":[],"default_left":[0,0,0,0,0,0,0,0,0],"id":24,"left_children":[1,3,-1,5,-1,7,-1,-1,-1],"loss_changes":[5.4182227E2,2.8209946E1,0E0,5.5192566E0,0E0,1.6885529E0,0E0,0E0,0E0],"parents":[2147483647,0,0,1,1,3,3,5,5],"right_children":[2,4,-1,6,-1,8,-1,-1,-1],"split_conditions":[1E-4,4.761905E-2,-5.725301E-2,2.642E-4,-5.877189E-2,9.929238E-5,-2.626147E-2,2.9277314E-2,-2.9545731E-3],"split_indices":[1,5,0,3,0,1,0,0,0],"split_type":[0,0,0,0,0,0,0,0,0],"sum_hessian":[8.6720044E2,5.8900433E2,2.7819608E2,5.805262E2,8.478125E0,5.767091E2,3.817099E0,5.727929E2,3.9162326E0],"tree_param":{"num_deleted":"0","num_feature":"9","num_nodes":"9","size_leaf_vector":"1"}},{"base_weights":[-7.3974268E-3,-2.611627E-2,8.2664496E-1,1.7568066E0,-2.6165763E-2,-2.4231333E-2,1.9175439E0,1.04616694E-1,-2.4326613E-2],"categories":[],"categories_nodes":[],"categories_segments":[],"categories_sizes":[],"default_left":[0,0,0,0,0,0,0,0,0],"id":25,"left_children":[1,-1,3,5,-1,-1,7,-1,-1],"loss_changes":[1.2715694E2,0E0,1.4283891E2,2.5120346E1,0E0,0E0,2.7429657E1,0E0,0E0],"parents":[2147483647,0,0,2,2,3,3,6,6],"right_children":[2,-1,4,6,-1,-1,8,-1,-1],"split_conditions":[9.929238E-5,-2.611627E-2,1.4285715E-1,-2.83E-6,-2.6165763E-2,-2.4231333E-2,1E0,1.04616694E-1,-2.4326613E-2],"split_indices":[1,0,5,2,0,0,7,0,0],"split_type":[0,0,0,0,0,0,0,0,0],"sum_hessian":[2.9407217E2,1.8205025E2,1.12021935E2,6.6144844E1,4.587709E1,4.291142E0,6.1853706E1,5.778228E1,4.0714254E0],"tree_param":{"num_deleted":"0","num_feature":"9","num_nodes":"9","size_leaf_vector":"1"}},{"base_weights":[-3.6096864E-3,-4.921193E-1,1.0703686E0,-2.6407123E-2,-2.7834228E-1,1.6706129E0,-2.6801744E-1,-1.2619784E-1,-4.4803923E-1,-2.7638609E-3,1.7669302E0,9.080582E-2,-2.5894305E-2,1.5149063E-2,-1.5145319E-2,-1.3405996E-2,-2.4875527E-2,9.1808684E-2,1.2161643E-2,5.30216E-2,-1.6051477E-2],"categories":[],"categories_nodes":[],"categories_segments":[],"categories_sizes":[],"default_left":[0,0,0,0,0,0,0,0,0,0,0,0,0,0,0,0,0,0,0,0,0],"id":26,"left_children":[1,3,5,-1,7,9,11,13,15,-1,17,19,-1,-1,-1,-1,-1,-1,-1,-1,-1],"loss_changes":[1.8060912E2,1.6751366E0,8.691292E1,0E0,8.7901235E-1,1.247261E1,3.1121283E0,1.6463475E0,1.558733E-2,0E0,6.9956207E0,6.2841387E0,0E0,0E0,0E0,0E0,0E0,0E0,0E0,0E0,0E0],"parents":[2147483647,0,0,1,1,2,2,4,4,5,5,6,6,7,7,8,8,10,10,11,11],"right_children":[2,4,6,-1,8,10,12,14,16,-1,18,20,-1,-1,-1,-1,-1,-1,-1,-1,-1],"split_conditions":[4.761905E-2,1E-4,1.7218667E-4,-2.6407123E-2,5.8644444E-1,-2.0367E-4,2.1592047E-4,-2.9465508E-1,9.382238E-5,-2.7638609E-3,2.465455E-4,-6.998318E-1,-2.5894305E-2,1.5149063E-2,-1.5145319E-2,-1.3405996E-2,-2.4875527E-2,9.1808684E-2,1.2161643E-2,5.30216E-2,-1.6051477E-2],"split_indices":[5,8,1,0,6,3,1,0,1,0,8,0,0,0,0,0,0,0,0,0,0],"split_type":[0,0,0,0,0,0,0,0,0,0,0,0,0,0,0,0,0,0,0,0,0],"sum_hessian":[3.4224368E2,2.3561407E2,1.066296E2,2.003782E2,3.5235874E1,7.344327E1,3.318633E1,1.9498161E1,1.5737713E1,3.9045486E0,6.953872E1,1.3884341E1,1.9301989E1,5.478274E0,1.4019887E1,4.778558E0,1.0959155E1,6.6319786E1,3.218935E0,3.6696398E0,1.0214702E1],"tree_param":{"num_deleted":"0","num_feature":"9","num_nodes":"21","size_leaf_vector":"1"}},{"base_weights":[-9.695333E-3,-4.6734133E-1,1.5445247E0,6.4120196E-2,-4.9257225E-1,7.156972E-1,8.579766E-2,-5.151663E-1,3.4380104E-2,-6.511004E-2,7.553171E-2,-2.6189113E-2,-2.0695825E-3,-1.6138647E-2,1.2833674E-2],"categories":[],"categories_nodes":[],"categories_segments":[],"categories_sizes":[],"default_left":[0,0,0,0,0,0,0,0,0,0,0,0,0,0,0],"id":27,"left_children":[1,3,5,-1,7,9,-1,11,-1,13,-1,-1,-1,-1,-1],"loss_changes":[3.154184E2,1.5754936E1,1.3104645E1,0E0,9.377998E0,1.1893925E1,0E0,1.3361206E0,0E0,9.5721906E-1,0E0,0E0,0E0,0E0,0E0],"parents":[2147483647,0,0,1,1,2,2,4,4,5,5,7,7,9,9],"right_children":[2,4,6,-1,8,10,-1,12,-1,14,-1,-1,-1,-1,-1],"split_conditions":[1.3688763E-4,-9.81585E-5,7.864273E-5,6.4120196E-2,3E0,1.8067524E-4,8.579766E-2,8.486219E-5,3.4380104E-2,1.257915E-4,7.553171E-2,-2.6189113E-2,-2.0695825E-3,-1.6138647E-2,1.2833674E-2],"split_indices":[1,8,4,0,7,1,0,4,0,8,0,0,0,0,0],"split_type":[0,0,0,0,0,0,0,0,0,0,0,0,0,0,0],"sum_hessian":[4.4143542E2,3.4156082E2,9.987459E1,4.1469383E0,3.374139E2,1.8003878E1,8.1870705E1,3.3162848E2,5.785431E0,9.545823E0,8.458055E0,3.256016E2,6.026885E0,5.2993674E0,4.246456E0],"tree_param":{"num_deleted":"0","num_feature":"9","num_nodes":"15","size_leaf_vector":"1"}},{"base_weights":[5.5210763E-3,5.35561E-1,-1.0780718E0,5.575094E-1,-6.417539E-2,-1.2810856E-2,-5.4359447E-2,-4.9461953E-2,5.6908375E-1,2.8787328E-2,-1.679446E-2],"categories":[],"categories_nodes":[],"categories_segments":[],"categories_sizes":[],"default_left":[0,0,0,0,0,0,0,0,0,0,0],"id":28,"left_children":[1,3,5,7,-1,-1,-1,-1,9,-1,-1],"loss_changes":[4.905446E2,2.3614365E1,1.8236084E0,1.0720779E1,0E0,0E0,0E0,0E0,3.592987E0,0E0,0E0],"parents":[2147483647,0,0,1,1,2,2,3,3,8,8],"right_children":[2,4,6,8,-1,-1,-1,-1,10,-1,-1],"split_conditions":[1E-4,1E0,6.50705E-5,-1.58527E-4,-6.417539E-2,-1.2810856E-2,-5.4359447E-2,-4.9461953E-2,2.642E-4,2.8787328E-2,-1.679446E-2],"split_indices":[1,7,8,8,0,0,0,0,3,0,0],"split_type":[0,0,0,0,0,0,0,0,0,0,0],"sum_hessian":[8.5208496E2,5.72535E2,2.7955E2,5.6639453E2,6.1404552E0,3.3864415E0,2.7616354E2,3.579468E0,5.6281506E2,5.590628E2,3.7522593E0],"tree_param":{"num_deleted":"0","num_feature":"9","num_nodes":"11","size_leaf_vector":"1"}},{"base_weights":[-1.45880645E-2,1.6581231E0,-4.6762213E-1,3.849548E-2,8.509543E-2,-2.6055982E-2,-2.7995324E-1,5.9109896E-1,-2.6060408E-2,-5.6853173E-3,8.628272E-2],"categories":[],"categories_nodes":[],"categories_segments":[],"categories_sizes":[],"default_left":[0,0,0,0,0,0,0,0,0,0,0],"id":29,"left_children":[1,3,5,-1,-1,-1,7,9,-1,-1,-1],"loss_changes":[2.181811E2,1.0760956E0,2.128437E0,0E0,0E0,0E0,1.1322178E1,9.661144E0,0E0,0E0,0E0],"parents":[2147483647,0,0,1,1,2,2,6,6,7,7],"right_children":[2,4,6,-1,-1,-1,8,10,-1,-1,-1],"split_conditions":[2.794826E-6,7.5455E-5,1.00708094E-4,3.849548E-2,8.509543E-2,-2.6055982E-2,1.1643381E-4,3.9107654E-5,-2.6060408E-2,-5.6853173E-3,8.628272E-2],"split_indices":[4,8,1,0,0,0,1,4,0,0,0],"split_type":[0,0,0,0,0,0,0,0,0,0,0],"sum_hessian":[2.858925E2,6.0361862E1,2.2553062E2,3.7088711E0,5.6652992E1,1.7411891E2,5.1411713E1,1.08364725E1,4.057524E1,7.2391605E0,3.5973115E0],"tree_param":{"num_deleted":"0","num_feature":"9","num_nodes":"11","size_leaf_vector":"1"}},{"base_weights":[-6.133727E-3,-3.7778133E-1,8.731703E-1,-4.7203138E-1,1.1925546E-1,1.3907064E0,-2.5891688E-1,-2.630937E-2,-3.007763E-1,1.4819424E0,-4.487142E-3,2.468819E-2,-4.1780874E-1,-2.1963637E-2,6.9021187E-3,1.2022981E-2,7.71412E-2,-7.032343E-3,-2.5876487E-2],"categories":[],"categories_nodes":[],"categories_segments":[],"categories_sizes":[],"default_left":[0,0,0,0,0,0,0,0,0,0,0,0,0,0,0,0,0,0,0],"id":30,"left_children":[1,3,5,7,-1,9,11,-1,13,15,-1,-1,17,-1,-1,-1,-1,-1,-1],"loss_changes":[1.1309802E2,6.4470184E1,6.060285E1,2.031124E0,0E0,9.685211E0,4.165038E0,0E0,3.6494017E0,4.6683197E0,0E0,0E0,6.9759464E-1,0E0,0E0,0E0,0E0,0E0,0E0],"parents":[2147483647,0,0,1,1,2,2,3,3,5,5,6,6,8,8,9,9,12,12],"right_children":[2,4,6,8,-1,10,12,-1,14,16,-1,-1,18,-1,-1,-1,-1,-1,-1],"split_conditions":[1.00708094E-4,1E0,1.7218667E-4,7.687286E-5,1.1925546E-1,2.465455E-4,-9.4608074E-1,-2.630937E-2,7.5154996E-1,-1.269E-4,-4.487142E-3,2.468819E-2,-3.371E-5,-2.1963637E-2,6.9021187E-3,1.2022981E-2,7.71412E-2,-7.032343E-3,-2.5876487E-2],"split_indices":[1,7,1,1,0,8,0,0,0,3,0,0,2,0,0,0,0,0,0],"split_type":[0,0,0,0,0,0,0,0,0,0,0,0,0,0,0,0,0,0,0],"sum_hessian":[3.440771E2,2.4225548E2,1.018216E2,2.3506586E2,7.1896105E0,6.9720345E1,3.2101257E1,1.7701569E2,5.8050175E1,6.567215E1,4.0482E0,5.228061E0,2.6873196E1,4.41233E1,1.3926877E1,3.3013563E0,6.2370792E1,7.748267E0,1.9124928E1],"tree_param":{"num_deleted":"0","num_feature":"9","num_nodes":"19","size_leaf_vector":"1"}},{"base_weights":[-5.3196764E-3,-4.6031195E-1,1.4055816E0,5.0458636E-2,-4.860989E-1,7.123283E-1,1.5059183E0,3.285799E-2,-5.0939935E-1,7.217122E-2,-1.3976993E-1,9.930922E-1,7.840687E-2,-2.6230017E-2,3.1536575E-2,1.3926054E-2,-2.3089735E-2,7.344188E-2,4.9229804E-4],"categories":[],"categories_nodes":[],"categories_segments":[],"categories_sizes":[],"default_left":[0,0,0,0,0,0,0,0,0,0,0,0,0,0,0,0,0,0,0],"id":31,"left_children":[1,3,5,-1,7,9,11,-1,13,-1,15,17,-1,-1,-1,-1,-1,-1,-1],"loss_changes":[2.8101413E2,1.3033226E1,6.352356E0,0E0,9.017967E0,9.791565E0,1.3894043E0,0E0,5.8771286E0,0E0,1.2089617E0,5.935301E0,0E0,0E0,0E0,0E0,0E0,0E0,0E0],"parents":[2147483647,0,0,1,1,2,2,4,4,5,5,6,6,8,8,10,10,11,11],"right_children":[2,4,6,-1,8,10,12,-1,14,-1,16,18,-1,-1,-1,-1,-1,-1,-1],"split_conditions":[1.3688763E-4,-9.81585E-5,1.7218667E-4,5.0458636E-2,-2.0367E-4,4.2857143E-1,-9.4608074E-1,3.285799E-2,2.026E-4,7.217122E-2,6.6E-7,-1.5534E-4,7.840687E-2,-2.6230017E-2,3.1536575E-2,1.3926054E-2,-2.3089735E-2,7.344188E-2,4.9229804E-4],"split_indices":[1,8,1,0,3,5,0,0,3,0,3,2,0,0,0,0,0,0,0],"split_type":[0,0,0,0,0,0,0,0,0,0,0,0,0,0,0,0,0,0,0],"sum_hessian":[4.3574347E2,3.2999823E2,1.0574522E2,5.033369E0,3.2496487E2,1.4393814E1,9.13514E1,5.9473853E0,3.190175E2,7.373459E0,7.020355E0,1.1719286E1,7.963212E1,3.1535287E2,3.664609E0,3.1124985E0,3.907857E0,7.565056E0,4.15423E0],"tree_param":{"num_deleted":"0","num_feature":"9","num_nodes":"19","size_leaf_vector":"1"}},{"base_weights":[-3.3617264E-3,5.312946E-1,-1.0300447E0,5.553047E-1,-6.1325967E-2,-2.059524E-2,-5.1908303E-2,-4.6897497E-2,5.6722724E-1,2.8622607E-2,-6.039674E-3],"categories":[],"categories_nodes":[],"categories_segments":[],"categories_sizes":[],"default_left":[0,0,0,0,0,0,0,0,0,0,0],"id":32,"left_children":[1,3,5,7,-1,-1,-1,-1,9,-1,-1],"loss_changes":[4.6040213E2,2.3958572E1,1.0141907E0,1.0231049E1,0E0,0E0,0E0,0E0,2.0142975E0,0E0,0E0],"parents":[2147483647,0,0,1,1,2,2,3,3,8,8],"right_children":[2,4,6,8,-1,-1,-1,-1,10,-1,-1],"split_conditions":[1E-4,1E0,7.5455E-5,-1.58527E-4,-6.1325967E-2,-2.059524E-2,-5.1908303E-2,-4.6897497E-2,1.4152E-4,2.8622607E-2,-6.039674E-3],"split_indices":[1,7,8,8,0,0,0,0,2,0,0],"split_type":[0,0,0,0,0,0,0,0,0,0,0],"sum_hessian":[8.367409E2,5.505293E2,2.862116E2,5.4378577E2,6.7435155E0,4.382251E0,2.8182935E2,3.6921177E0,5.400937E2,5.3618976E2,3.9038866E0],"tree_param":{"num_deleted":"0","num_feature":"9","num_nodes":"11","size_leaf_vector":"1"}},{"base_weights":[3.2619364E-3,-4.676049E-1,4.734183E-1,-2.5977248E-2,-2.3173021E-1,9.411368E-1,-2.6107943E-2,6.5411E-2,-2.4391605E-2,1.3596882E0,-2.5711043E-2,-2.3297383E-2,3.936083E-2,-2.4149926E-2,7.582459E-2],"categories":[],"categories_nodes":[],"categories_segments":[],"categories_sizes":[],"default_left":[0,0,0,0,0,0,0,0,0,0,0,0,0,0,0],"id":33,"left_children":[1,3,5,-1,7,9,-1,11,-1,13,-1,-1,-1,-1,-1],"loss_changes":[6.3650578E1,1.6395454E0,6.748123E1,0E0,2.1420603E0,6.053911E1,0E0,5.628137E0,0E0,2.2856293E1,0E0,0E0,0E0,0E0,0E0],"parents":[2147483647,0,0,1,1,2,2,4,4,5,5,7,7,9,9],"right_children":[2,4,6,-1,8,10,-1,12,-1,14,-1,-1,-1,-1,-1],"split_conditions":[8.22515E-5,6.38595E-5,1.4285715E-1,-2.5977248E-2,2.9E-7,2.9E-7,-2.6107943E-2,0E0,-2.4391605E-2,-2.2E-7,-2.5711043E-2,-2.3297383E-2,3.936083E-2,-2.4149926E-2,7.582459E-2],"split_indices":[8,8,5,0,2,2,0,2,0,2,0,0,0,0,0],"split_type":[0,0,0,0,0,0,0,0,0,0,0,0,0,0,0],"sum_hessian":[2.8551596E2,1.4265291E2,1.4286307E2,1.15923676E2,2.672923E1,9.723643E1,4.5626637E1,1.2717912E1,1.4011318E1,7.556901E1,2.1667418E1,7.5295143E0,5.188398E0,5.7631173E0,6.980589E1],"tree_param":{"num_deleted":"0","num_feature":"9","num_nodes":"15","size_leaf_vector":"1"}},{"base_weights":[3.2287315E-3,-4.7832483E-1,8.961616E-1,-2.6261672E-2,-2.1061768E-1,1.359069E0,-3.497352E-1,1.4957906E-2,-4.480678E-1,-1.3769972E-2,1.4411863E0,1.9153615E-2,-2.6215747E-2,3.0552149E-2,-1.3668827E-2,-2.4944264E-2,-9.926258E-3,7.562083E-2,1.6193856E-2],"categories":[],"categories_nodes":[],"categories_segments":[],"categories_sizes":[],"default_left":[0,0,0,0,0,0,0,0,0,0,0,0,0,0,0,0,0,0,0],"id":34,"left_children":[1,3,5,-1,7,9,11,13,15,-1,17,-1,-1,-1,-1,-1,-1,-1,-1],"loss_changes":[1.4677588E2,2.67416E0,6.94464E1,0E0,1.8671077E0,1.2127197E1,4.44714E0,3.3947308E0,1.1594772E-1,0E0,6.1458435E0,0E0,0E0,0E0,0E0,0E0,0E0,0E0,0E0],"parents":[2147483647,0,0,1,1,2,2,4,4,5,5,6,6,7,7,8,8,10,10],"right_children":[2,4,6,-1,8,10,12,14,16,-1,18,-1,-1,-1,-1,-1,-1,-1,-1],"split_conditions":[4.761905E-2,1E-4,7.864273E-5,-2.6261672E-2,4.2102984E-1,-2.0367E-4,1.03908E-4,-2.9465508E-1,1.6104897E0,-1.3769972E-2,1.7218667E-4,1.9153615E-2,-2.6215747E-2,3.0552149E-2,-1.3668827E-2,-2.4944264E-2,-9.926258E-3,7.562083E-2,1.6193856E-2],"split_indices":[5,8,4,0,6,3,8,0,6,0,1,0,0,0,0,0,0,0,0],"split_type":[0,0,0,0,0,0,0,0,0,0,0,0,0,0,0,0,0,0,0],"sum_hessian":[3.3934634E2,2.2075745E2,1.185889E2,1.8702437E2,3.373307E1,8.639747E1,3.2191425E1,1.7779606E1,1.5953466E1,4.0204487E0,8.237702E1,5.963804E0,2.6227623E1,5.4315443E0,1.2348061E1,1.2424178E1,3.529288E0,7.710766E1,5.269361E0],"tree_param":{"num_deleted":"0","num_feature":"9","num_nodes":"19","size_leaf_vector":"1"}},{"base_weights":[5.4119108E-5,-4.9077877E-1,1.1589139E0,-5.24191E-1,7.2757915E-2,8.8131696E-2,1.3396218E0,-5.310753E-1,4.687029E-3,-2.8878915E-1,3.9247658E-2,5.592155E-2,-2.4994835E-1,8.235425E-1,1.4335011E0,-1.03191845E-2,-2.6722481E-2,-2.4350358E-2,4.152511E-4,-2.4030233E-2,3.3635895E-3,6.631121E-3,5.968665E-2,5.103453E-2,7.3808715E-2],"categories":[],"categories_nodes":[],"categories_segments":[],"categories_sizes":[],"default_left":[0,0,0,0,0,0,0,0,0,0,0,0,0,0,0,0,0,0,0,0,0,0,0,0,0],"id":35,"left_children":[1,3,5,7,9,11,13,15,-1,17,-1,-1,19,21,23,-1,-1,-1,-1,-1,-1,-1,-1,-1,-1],"loss_changes":[2.4542651E2,5.7452164E0,2.4722763E1,1.2675247E0,4.8211446E0,7.10925E0,4.1376953E0,2.0002747E-1,0E0,7.4405336E-1,0E0,0E0,1.172329E0,4.763999E0,1.0557556E-1,0E0,0E0,0E0,0E0,0E0,0E0,0E0,0E0,0E0,0E0],"parents":[2147483647,0,0,1,1,2,2,3,3,4,4,5,5,6,6,7,7,9,9,12,12,13,13,14,14],"right_children":[2,4,6,8,10,12,14,16,-1,18,-1,-1,20,22,24,-1,-1,-1,-1,-1,-1,-1,-1,-1,-1],"split_conditions":[5.9218266E-5,1.17285E-4,5.2094E-5,1.2576E-4,6.132E-5,-9.81585E-5,7.864273E-5,-6.1645E-5,4.687029E-3,5.018556E-5,3.9247658E-2,5.592155E-2,8.486219E-5,7.619048E-1,-1.0200336E0,-1.03191845E-2,-2.6722481E-2,-2.4350358E-2,4.152511E-4,-2.4030233E-2,3.3635895E-3,6.631121E-3,5.968665E-2,5.103453E-2,7.3808715E-2],"split_indices":[4,8,8,2,2,8,4,8,0,4,0,0,4,5,0,0,0,0,0,0,0,0,0,0,0],"split_type":[0,0,0,0,0,0,0,0,0,0,0,0,0,0,0,0,0,0,0,0,0,0,0,0,0],"sum_hessian":[4.2947635E2,3.0209927E2,1.2737709E2,2.8525616E2,1.6843105E1,1.8607342E1,1.0876975E2,2.822522E2,3.0039663E0,1.1566075E1,5.277029E0,4.0269685E0,1.4580374E1,1.8244928E1,9.052482E1,3.542508E0,2.787097E2,6.55405E0,5.0120254E0,8.143814E0,6.4365597E0,6.838979E0,1.1405951E1,1.0815618E1,7.9709206E1],"tree_param":{"num_deleted":"0","num_feature":"9","num_nodes":"25","size_leaf_vector":"1"}},{"base_weights":[-1.8052853E-3,4.9989855E-1,-8.135933E-1,-7.378919E-1,5.4777306E-1,-6.148536E-1,-5.0502982E-2,-1.803275E-2,-4.1725945E-2,-4.4454034E-2,5.645676E-1,-8.369419E-1,3.898876E-1,2.861744E-2,-2.1022433E-2,-4.429395E-2,-4.999084E-3,-2.207181E-2,2.6882216E-2],"categories":[],"categories_nodes":[],"categories_segments":[],"categories_sizes":[],"default_left":[0,0,0,0,0,0,0,0,0,0,0,0,0,0,0,0,0,0,0],"id":36,"left_children":[1,3,5,7,9,11,-1,-1,-1,-1,13,15,17,-1,-1,-1,-1,-1,-1],"loss_changes":[3.350278E2,3.053144E1,1.1647202E1,4.0463352E-1,1.2327408E1,3.575072E1,0E0,0E0,0E0,0E0,3.957901E0,4.6118317E0,3.8511887E0,0E0,0E0,0E0,0E0,0E0,0E0],"parents":[2147483647,0,0,1,1,2,2,3,3,4,4,5,5,10,10,11,11,12,12],"right_children":[2,4,6,8,10,12,-1,-1,-1,-1,14,16,18,-1,-1,-1,-1,-1,-1],"split_conditions":[1E-4,2.794826E-6,1E0,7.67015E-5,-1.58527E-4,9.399229E-1,-5.0502982E-2,-1.803275E-2,-4.1725945E-2,-4.4454034E-2,2.642E-4,2.551E-5,2.794826E-6,2.861744E-2,-2.1022433E-2,-4.429395E-2,-4.999084E-3,-2.207181E-2,2.6882216E-2],"split_indices":[8,4,7,8,8,0,0,0,0,0,3,2,4,0,0,0,0,0,0],"split_type":[0,0,0,0,0,0,0,0,0,0,0,0,0,0,0,0,0,0,0],"sum_hessian":[8.206053E2,5.074028E2,3.1320248E2,1.8357533E1,4.8904526E2,1.5775328E2,1.554492E2,4.708346E0,1.3649186E1,5.050077E0,4.8399518E2,1.2933258E2,2.8420706E1,4.806175E2,3.3776813E0,1.2108967E2,8.242903E0,3.989121E0,2.4431585E1],"tree_param":{"num_deleted":"0","num_feature":"9","num_nodes":"19","size_leaf_vector":"1"}},{"base_weights":[3.6754743E-3,1.3601676E0,-4.5358562E-1,1.385562E0,3.571421E-2,1.257602E-2,-4.7515783E-1,3.577453E-2,7.0657186E-2,-2.5964482E-2,-3.0689895E-1,6.1838705E-2,-2.5986305E-2],"categories":[],"categories_nodes":[],"categories_segments":[],"categories_sizes":[],"default_left":[0,0,0,0,0,0,0,0,0,0,0,0,0],"id":37,"left_children":[1,3,5,7,-1,-1,9,-1,-1,-1,11,-1,-1],"loss_changes":[1.7652927E2,1.8713379E-1,3.3572044E0,2.4513245E-1,0E0,0E0,1.3768616E0,0E0,0E0,0E0,1.5568968E1,0E0,0E0],"parents":[2147483647,0,0,1,1,2,2,3,3,6,6,10,10],"right_children":[2,4,6,8,-1,-1,10,-1,-1,-1,12,-1,-1],"split_conditions":[2.794826E-6,1.8749392E0,1.1166954E-5,-7.011952E-1,3.571421E-2,1.257602E-2,1.1302E-4,3.577453E-2,7.0657186E-2,-2.5964482E-2,1.4285715E-1,6.1838705E-2,-2.5986305E-2],"split_indices":[4,6,4,6,0,0,1,0,0,0,5,0,0],"split_type":[0,0,0,0,0,0,0,0,0,0,0,0,0],"sum_hessian":[2.8260553E2,7.0749214E1,2.1185632E2,6.697088E1,3.7783306E0,5.9727426E0,2.0588359E2,3.7127895E0,6.325809E1,1.6145111E2,4.4432472E1,4.800734E0,3.9631737E1],"tree_param":{"num_deleted":"0","num_feature":"9","num_nodes":"13","size_leaf_vector":"1"}},{"base_weights":[-2.5637753E-2,-3.8992518E-1,7.11271E-1,-4.6939498E-1,1.00347996E-1,1.170311E0,-4.3632093E-1,-2.6158584E-2,-3.1549513E-1,1.2511421E0,-7.1198726E-4,-1.392747E-3,-2.6137576E-2,-2.3640757E-2,7.5038396E-2,1.029699E-3,6.5358184E-2],"categories":[],"categories_nodes":[],"categories_segments":[],"categories_sizes":[],"default_left":[0,0,0,0,0,0,0,0,0,0,0,0,0,0,0,0,0],"id":38,"left_children":[1,3,5,7,-1,9,11,-1,13,15,-1,-1,-1,-1,-1,-1,-1],"loss_changes":[8.953055E1,4.3445415E1,5.863783E1,1.6291313E0,0E0,7.590309E0,1.124165E0,0E0,1.7469395E1,5.077629E0,0E0,0E0,0E0,0E0,0E0,0E0,0E0],"parents":[2147483647,0,0,1,1,2,2,3,3,5,5,6,6,8,8,9,9],"right_children":[2,4,6,8,-1,10,12,-1,14,16,-1,-1,-1,-1,-1,-1,-1],"split_conditions":[1.00708094E-4,1E0,7.864273E-5,7.687286E-5,1.00347996E-1,3.0115273E0,1E0,-2.6158584E-2,3.491988E-5,-2.0367E-4,-7.1198726E-4,-1.392747E-3,-2.6137576E-2,-2.3640757E-2,7.5038396E-2,1.029699E-3,6.5358184E-2],"split_indices":[1,7,4,1,0,6,7,0,4,3,0,0,0,0,0,0,0],"split_type":[0,0,0,0,0,0,0,0,0,0,0,0,0,0,0,0,0],"sum_hessian":[3.314803E2,2.2213818E2,1.0934212E2,2.1578781E2,6.350377E0,7.808721E1,3.1254906E1,1.5813264E2,5.7655155E1,7.304646E1,5.040748E0,5.6894016E0,2.5565502E1,5.374001E1,3.9151444E0,3.2402315E0,6.980624E1],"tree_param":{"num_deleted":"0","num_feature":"9","num_nodes":"17","size_leaf_vector":"1"}},{"base_weights":[-1.6017617E-3,-4.4937092E-1,1.2316898E0,7.656041E-2,-4.779399E-1,6.667046E-1,6.684541E-2,-4.9732816E-1,4.3199353E-2,-1.2961171E-2,9.154446E-1,2.8484145E-2,-2.6000211E-2,6.262239E-2,2.9877095E-2],"categories":[],"categories_nodes":[],"categories_segments":[],"categories_sizes":[],"default_left":[0,0,0,0,0,0,0,0,0,0,0,0,0,0,0],"id":39,"left_children":[1,3,5,-1,7,9,-1,11,-1,-1,13,-1,-1,-1,-1],"loss_changes":[2.2512015E2,1.765414E1,5.5636597E0,0E0,8.119965E0,4.6229534E0,0E0,7.3614655E0,0E0,0E0,8.833084E-1,0E0,0E0,0E0,0E0],"parents":[2147483647,0,0,1,1,2,2,4,4,5,5,7,7,10,10],"right_children":[2,4,6,-1,8,10,-1,12,-1,-1,14,-1,-1,-1,-1],"split_conditions":[1.3688763E-4,-1.58527E-4,7.864273E-5,7.656041E-2,2.026E-4,1.13215E-4,6.684541E-2,-2.0367E-4,4.3199353E-2,-1.2961171E-2,-7.53E-6,2.8484145E-2,-2.6000211E-2,6.262239E-2,2.9877095E-2],"split_indices":[1,8,4,0,3,8,0,3,0,0,3,0,0,0,0],"split_type":[0,0,0,0,0,0,0,0,0,0,0,0,0,0,0],"sum_hessian":[4.0565427E2,2.9807007E2,1.0758418E2,3.4904943E0,2.945796E2,1.8041924E1,8.954226E1,2.9100452E2,3.5750592E0,3.811516E0,1.4230408E1,5.553733E0,2.8545078E2,5.4806976E0,8.749709E0],"tree_param":{"num_deleted":"0","num_feature":"9","num_nodes":"15","size_leaf_vector":"1"}},{"base_weights":[-4.751498E-3,5.076351E-1,-9.361272E-1,5.339833E-1,-5.7164233E-2,-2.5585387E-2,-4.712668E-2,-5.4363456E-2,5.5018157E-1,2.7888054E-2,-2.5774622E-2],"categories":[],"categories_nodes":[],"categories_segments":[],"categories_sizes":[],"default_left":[0,0,0,0,0,0,0,0,0,0,0],"id":40,"left_children":[1,3,5,7,-1,-1,-1,-1,9,-1,-1],"loss_changes":[3.796864E2,2.29366E1,2.8547668E-1,1.3883331E1,0E0,0E0,0E0,0E0,4.3385773E0,0E0,0E0],"parents":[2147483647,0,0,1,1,2,2,3,3,8,8],"right_children":[2,4,6,8,-1,-1,-1,-1,10,-1,-1],"split_conditions":[1E-4,1E0,7.5455E-5,-1.58527E-4,-5.7164233E-2,-2.5585387E-2,-4.712668E-2,-5.4363456E-2,1.5431E-4,2.7888054E-2,-2.5774622E-2],"split_indices":[1,7,8,8,0,0,0,0,2,0,0],"split_type":[0,0,0,0,0,0,0,0,0,0,0],"sum_hessian":[7.9361816E2,5.1225916E2,2.8135907E2,5.04878E2,7.3811345E0,5.3864574E0,2.759726E2,4.340344E0,5.0053766E2,4.97476E2,3.0616405E0],"tree_param":{"num_deleted":"0","num_feature":"9","num_nodes":"11","size_leaf_vector":"1"}},{"base_weights":[4.5539835E-3,1.1879214E0,-4.8209712E-1,-2.5159106E-2,1.2989442E0,-2.5915483E-2,-3.3941558E-1,1.3863527E0,-2.5098402E-2,4.6043333E-2,-2.591798E-2,1.49777355E-2,7.1497045E-2],"categories":[],"categories_nodes":[],"categories_segments":[],"categories_sizes":[],"default_left":[0,0,0,0,0,0,0,0,0,0,0,0,0],"id":41,"left_children":[1,3,5,-1,7,-1,9,11,-1,-1,-1,-1,-1],"loss_changes":[1.6018517E2,1.5871628E1,8.424988E-1,0E0,1.2712936E1,0E0,1.0128738E1,3.0331726E0,0E0,0E0,0E0,0E0,0E0],"parents":[2147483647,0,0,1,1,2,2,4,4,6,6,7,7],"right_children":[2,4,6,-1,8,-1,10,12,-1,-1,-1,-1,-1],"split_conditions":[1.1166954E-5,-2.07E-6,1.1302E-4,-2.5159106E-2,2.9E-7,-2.5915483E-2,1.1643381E-4,1E-4,-2.5098402E-2,4.6043333E-2,-2.591798E-2,1.49777355E-2,7.1497045E-2],"split_indices":[4,2,1,0,2,0,1,1,0,0,0,0,0],"split_type":[0,0,0,0,0,0,0,0,0,0,0,0,0],"sum_hessian":[2.7615933E2,8.0054184E1,1.9610515E2,4.7142515E0,7.533993E1,1.5430894E2,4.17962E1,7.207206E1,3.2678733E0,4.681167E0,3.7115032E1,3.0826857E0,6.898937E1],"tree_param":{"num_deleted":"0","num_feature":"9","num_nodes":"13","size_leaf_vector":"1"}},{"base_weights":[5.803854E-3,-3.978062E-1,7.489873E-1,-4.617145E-1,7.9337746E-2,1.1259485E0,-3.3360803E-1,-5.0603396E-1,-2.3377563E-1,-1.19377365E-2,1.1864558E0,2.222361E-2,-2.6051728E-2,-2.6088757E-2,-1.814749E-2,-2.6009237E-2,4.078346E-2,6.2075596E-2,9.473321E-3],"categories":[],"categories_nodes":[],"categories_segments":[],"categories_sizes":[],"default_left":[0,0,0,0,0,0,0,0,0,0,0,0,0,0,0,0,0,0,0],"id":42,"left_children":[1,3,5,7,-1,9,11,13,15,-1,17,-1,-1,-1,-1,-1,-1,-1,-1],"loss_changes":[9.907098E1,2.7880772E1,4.781269E1,1.984436E0,0E0,7.4215927E0,4.72219E0,2.0119095E-1,1.1167274E1,0E0,4.317627E0,0E0,0E0,0E0,0E0,0E0,0E0,0E0,0E0],"parents":[2147483647,0,0,1,1,2,2,3,3,5,5,6,6,7,7,8,8,10,10],"right_children":[2,4,6,8,-1,10,12,14,16,-1,18,-1,-1,-1,-1,-1,-1,-1,-1],"split_conditions":[1.00708094E-4,1E0,7.864273E-5,1E-4,7.9337746E-2,-2.0367E-4,1E0,8.3494764E-5,3.59341E-5,-1.19377365E-2,2.465455E-4,2.222361E-2,-2.6051728E-2,-2.6088757E-2,-1.814749E-2,-2.6009237E-2,4.078346E-2,6.2075596E-2,9.473321E-3],"split_indices":[1,7,4,8,0,3,7,1,4,0,8,0,0,0,0,0,0,0,0],"split_type":[0,0,0,0,0,0,0,0,0,0,0,0,0,0,0,0,0,0,0],"sum_hessian":[3.2829135E2,2.1305151E2,1.1523985E2,2.0714812E2,5.9033914E0,8.544703E1,2.979282E1,1.7240619E2,3.474194E1,3.5025835E0,8.194445E1,5.517226E0,2.4275595E1,1.5293465E2,1.947153E1,2.768941E1,7.052528E0,7.742367E1,4.520781E0],"tree_param":{"num_deleted":"0","num_feature":"9","num_nodes":"19","size_leaf_vector":"1"}},{"base_weights":[1.4349781E-3,-4.473882E-1,1.1380354E0,-5.16863E-1,1.5606637E-2,6.126396E-1,6.18726E-2,-2.6543617E-2,-1.8794137E-1,4.1482072E-2,-1.0701705E-1,6.4801555E-3,5.1607456E-2,1.4313891E-2,-2.4618132E-2,-2.2843665E-2,1.2985276E-2,-1.572713E-2,2.3797024E-2],"categories":[],"categories_nodes":[],"categories_segments":[],"categories_sizes":[],"default_left":[0,0,0,0,0,0,0,0,0,0,0,0,0,0,0,0,0,0,0],"id":43,"left_children":[1,3,5,7,9,11,-1,-1,13,-1,15,17,-1,-1,-1,-1,-1,-1,-1],"loss_changes":[2.1080057E2,9.5372925E0,5.352188E0,1.0873566E0,4.044053E0,5.230138E0,0E0,0E0,1.8837582E0,0E0,4.6505156E0,1.5707934E0,0E0,0E0,0E0,0E0,0E0,0E0,0E0],"parents":[2147483647,0,0,1,1,2,2,3,3,4,4,5,5,8,8,10,10,11,11],"right_children":[2,4,6,8,10,12,-1,-1,14,-1,16,18,-1,-1,-1,-1,-1,-1,-1],"split_conditions":[1.3688763E-4,4.9140366E-5,7.864273E-5,1.17285E-4,-9.81585E-5,1.7218667E-4,6.18726E-2,-2.6543617E-2,1.904762E-1,4.1482072E-2,7.8568304E-1,1.257915E-4,5.1607456E-2,1.4313891E-2,-2.4618132E-2,-2.2843665E-2,1.2985276E-2,-1.572713E-2,2.3797024E-2],"split_indices":[1,4,4,8,8,1,0,0,5,0,6,8,0,0,0,0,0,0,0],"split_type":[0,0,0,0,0,0,0,0,0,0,0,0,0,0,0,0,0,0,0],"sum_hessian":[4.112289E2,2.952474E2,1.1598153E2,2.5662338E2,3.862402E1,1.9593945E1,9.638758E1,2.4555093E2,1.1072433E1,4.3016768E0,3.4322342E1,8.42946E0,1.1164486E1,4.352237E0,6.7201962E0,1.7439291E1,1.688305E1,5.2021537E0,3.2273061E0],"tree_param":{"num_deleted":"0","num_feature":"9","num_nodes":"19","size_leaf_vector":"1"}},{"base_weights":[-1.8330675E-2,5.097953E-1,-8.846468E-1,5.402544E-1,-5.1559236E-2,-9.099962E-3,-8.9667064E-1,5.575593E-1,-5.9756517E-2,-1.30772935E-2,-4.533766E-2,-4.0614363E-2,2.8547043E-2],"categories":[],"categories_nodes":[],"categories_segments":[],"categories_sizes":[],"default_left":[0,0,0,0,0,0,0,0,0,0,0,0,0],"id":44,"left_children":[1,3,5,7,-1,-1,9,11,-1,-1,-1,-1,-1],"loss_changes":[3.5611258E2,2.3254906E1,2.3272858E0,1.4926804E1,0E0,0E0,1.617157E0,9.094925E0,0E0,0E0,0E0,0E0,0E0],"parents":[2147483647,0,0,1,1,2,2,3,3,6,6,7,7],"right_children":[2,4,6,8,-1,-1,10,12,-1,-1,-1,-1,-1],"split_conditions":[9.929238E-5,4.761905E-2,1E-4,1E0,-5.1559236E-2,-9.099962E-3,7.5455E-5,-1.58527E-4,-5.9756517E-2,-1.30772935E-2,-4.533766E-2,-4.0614363E-2,2.8547043E-2],"split_indices":[1,5,1,7,0,0,8,8,0,0,0,0,0],"split_type":[0,0,0,0,0,0,0,0,0,0,0,0,0],"sum_hessian":[7.7636163E2,4.825809E2,2.9378073E2,4.7386386E2,8.717024E0,5.2141495E0,2.885666E2,4.6985727E2,4.0066004E0,4.9303737E0,2.836362E2,3.967915E0,4.6588934E2],"tree_param":{"num_deleted":"0","num_feature":"9","num_nodes":"13","size_leaf_vector":"1"}},{"base_weights":[1.0923508E-3,1.2197882E0,-4.4691575E-1,6.222066E-2,2.803496E-2,-2.5840415E-2,-2.3633756E-1,9.9274415E-1,-2.5942737E-2,2.302352E-2,6.0388703E-2],"categories":[],"categories_nodes":[],"categories_segments":[],"categories_sizes":[],"default_left":[0,0,0,0,0,0,0,0,0,0,0],"id":45,"left_children":[1,3,5,-1,-1,-1,7,9,-1,-1,-1],"loss_changes":[1.4735097E2,4.7963715E-1,2.7822647E0,0E0,0E0,0E0,1.8230732E1,5.745163E-1,0E0,0E0,0E0],"parents":[2147483647,0,0,1,1,2,2,6,6,7,7],"right_children":[2,4,6,-1,-1,-1,8,10,-1,-1,-1],"split_conditions":[2.794826E-6,1.041066E0,1.00708094E-4,6.222066E-2,2.803496E-2,-2.5840415E-2,1.4285715E-1,1.1302E-4,-2.5942737E-2,2.302352E-2,6.0388703E-2],"split_indices":[4,0,1,0,0,0,5,1,0,0,0],"split_type":[0,0,0,0,0,0,0,0,0,0,0],"sum_hessian":[2.678822E2,7.154337E1,1.9633884E2,6.811054E1,3.432832E0,1.4631992E2,5.001892E1,8.878663E0,4.114026E1,3.4586725E0,5.419991E0],"tree_param":{"num_deleted":"0","num_feature":"9","num_nodes":"11","size_leaf_vector":"1"}},{"base_weights":[-2.1828625E-2,-3.9433938E-1,6.69408E-1,-4.6372032E-1,8.091571E-2,1.0286049E0,-3.6050916E-1,-2.6031394E-2,-3.069074E-1,1.096859E0,4.82024E-3,1.8576382E-1,-2.5897503E-2,-2.3408528E-2,7.316032E-2,5.7090785E-2,1.1703059E-2,-2.1733366E-2,4.0570267E-2],"categories":[],"categories_nodes":[],"categories_segments":[],"categories_sizes":[],"default_left":[0,0,0,0,0,0,0,0,0,0,0,0,0,0,0,0,0,0,0],"id":46,"left_children":[1,3,5,7,-1,9,11,-1,13,15,-1,17,-1,-1,-1,-1,-1,-1,-1],"loss_changes":[8.298022E1,2.9987255E1,4.2123978E1,1.6533012E0,0E0,5.2349777E0,2.6699169E0,0E0,1.682322E1,2.7627563E0,0E0,3.237182E0,0E0,0E0,0E0,0E0,0E0,0E0,0E0],"parents":[2147483647,0,0,1,1,2,2,3,3,5,5,6,6,8,8,9,9,11,11],"right_children":[2,4,6,8,-1,10,12,-1,14,16,-1,18,-1,-1,-1,-1,-1,-1,-1],"split_conditions":[1.00708094E-4,1E0,7.864273E-5,7.687286E-5,8.091571E-2,1.7218667E-4,1E0,-2.6031394E-2,3.491988E-5,2.716168E0,4.82024E-3,-2.059E-4,-2.5897503E-2,-2.3408528E-2,7.316032E-2,5.7090785E-2,1.1703059E-2,-2.1733366E-2,4.0570267E-2],"split_indices":[1,7,4,1,0,1,7,0,4,6,0,2,0,0,0,0,0,0,0],"split_type":[0,0,0,0,0,0,0,0,0,0,0,0,0,0,0,0,0,0,0],"sum_hessian":[3.202368E2,2.0837305E2,1.1186372E2,2.0217326E2,6.199794E0,8.2938965E1,2.8924759E1,1.4663812E2,5.5535137E1,7.7116035E1,5.8229337E0,6.4310474E0,2.2493711E1,5.157225E1,3.962887E0,7.298947E1,4.1265593E0,3.38223E0,3.0488176E0],"tree_param":{"num_deleted":"0","num_feature":"9","num_nodes":"19","size_leaf_vector":"1"}},{"base_weights":[-1.2623409E-2,-4.4631875E-1,1.0655096E0,6.528519E-2,-4.75644E-1,5.8693105E-1,5.8128487E-2,-4.9939474E-1,4.7703613E-2,-1.2988261E-2,8.034827E-1,-2.5962422E-2,5.6451284E-3,1.3127043E-2,4.9255744E-2],"categories":[],"categories_nodes":[],"categories_segments":[],"categories_sizes":[],"default_left":[0,0,0,0,0,0,0,0,0,0,0,0,0,0,0],"id":47,"left_children":[1,3,5,-1,7,9,-1,11,-1,-1,13,-1,-1,-1,-1],"loss_changes":[1.8719249E2,1.5288399E1,4.6524963E0,0E0,1.0035625E1,4.129668E0,0E0,3.4328156E0,0E0,0E0,1.4385366E0,0E0,0E0,0E0,0E0],"parents":[2147483647,0,0,1,1,2,2,4,4,5,5,7,7,10,10],"right_children":[2,4,6,-1,8,10,-1,12,-1,-1,14,-1,-1,-1,-1],"split_conditions":[1.3688763E-4,-1.58527E-4,7.864273E-5,6.528519E-2,1.5431E-4,1.13215E-4,5.8128487E-2,1.48125E-4,4.7703613E-2,-1.2988261E-2,-6.998318E-1,-2.5962422E-2,5.6451284E-3,1.3127043E-2,4.9255744E-2],"split_indices":[1,8,4,0,2,8,0,8,0,0,0,0,0,0,0],"split_type":[0,0,0,0,0,0,0,0,0,0,0,0,0,0,0],"sum_hessian":[3.983251E2,2.8447626E2,1.1384886E2,3.9666376E0,2.805096E2,2.0384655E1,9.346421E1,2.7656595E2,3.9436681E0,4.111099E0,1.6273556E1,2.6802716E2,8.538784E0,4.705365E0,1.1568191E1],"tree_param":{"num_deleted":"0","num_feature":"9","num_nodes":"15","size_leaf_vector":"1"}},{"base_weights":[3.050568E-3,5.0519043E-1,-8.585443E-1,5.354823E-1,-4.7862835E-2,-1.2957758E-2,-4.3407705E-2,5.4859847E-1,-5.449126E-2,-3.7640795E-2,2.8258203E-2],"categories":[],"categories_nodes":[],"categories_segments":[],"categories_sizes":[],"default_left":[0,0,0,0,0,0,0,0,0,0,0],"id":48,"left_children":[1,3,5,7,-1,-1,-1,9,-1,-1,-1],"loss_changes":[3.3535623E2,2.2207352E1,1.4190216E0,1.0839447E1,0E0,0E0,0E0,1.0714188E1,0E0,0E0,0E0],"parents":[2147483647,0,0,1,1,2,2,3,3,7,7],"right_children":[2,4,6,8,-1,-1,-1,10,-1,-1,-1],"split_conditions":[1E-4,4.761905E-2,7.5455E-5,1E0,-4.7862835E-2,-1.2957758E-2,-4.3407705E-2,-1.58527E-4,-5.449126E-2,-3.7640795E-2,2.8258203E-2],"split_indices":[1,5,8,7,0,0,0,8,0,0,0],"split_type":[0,0,0,0,0,0,0,0,0,0,0],"sum_hessian":[7.731347E2,4.8872064E2,2.844141E2,4.794241E2,9.296532E0,4.929278E0,2.794848E2,4.7624332E2,3.180797E0,5.427241E0,4.7081607E2],"tree_param":{"num_deleted":"0","num_feature":"9","num_nodes":"11","size_leaf_vector":"1"}},{"base_weights":[-1.2377522E-2,1.0795046E0,-4.734318E-1,1.1593294E0,-2.712869E-2,-2.5812244E-2,-3.2135338E-1,-2.2996854E-2,1.2394139E0,4.662847E-2,-2.5841841E-2,1.6935796E-2,6.4358436E-2],"categories":[],"categories_nodes":[],"categories_segments":[],"categories_sizes":[],"default_left":[0,0,0,0,0,0,0,0,0,0,0,0,0],"id":49,"left_children":[1,3,5,7,-1,-1,9,-1,11,-1,-1,-1,-1],"loss_changes":[1.3361143E2,1.0832375E1,1.048996E0,1.0350899E1,0E0,0E0,1.117881E1,0E0,2.6669388E0,0E0,0E0,0E0,0E0],"parents":[2147483647,0,0,1,1,2,2,3,3,6,6,8,8],"right_children":[2,4,6,8,-1,-1,10,-1,12,-1,-1,-1,-1],"split_conditions":[1.1166954E-5,1E0,1.1302E-4,-2.07E-6,-2.712869E-2,-2.5812244E-2,1.1643381E-4,-2.2996854E-2,1E-4,4.662847E-2,-2.5841841E-2,1.6935796E-2,6.4358436E-2],"split_indices":[4,7,1,2,0,0,1,0,1,0,0,0,0],"split_type":[0,0,0,0,0,0,0,0,0,0,0,0,0],"sum_hessian":[2.6339392E2,7.780128E1,1.8559264E2,7.442405E1,3.3772297E0,1.429537E2,4.2638927E1,3.2838159E0,7.114023E1,5.2422285E0,3.73967E1,3.989401E0,6.715083E1],"tree_param":{"num_deleted":"0","num_feature":"9","num_nodes":"13","size_leaf_vector":"1"}},{"base_weights":[-7.9065515E-3,-4.52144E-1,6.868483E-1,-2.613355E-2,9.829476E-2,1.0251482E0,-3.648529E-1,1.07249E0,-1.2431397E-2,1.787792E-1,-2.5890738E-2,3.0061934E-2,5.953182E-2,3.713583E-2,-2.117305E-2],"categories":[],"categories_nodes":[],"categories_segments":[],"categories_sizes":[],"default_left":[0,0,0,0,0,0,0,0,0,0,0,0,0,0,0],"id":50,"left_children":[1,3,5,-1,-1,7,9,11,-1,13,-1,-1,-1,-1,-1],"loss_changes":[9.755534E1,3.390582E1,4.4238094E1,0E0,0E0,5.90757E0,2.6490126E0,4.316162E0,0E0,2.859693E0,0E0,0E0,0E0,0E0,0E0],"parents":[2147483647,0,0,1,1,2,2,5,5,6,6,7,7,9,9],"right_children":[2,4,6,-1,-1,8,10,12,-1,14,-1,-1,-1,-1,-1],"split_conditions":[4.761905E-2,1E0,7.864273E-5,-2.613355E-2,9.829476E-2,2.574665E-4,1E0,1.4285715E-1,-1.2431397E-2,2.1592047E-4,-2.5890738E-2,3.0061934E-2,5.953182E-2,3.713583E-2,-2.117305E-2],"split_indices":[5,7,4,0,0,8,7,5,0,1,0,0,0,0,0],"split_type":[0,0,0,0,0,0,0,0,0,0,0,0,0,0,0],"sum_hessian":[3.1407913E2,1.9179286E2,1.22286255E2,1.8711902E2,4.673857E0,9.2543205E1,2.9743052E1,8.937931E1,3.163894E0,6.494077E0,2.3248974E1,1.9136879E1,7.024243E1,3.233228E0,3.260849E0],"tree_param":{"num_deleted":"0","num_feature":"9","num_nodes":"15","size_leaf_vector":"1"}},{"base_weights":[4.214606E-3,-4.5071942E-1,1.0152621E0,-4.750259E-1,4.544154E-2,5.327039E-1,5.5153526E-2,-5.021069E-1,1.8059912E-1,-8.3028406E-2,9.286013E-1,2.6237348E-2,-2.6014978E-2,-1.7281018E-2,4.394919E-2,-2.3159971E-2,2.0164596E-2,3.084341E-2,5.5794563E-2],"categories":[],"categories_nodes":[],"categories_segments":[],"categories_sizes":[],"default_left":[0,0,0,0,0,0,0,0,0,0,0,0,0,0,0,0,0,0,0],"id":51,"left_children":[1,3,5,7,-1,9,-1,11,13,15,17,-1,-1,-1,-1,-1,-1,-1,-1],"loss_changes":[1.7985854E2,9.343853E0,4.554146E0,4.8065796E0,0E0,5.102431E0,0E0,5.0430374E0,4.446095E0,1.8481157E0,4.901886E-2,0E0,0E0,0E0,0E0,0E0,0E0,0E0,0E0],"parents":[2147483647,0,0,1,1,2,2,3,3,5,5,7,7,8,8,9,9,10,10],"right_children":[2,4,6,8,-1,10,-1,12,14,16,18,-1,-1,-1,-1,-1,-1,-1,-1],"split_conditions":[1.3688763E-4,1.5431E-4,7.864273E-5,1.389375E-4,4.544154E-2,1.7218667E-4,5.5153526E-2,-9.81585E-5,6.132E-5,1.257915E-4,-3.371E-5,2.6237348E-2,-2.6014978E-2,-1.7281018E-2,4.394919E-2,-2.3159971E-2,2.0164596E-2,3.084341E-2,5.5794563E-2],"split_indices":[1,2,4,8,0,1,0,8,2,8,2,0,0,0,0,0,0,0,0],"split_type":[0,0,0,0,0,0,0,0,0,0,0,0,0,0,0,0,0,0,0],"sum_hessian":[3.8903598E2,2.6868973E2,1.20346245E2,2.6460956E2,4.080172E0,1.9615313E1,1.00730934E2,2.543381E2,1.0271454E1,7.985651E0,1.1629662E1,3.94291E0,2.503952E2,6.145815E0,4.125639E0,4.508649E0,3.477002E0,5.9762297E0,5.653432E0],"tree_param":{"num_deleted":"0","num_feature":"9","num_nodes":"19","size_leaf_vector":"1"}},{"base_weights":[-7.0152753E-3,5.0408703E-1,-8.2829434E-1,5.308774E-1,-4.6552896E-2,-2.6998273E-1,-4.2126767E-2,5.443859E-1,-5.0929006E-2,-3.251068E-2,9.651969E-3,-3.613021E-2,2.808151E-2],"categories":[],"categories_nodes":[],"categories_segments":[],"categories_sizes":[],"default_left":[0,0,0,0,0,0,0,0,0,0,0,0,0],"id":52,"left_children":[1,3,5,7,-1,9,-1,11,-1,-1,-1,-1,-1],"loss_changes":[3.1538376E2,1.8301102E1,2.0640717E0,1.0084045E1,0E0,1.6466761E0,0E0,1.0281387E1,0E0,0E0,0E0,0E0,0E0],"parents":[2147483647,0,0,1,1,2,2,3,3,5,5,7,7],"right_children":[2,4,6,8,-1,10,-1,12,-1,-1,-1,-1,-1],"split_conditions":[9.929238E-5,4.761905E-2,7.5455E-5,1E0,-4.6552896E-2,1.3954535E-1,-4.2126767E-2,-1.58527E-4,-5.0929006E-2,-3.251068E-2,9.651969E-3,-3.613021E-2,2.808151E-2],"split_indices":[1,5,8,7,0,6,0,8,0,0,0,0,0],"split_type":[0,0,0,0,0,0,0,0,0,0,0,0,0],"sum_hessian":[7.493526E2,4.6213858E2,2.8721405E2,4.5428827E2,7.8502917E0,7.640234E0,2.7957382E2,4.5100497E2,3.2832904E0,3.9731917E0,3.6670423E0,5.506696E0,4.454983E2],"tree_param":{"num_deleted":"0","num_feature":"9","num_nodes":"13","size_leaf_vector":"1"}},{"base_weights":[-2.679486E-3,9.989285E-1,-4.8190266E-1,-2.4760995E-2,1.0787932E0,-3.4825793E-1,-2.5917923E-2,1.158723E0,-2.6708845E-2,-2.519627E-2,3.0727416E-1,2.515246E-2,5.8992404E-2,5.423447E-2,-2.1379514E-2],"categories":[],"categories_nodes":[],"categories_segments":[],"categories_sizes":[],"default_left":[0,0,0,0,0,0,0,0,0,0,0,0,0,0,0],"id":53,"left_children":[1,3,5,-1,7,9,-1,11,-1,-1,13,-1,-1,-1,-1],"loss_changes":[1.2770269E2,1.0808479E1,6.9620514E-1,0E0,1.119664E1,4.401317E0,0E0,4.9362183E-1,0E0,0E0,5.3808193E0,0E0,0E0,0E0,0E0],"parents":[2147483647,0,0,1,1,2,2,4,4,5,5,7,7,10,10],"right_children":[2,4,6,-1,8,10,-1,12,-1,-1,14,-1,-1,-1,-1],"split_conditions":[1.1166954E-5,-2.07E-6,-4.2629123E-1,-2.4760995E-2,2.9E-7,1.1302E-4,-2.5917923E-2,1E-4,-2.6708845E-2,-2.519627E-2,1.4285715E-1,2.515246E-2,5.8992404E-2,5.423447E-2,-2.1379514E-2],"split_indices":[4,2,6,0,2,1,0,1,0,0,5,0,0,0,0],"split_type":[0,0,0,0,0,0,0,0,0,0,0,0,0,0,0],"sum_hessian":[2.6404782E2,8.5099594E1,1.7894823E2,4.054031E0,8.104556E1,4.0613716E1,1.3833452E2,7.748734E1,3.5582216E0,3.300692E1,7.6067944E0,3.1931212E0,7.429422E1,3.4650586E0,4.1417356E0],"tree_param":{"num_deleted":"0","num_feature":"9","num_nodes":"15","size_leaf_vector":"1"}},{"base_weights":[1.6725462E-2,-4.6411502E-1,7.149093E-1,-2.6066745E-2,8.9723825E-2,1.0206202E0,-3.2495522E-1,-1.254255E-2,1.0684372E0,3.5997638E-1,-2.5813425E-2,5.5571016E-2,-7.775848E-4,5.159357E-2,-2.0828811E-2],"categories":[],"categories_nodes":[],"categories_segments":[],"categories_sizes":[],"default_left":[0,0,0,0,0,0,0,0,0,0,0,0,0,0,0],"id":54,"left_children":[1,3,5,-1,-1,7,9,-1,11,13,-1,-1,-1,-1,-1],"loss_changes":[1.0509801E2,2.48965E1,4.09159E1,0E0,0E0,6.280983E0,4.085947E0,0E0,4.4672394E0,4.127859E0,0E0,0E0,0E0,0E0,0E0],"parents":[2147483647,0,0,1,1,2,2,5,5,6,6,8,8,9,9],"right_children":[2,4,6,-1,-1,8,10,-1,12,14,-1,-1,-1,-1,-1],"split_conditions":[4.761905E-2,1E0,7.864273E-5,-2.6066745E-2,8.9723825E-2,-2.0367E-4,1E0,-1.254255E-2,1.8067524E-4,1.5366943E-4,-2.5813425E-2,5.5571016E-2,-7.775848E-4,5.159357E-2,-2.0828811E-2],"split_indices":[5,7,4,0,0,3,7,0,1,4,0,0,0,0,0],"split_type":[0,0,0,0,0,0,0,0,0,0,0,0,0,0,0],"sum_hessian":[3.1106882E2,1.8440442E2,1.266644E2,1.8059825E2,3.8061545E0,9.790091E1,2.8763489E1,3.394476E0,9.450644E1,6.0875373E0,2.2675951E1,9.087759E1,3.6288476E0,3.0874262E0,3.0001113E0],"tree_param":{"num_deleted":"0","num_feature":"9","num_nodes":"15","size_leaf_vector":"1"}},{"base_weights":[8.915018E-3,-4.4330758E-1,9.769063E-1,4.4225212E-2,-4.7502866E-1,5.661546E-1,5.215409E-2,-5.0073326E-1,3.5894834E-2,-3.2687414E-2,9.3276626E-1,7.863352E-3,-2.5791869E-2,1.8940471E-2,-2.2782678E-2,2.5991848E-2,5.4430075E-2],"categories":[],"categories_nodes":[],"categories_segments":[],"categories_sizes":[],"default_left":[0,0,0,0,0,0,0,0,0,0,0,0,0,0,0,0,0],"id":55,"left_children":[1,3,5,-1,7,9,-1,11,-1,13,15,-1,-1,-1,-1,-1,-1],"loss_changes":[1.6765897E2,1.1415985E1,2.7243347E0,0E0,8.197765E0,4.2256184E0,0E0,2.573883E0,0E0,1.603676E0,1.9897366E-1,0E0,0E0,0E0,0E0,0E0,0E0],"parents":[2147483647,0,0,1,1,2,2,4,4,5,5,7,7,9,9,10,10],"right_children":[2,4,6,-1,8,10,-1,12,-1,14,16,-1,-1,-1,-1,-1,-1],"split_conditions":[1.3688763E-4,-2.166E-4,7.864273E-5,4.4225212E-2,2.026E-4,1.7218667E-4,5.215409E-2,-1.3237E-4,3.5894834E-2,6.6E-7,-6.998318E-1,7.863352E-3,-2.5791869E-2,1.8940471E-2,-2.2782678E-2,2.5991848E-2,5.4430075E-2],"split_indices":[1,3,4,0,3,1,0,2,0,3,0,0,0,0,0,0,0],"split_type":[0,0,0,0,0,0,0,0,0,0,0,0,0,0,0,0,0],"sum_hessian":[3.8101447E2,2.600618E2,1.2095268E2,5.440584E0,2.5462122E2,1.8108503E1,1.0284418E2,2.4981848E2,4.802732E0,7.2222137E0,1.0886289E1,5.3945746E0,2.444239E2,3.7136562E0,3.5085576E0,4.1706877E0,6.715601E0],"tree_param":{"num_deleted":"0","num_feature":"9","num_nodes":"17","size_leaf_vector":"1"}},{"base_weights":[3.9347643E-3,3.4974563E-1,-4.2194404E-2,-6.8167156E-1,5.314989E-1,3.3991594E-2,-7.5803393E-1,5.417078E-1,-2.4627497E-2,-4.0140234E-2,-8.445158E-3,-2.5783589E-3,2.7491672E-2],"categories":[],"categories_nodes":[],"categories_segments":[],"categories_sizes":[],"default_left":[0,0,0,0,0,0,0,0,0,0,0,0,0],"id":56,"left_children":[1,3,-1,5,7,-1,9,11,-1,-1,-1,-1,-1],"loss_changes":[2.1020773E2,9.582831E1,0E0,8.493034E0,4.799011E0,0E0,1.7932701E0,2.0998764E0,0E0,0E0,0E0,0E0,0E0],"parents":[2147483647,0,0,1,1,3,3,4,4,6,6,7,7],"right_children":[2,4,-1,6,8,-1,10,12,-1,-1,-1,-1,-1],"split_conditions":[4.761905E-2,2.794826E-6,-4.2194404E-2,-2.83E-6,2.642E-4,3.3991594E-2,9.399229E-1,-2.166E-4,-2.4627497E-2,-4.0140234E-2,-8.445158E-3,-2.5783589E-3,2.7491672E-2],"split_indices":[5,4,0,2,3,0,0,3,0,0,0,0,0],"split_type":[0,0,0,0,0,0,0,0,0,0,0,0,0],"sum_hessian":[7.1496985E2,5.0825125E2,2.0671858E2,7.573248E1,4.3251877E2,3.602314E0,7.213017E1,4.2871582E2,3.8029232E0,6.669874E1,5.431434E0,5.7201867E0,4.2299564E2],"tree_param":{"num_deleted":"0","num_feature":"9","num_nodes":"13","size_leaf_vector":"1"}},{"base_weights":[-8.091293E-3,9.511316E-1,-4.6790338E-1,1.0199078E0,-2.7431553E-2,-2.5708485E-2,-3.0833194E-1,7.200473E-2,1.097742E0,3.8860068E-2,-2.5694301E-2,-2.0693265E-2,2.7237535E-2,1.6214684E-2,5.6588978E-2],"categories":[],"categories_nodes":[],"categories_segments":[],"categories_sizes":[],"default_left":[0,0,0,0,0,0,0,0,0,0,0,0,0,0,0],"id":57,"left_children":[1,3,5,7,-1,-1,9,11,13,-1,-1,-1,-1,-1,-1],"loss_changes":[1.1152027E2,9.010727E0,1.1032066E0,5.726616E0,0E0,0E0,9.528324E0,1.8427823E0,1.5455322E0,0E0,0E0,0E0,0E0,0E0,0E0],"parents":[2147483647,0,0,1,1,2,2,3,3,6,6,7,7,8,8],"right_children":[2,4,6,8,-1,-1,10,12,14,-1,-1,-1,-1,-1,-1],"split_conditions":[1.1166954E-5,1.03908E-4,1.1302E-4,1E-4,-2.7431553E-2,-2.5708485E-2,1.1643381E-4,1.7980772E-1,7.5455E-5,3.8860068E-2,-2.5694301E-2,-2.0693265E-2,2.7237535E-2,1.6214684E-2,5.6588978E-2],"split_indices":[4,8,1,1,0,0,1,0,8,0,0,0,0,0,0],"split_type":[0,0,0,0,0,0,0,0,0,0,0,0,0,0,0],"sum_hessian":[2.508357E2,8.093244E1,1.6990326E2,7.76897E1,3.2427478E0,1.2999126E2,3.9911995E1,6.04126E0,7.164844E1,5.911627E0,3.4000366E1,3.0406983E0,3.0005615E0,3.4639285E0,6.818451E1],"tree_param":{"num_deleted":"0","num_feature":"9","num_nodes":"15","size_leaf_vector":"1"}},{"base_weights":[1.3284151E-2,-4.5461673E-1,6.4222497E-1,-2.6010484E-2,7.797322E-2,9.267855E-1,-3.8630393E-1,-5.9957216E-3,9.7367674E-1,5.3293305E-3,-2.5735999E-2,2.620372E-3,5.0245285E-2],"categories":[],"categories_nodes":[],"categories_segments":[],"categories_sizes":[],"default_left":[0,0,0,0,0,0,0,0,0,0,0,0,0],"id":58,"left_children":[1,3,5,-1,-1,7,9,-1,11,-1,-1,-1,-1],"loss_changes":[8.947397E1,2.3845505E1,3.8316143E1,0E0,0E0,5.11718E0,1.8784862E0,0E0,2.755951E0,0E0,0E0,0E0,0E0],"parents":[2147483647,0,0,1,1,2,2,5,5,6,6,8,8],"right_children":[2,4,6,-1,-1,8,10,-1,12,-1,-1,-1,-1],"split_conditions":[4.761905E-2,1E0,7.864273E-5,-2.6010484E-2,7.797322E-2,-1.5086E-4,1E0,-5.9957216E-3,-2.299E-4,5.3293305E-3,-2.5735999E-2,2.620372E-3,5.0245285E-2],"split_indices":[5,7,4,0,0,3,7,0,2,0,0,0,0],"split_type":[0,0,0,0,0,0,0,0,0,0,0,0,0],"sum_hessian":[3.020495E2,1.7335736E2,1.2869212E2,1.6860799E2,4.7493715E0,1.0088065E2,2.7811476E1,4.258808E0,9.662184E1,5.783408E0,2.2028069E1,3.255692E0,9.336615E1],"tree_param":{"num_deleted":"0","num_feature":"9","num_nodes":"13","size_leaf_vector":"1"}},{"base_weights":[1.2265193E-2,-4.2138714E-1,8.9478564E-1,5.2120883E-2,-4.4928026E-1,5.178572E-1,9.6507055E-1,-4.7546166E-1,5.1385004E-2,4.626113E-2,1.1567491E-1,6.690082E-1,5.0320398E-2,2.553002E-2,-2.5067007E-2,2.3812717E-2,-8.2599465E-3,4.6953496E-2,-5.6757913E-3],"categories":[],"categories_nodes":[],"categories_segments":[],"categories_sizes":[],"default_left":[0,0,0,0,0,0,0,0,0,0,0,0,0,0,0,0,0,0,0],"id":59,"left_children":[1,3,5,-1,7,9,11,13,-1,-1,15,17,-1,-1,-1,-1,-1,-1,-1],"loss_changes":[1.4560298E2,1.0884998E1,2.8209915E0,0E0,1.0196617E1,3.4740653E0,6.0549927E-1,6.5681076E0,0E0,0E0,1.3083661E0,3.4423761E0,0E0,0E0,0E0,0E0,0E0,0E0,0E0],"parents":[2147483647,0,0,1,1,2,2,4,4,5,5,6,6,7,7,10,10,11,11],"right_children":[2,4,6,-1,8,10,12,14,-1,-1,16,18,-1,-1,-1,-1,-1,-1,-1],"split_conditions":[1.3688763E-4,-1.58527E-4,1.8067524E-4,5.2120883E-2,1.5431E-4,4.7619048E-1,-1.0200336E0,-2.0367E-4,5.1385004E-2,4.626113E-2,-6.553E-5,-1.0929546E0,5.0320398E-2,2.553002E-2,-2.5067007E-2,2.3812717E-2,-8.2599465E-3,4.6953496E-2,-5.6757913E-3],"split_indices":[1,8,1,0,2,5,0,3,0,0,2,0,0,0,0,0,0,0,0],"split_type":[0,0,0,0,0,0,0,0,0,0,0,0,0,0,0,0,0,0,0],"sum_hessian":[3.784702E2,2.5412228E2,1.2434792E2,4.071695E0,2.500506E2,2.0857882E1,1.0349004E2,2.463616E2,3.6889975E0,9.71608E0,1.1141802E1,1.4784693E1,8.870535E1,5.8212347E0,2.4054036E2,4.5740824E0,6.567719E0,1.0842661E1,3.9420316E0],"tree_param":{"num_deleted":"0","num_feature":"9","num_nodes":"19","size_leaf_vector":"1"}},{"base_weights":[-1.0083055E-2,4.8793435E-1,-7.823716E-1,5.1214635E-1,-4.6304416E-2,-1.7887298E-2,-3.943635E-2,-2.6698506E-2,5.236031E-1,-1.2354232E-2,2.6559744E-2],"categories":[],"categories_nodes":[],"categories_segments":[],"categories_sizes":[],"default_left":[0,0,0,0,0,0,0,0,0,0,0],"id":60,"left_children":[1,3,5,7,-1,-1,-1,-1,9,-1,-1],"loss_changes":[2.7585556E2,1.5403206E1,4.766388E-1,5.425476E0,0E0,0E0,0E0,0E0,2.61911E0,0E0,0E0],"parents":[2147483647,0,0,1,1,2,2,3,3,8,8],"right_children":[2,4,6,8,-1,-1,-1,-1,10,-1,-1],"split_conditions":[1E-4,1E0,7.5455E-5,-1.58527E-4,-4.6304416E-2,-1.7887298E-2,-3.943635E-2,-2.6698506E-2,2.794826E-6,-1.2354232E-2,2.6559744E-2],"split_indices":[1,7,8,8,0,0,0,0,4,0,0],"split_type":[0,0,0,0,0,0,0,0,0,0,0],"sum_hessian":[7.152361E2,4.3505502E2,2.8018106E2,4.2835815E2,6.6968727E0,4.976475E0,2.752046E2,4.146352E0,4.242118E2,3.8302612E0,4.2038153E2],"tree_param":{"num_deleted":"0","num_feature":"9","num_nodes":"11","size_leaf_vector":"1"}},{"base_weights":[-9.939991E-5,-2.5631417E-2,4.9800724E-1,8.7748754E-1,-2.6509691E-2,-2.5749868E-2,1.0411435E0,4.8124716E-3,5.4205842E-2],"categories":[],"categories_nodes":[],"categories_segments":[],"categories_sizes":[],"default_left":[0,0,0,0,0,0,0,0,0],"id":61,"left_children":[1,-1,3,5,-1,-1,7,-1,-1],"loss_changes":[6.4127304E1,0E0,5.0169502E1,2.1826256E1,0E0,0E0,3.3036118E0,0E0,0E0],"parents":[2147483647,0,0,2,2,3,3,6,6],"right_children":[2,-1,4,6,-1,-1,8,-1,-1],"split_conditions":[9.929238E-5,-2.5631417E-2,1E0,-3.54E-6,-2.6509691E-2,-2.5749868E-2,-7.6452863E-1,4.8124716E-3,5.4205842E-2],"split_indices":[1,0,7,2,0,0,6,0,0],"split_type":[0,0,0,0,0,0,0,0,0],"sum_hessian":[2.4918996E2,1.2280258E2,1.26387375E2,9.242316E1,3.3964222E1,9.494171E0,8.2928986E1,3.7484303E0,7.918056E1],"tree_param":{"num_deleted":"0","num_feature":"9","num_nodes":"9","size_leaf_vector":"1"}},{"base_weights":[1.169363E-2,-4.6310505E-1,6.193596E-1,-2.5954902E-2,8.360083E-2,8.2558477E-1,-2.5809402E-2,9.0484226E-1,-1.7783724E-1,-8.488979E-3,4.716372E-2,1.4365618E-2,-2.2871243E-2],"categories":[],"categories_nodes":[],"categories_segments":[],"categories_sizes":[],"default_left":[0,0,0,0,0,0,0,0,0,0,0,0,0],"id":62,"left_children":[1,3,5,-1,-1,7,-1,9,11,-1,-1,-1,-1],"loss_changes":[8.73614E1,2.1190987E1,3.15262E1,0E0,0E0,9.1300125E0,0E0,4.483696E0,1.3137934E0,0E0,0E0,0E0,0E0],"parents":[2147483647,0,0,1,1,2,2,5,5,7,7,8,8],"right_children":[2,4,6,-1,-1,8,-1,10,12,-1,-1,-1,-1],"split_conditions":[4.761905E-2,1E0,1.0820808E-4,-2.5954902E-2,8.360083E-2,9.047619E-1,-2.5809402E-2,-2.299E-4,-6.017673E-1,-8.488979E-3,4.716372E-2,1.4365618E-2,-2.2871243E-2],"split_indices":[5,7,4,0,0,5,0,2,0,0,0,0,0],"split_type":[0,0,0,0,0,0,0,0,0,0,0,0,0],"sum_hessian":[3.0079837E2,1.689935E2,1.3180486E2,1.6541248E2,3.5810237E0,1.11777985E2,2.0026876E1,1.0368633E2,8.09165E0,3.4621267E0,1.00224205E2,3.0273771E0,5.0642734E0],"tree_param":{"num_deleted":"0","num_feature":"9","num_nodes":"13","size_leaf_vector":"1"}},{"base_weights":[5.8274013E-3,-4.939181E-1,7.519377E-1,-5.180974E-1,-5.6644842E-2,1.9434807E-1,8.995636E-1,-2.6341347E-2,-2.1869475E-1,-2.3788383E-2,1.9037897E-2,4.7429282E-2,2.406712E-2,-3.2987157E-3,4.7910463E-2,-2.146594E-2,3.9115804E-3,-1.0721134E-2,2.4340091E-2,1.9938622E-2,-2.0732112E-2],"categories":[],"categories_nodes":[],"categories_segments":[],"categories_sizes":[],"default_left":[0,0,0,0,0,0,0,0,0,0,0,0,0,0,0,0,0,0,0,0,0],"id":63,"left_children":[1,3,5,7,9,11,13,-1,15,-1,-1,-1,17,19,-1,-1,-1,-1,-1,-1,-1],"loss_changes":[1.3800122E2,2.3142204E0,1.2045425E1,4.3343735E-1,2.5161986E0,4.132331E0,6.2037506E0,0E0,5.124444E-1,0E0,0E0,0E0,3.1303935E0,1.5114836E0,0E0,0E0,0E0,0E0,0E0,0E0,0E0],"parents":[2147483647,0,0,1,1,2,2,3,3,4,4,5,5,6,6,8,8,12,12,13,13],"right_children":[2,4,6,8,10,12,14,-1,16,-1,-1,-1,18,20,-1,-1,-1,-1,-1,-1,-1],"split_conditions":[5.584031E-5,1.17285E-4,7.864273E-5,1.1302E-4,3.7308735E-5,-1.7651E-4,1.9055715E-5,-2.6341347E-2,4.184234E-5,-2.3788383E-2,1.9037897E-2,4.7429282E-2,1.7218667E-4,-3.0535713E-5,4.7910463E-2,-2.146594E-2,3.9115804E-3,-1.0721134E-2,2.4340091E-2,1.9938622E-2,-2.0732112E-2],"split_indices":[4,8,4,1,4,3,1,0,4,0,0,0,1,1,0,0,0,0,0,0,0],"split_type":[0,0,0,0,0,0,0,0,0,0,0,0,0,0,0,0,0,0,0,0,0],"sum_hessian":[3.681141E2,2.206563E2,1.4745782E2,2.0891913E2,1.1737162E1,3.1352928E1,1.1610489E2,2.0226228E2,6.656849E0,5.9490366E0,5.788125E0,4.93284E0,2.6420088E1,7.139191E0,1.089657E2,3.6335337E0,3.0233152E0,1.77886E1,8.631486E0,3.6257415E0,3.51345E0],"tree_param":{"num_deleted":"0","num_feature":"9","num_nodes":"21","size_leaf_vector":"1"}},{"base_weights":[-9.803378E-3,4.7385544E-1,-7.6787454E-1,5.0489855E-1,-4.338407E-2,-3.86849E-2,-1.6886776E-2,5.2131605E-1,-4.7213715E-2,2.6633922E-2,-3.2858416E-2],"categories":[],"categories_nodes":[],"categories_segments":[],"categories_sizes":[],"default_left":[0,0,0,0,0,0,0,0,0,0,0],"id":64,"left_children":[1,3,5,7,-1,-1,-1,9,-1,-1,-1],"loss_changes":[2.486403E2,1.7680038E1,4.003296E-1,1.0134735E1,0E0,0E0,0E0,5.7248077E0,0E0,0E0,0E0],"parents":[2147483647,0,0,1,1,2,2,3,3,7,7],"right_children":[2,4,6,8,-1,-1,-1,10,-1,-1,-1],"split_conditions":[1E-4,4.761905E-2,4.4381504E0,1E0,-4.338407E-2,-3.86849E-2,-1.6886776E-2,2.642E-4,-4.7213715E-2,2.6633922E-2,-3.2858416E-2],"split_indices":[1,5,6,7,0,0,0,3,0,0,0],"split_type":[0,0,0,0,0,0,0,0,0,0,0],"sum_hessian":[6.7615234E2,4.1301718E2,2.6313516E2,4.0428568E2,8.731512E0,2.588322E2,4.30295E0,4.0038998E2,3.8957062E0,3.9710925E2,3.2807229E0],"tree_param":{"num_deleted":"0","num_feature":"9","num_nodes":"11","size_leaf_vector":"1"}},{"base_weights":[-1.1109939E-2,8.364914E-1,-4.5059392E-1,9.03078E-1,-2.6720935E-2,-2.5619064E-2,-2.4568382E-1,-9.009278E-3,9.863839E-1,5.6970395E-2,-2.5568513E-2,2.4939869E-2,5.0117087E-2],"categories":[],"categories_nodes":[],"categories_segments":[],"categories_sizes":[],"default_left":[0,0,0,0,0,0,0,0,0,0,0,0,0],"id":65,"left_children":[1,3,5,7,-1,-1,9,-1,11,-1,-1,-1,-1],"loss_changes":[9.046328E1,8.05257E0,1.8987198E0,7.3481827E0,0E0,0E0,1.4923117E1,0E0,7.534027E-2,0E0,0E0,0E0,0E0],"parents":[2147483647,0,0,1,1,2,2,3,3,6,6,8,8],"right_children":[2,4,6,8,-1,-1,10,-1,12,-1,-1,-1,-1],"split_conditions":[1.1166954E-5,1E0,1.1302E-4,1E-4,-2.6720935E-2,-2.5619064E-2,1.4285715E-1,-9.009278E-3,-7.011952E-1,5.6970395E-2,-2.5568513E-2,2.4939869E-2,5.0117087E-2],"split_indices":[4,7,1,1,0,0,5,0,6,0,0,0,0],"split_type":[0,0,0,0,0,0,0,0,0,0,0,0,0],"sum_hessian":[2.4083792E2,8.192728E1,1.5891063E2,7.8457756E1,3.4695237E0,1.20942E2,3.796863E1,5.5197005E0,7.293806E1,5.5816274E0,3.2387005E1,3.3337467E0,6.960431E1],"tree_param":{"num_deleted":"0","num_feature":"9","num_nodes":"13","size_leaf_vector":"1"}},{"base_weights":[-1.5073675E-2,-4.5655912E-1,5.5540806E-1,-2.5906999E-2,6.486177E-2,7.5289696E-1,-2.5722822E-2,8.107977E-1,-2.520141E-2,-1.5415966E-2,4.303544E-2],"categories":[],"categories_nodes":[],"categories_segments":[],"categories_sizes":[],"default_left":[0,0,0,0,0,0,0,0,0,0,0],"id":66,"left_children":[1,3,5,-1,-1,7,-1,9,-1,-1,-1],"loss_changes":[7.4323524E1,1.8636803E1,2.7591148E1,0E0,0E0,8.348316E0,0E0,6.112137E0,0E0,0E0,0E0],"parents":[2147483647,0,0,1,1,2,2,5,5,7,7],"right_children":[2,4,6,-1,-1,8,-1,10,-1,-1,-1],"split_conditions":[4.761905E-2,1.03908E-4,1.0820808E-4,-2.5906999E-2,6.486177E-2,2.815325E-4,-2.5722822E-2,-1.7651E-4,-2.520141E-2,-1.5415966E-2,4.303544E-2],"split_indices":[5,8,4,0,0,8,0,3,0,0,0],"split_type":[0,0,0,0,0,0,0,0,0,0,0],"sum_hessian":[2.9309247E2,1.6533919E2,1.2775329E2,1.6041124E2,4.927944E0,1.0809588E2,1.9657412E1,1.0367499E2,4.420893E0,4.205303E0,9.946968E1],"tree_param":{"num_deleted":"0","num_feature":"9","num_nodes":"11","size_leaf_vector":"1"}},{"base_weights":[1.7548712E-2,-4.8318186E-1,7.405848E-1,-5.078611E-1,7.194645E-2,-8.7083146E-2,8.211737E-1,-5.161342E-1,-2.6855507E-1,-2.2020977E-2,2.1713722E-2,-3.1741145E-1,2.8393153E-2,4.5319772E-1,4.620799E-2,-2.6031023E-2,-9.437188E-3,3.5270934E-3,-2.2804061E-2,2.7710523E-3,-2.3264844E-2,1.000357E-2,3.6821406E-2],"categories":[],"categories_nodes":[],"categories_segments":[],"categories_sizes":[],"default_left":[0,0,0,0,0,0,0,0,0,0,0,0,0,0,0,0,0,0,0,0,0,0,0],"id":67,"left_children":[1,3,5,7,9,11,13,15,17,-1,-1,19,-1,21,-1,-1,-1,-1,-1,-1,-1,-1,-1],"loss_changes":[1.3295615E2,3.0093918E0,1.0093498E1,2.7295303E-1,2.06853E0,2.3277736E0,4.773613E0,1.9527817E-1,6.0647047E-1,0E0,0E0,6.418556E-1,0E0,2.141387E0,0E0,0E0,0E0,0E0,0E0,0E0,0E0,0E0,0E0],"parents":[2147483647,0,0,1,1,2,2,3,3,4,4,5,5,6,6,7,7,8,8,11,11,13,13],"right_children":[2,4,6,8,10,12,14,16,18,-1,-1,20,-1,22,-1,-1,-1,-1,-1,-1,-1,-1,-1],"split_conditions":[5.584031E-5,1.389375E-4,2.3831904E-5,1.1302E-4,3.7308735E-5,3.591E-5,7.864273E-5,1E0,2.857143E-1,-2.2020977E-2,2.1713722E-2,-1.4478614E0,2.8393153E-2,1.7218667E-4,4.620799E-2,-2.6031023E-2,-9.437188E-3,3.5270934E-3,-2.2804061E-2,2.7710523E-3,-2.3264844E-2,1.000357E-2,3.6821406E-2],"split_indices":[4,8,1,1,4,2,4,7,5,0,0,0,0,1,0,0,0,0,0,0,0,0,0],"split_type":[0,0,0,0,0,0,0,0,0,0,0,0,0,0,0,0,0,0,0,0,0,0,0],"sum_hessian":[3.6524686E2,2.1599422E2,1.4925266E2,2.0688205E2,9.112158E0,1.3235928E1,1.3601672E2,1.9885074E2,8.0313225E0,3.685287E0,5.426871E0,1.0173516E1,3.0624108E0,3.0923939E1,1.0509279E2,1.9558044E2,3.270281E0,3.0820282E0,4.949294E0,3.0668793E0,7.1066375E0,1.7230885E1,1.3693052E1],"tree_param":{"num_deleted":"0","num_feature":"9","num_nodes":"23","size_leaf_vector":"1"}},{"base_weights":[4.5822104E-3,4.8012057E-1,-7.302402E-1,5.083295E-1,-4.3510966E-2,-6.2788897E-3,-7.428542E-1,-3.547432E-2,5.23088E-1,-1.5432574E-2,-3.7380423E-2,2.6623586E-2,-2.1188803E-2],"categories":[],"categories_nodes":[],"categories_segments":[],"categories_sizes":[],"default_left":[0,0,0,0,0,0,0,0,0,0,0,0,0],"id":68,"left_children":[1,3,5,7,-1,-1,9,-1,11,-1,-1,-1,-1],"loss_changes":[2.3269136E2,1.5841766E1,1.9022064E0,7.4997864E0,0E0,0E0,2.9788208E-1,0E0,3.7126923E0,0E0,0E0,0E0,0E0],"parents":[2147483647,0,0,1,1,2,2,3,3,6,6,8,8],"right_children":[2,4,6,8,-1,-1,10,-1,12,-1,-1,-1,-1],"split_conditions":[9.929238E-5,1E0,1E-4,-1.58527E-4,-4.3510966E-2,-6.2788897E-3,7.5455E-5,-3.547432E-2,2.642E-4,-1.5432574E-2,-3.7380423E-2,2.6623586E-2,-2.1188803E-2],"split_indices":[1,7,1,8,0,0,8,0,3,0,0,0,0],"split_type":[0,0,0,0,0,0,0,0,0,0,0,0,0],"sum_hessian":[6.639017E2,4.0327194E2,2.6062973E2,3.9563068E2,7.641281E0,5.5498114E0,2.5507993E2,4.173508E0,3.9145715E2,3.4767342E0,2.516032E2,3.880491E2,3.4080584E0],"tree_param":{"num_deleted":"0","num_feature":"9","num_nodes":"13","size_leaf_vector":"1"}},{"base_weights":[2.5280157E-2,8.2166356E-1,-4.5315176E-1,-2.6214955E-2,8.937231E-1,-2.5575979E-2,-2.619681E-1,9.542583E-1,-2.6378913E-2,5.6751557E-2,-2.5516495E-2,7.5816396E-3,4.919054E-2],"categories":[],"categories_nodes":[],"categories_segments":[],"categories_sizes":[],"default_left":[0,0,0,0,0,0,0,0,0,0,0,0,0],"id":69,"left_children":[1,3,5,-1,7,-1,9,11,-1,-1,-1,-1,-1],"loss_changes":[9.306514E1,9.358299E0,1.5690956E0,0E0,8.020554E0,0E0,1.367584E1,1.8469467E0,0E0,0E0,0E0,0E0,0E0],"parents":[2147483647,0,0,1,1,2,2,4,4,6,6,7,7],"right_children":[2,4,6,-1,8,-1,10,12,-1,-1,-1,-1,-1],"split_conditions":[1.1166954E-5,-2.83E-6,1.1302E-4,-2.6214955E-2,1E0,-2.5575979E-2,1.1643381E-4,7.12825E-5,-2.6378913E-2,5.6751557E-2,-2.5516495E-2,7.5816396E-3,4.919054E-2],"split_indices":[4,2,1,0,7,0,1,8,0,0,0,0,0],"split_type":[0,0,0,0,0,0,0,0,0,0,0,0,0],"sum_hessian":[2.4227846E2,9.065667E1,1.5162178E2,4.287968E0,8.6368706E1,1.148752E2,3.6746586E1,8.315559E1,3.2131133E0,5.007884E0,3.17387E1,3.1707602E0,7.998483E1],"tree_param":{"num_deleted":"0","num_feature":"9","num_nodes":"13","size_leaf_vector":"1"}},{"base_weights":[-1.1575614E-3,-4.4246143E-1,5.571855E-1,-2.585722E-2,6.3753806E-2,7.6225376E-1,-2.5712147E-2,8.461793E-1,-5.4746676E-2,-3.6874432E-3,4.422439E-2,8.879898E-3,-2.1359012E-2],"categories":[],"categories_nodes":[],"categories_segments":[],"categories_sizes":[],"default_left":[0,0,0,0,0,0,0,0,0,0,0,0,0],"id":70,"left_children":[1,3,5,-1,-1,7,-1,9,11,-1,-1,-1,-1],"loss_changes":[7.06958E1,2.1215137E1,2.8221825E1,0E0,0E0,7.363632E0,0E0,3.4778595E0,1.0173849E0,0E0,0E0,0E0,0E0],"parents":[2147483647,0,0,1,1,2,2,5,5,7,7,8,8],"right_children":[2,4,6,-1,-1,8,-1,10,12,-1,-1,-1,-1],"split_conditions":[4.761905E-2,1E0,1.0820808E-4,-2.585722E-2,6.3753806E-2,2.716168E0,-2.5712147E-2,-2.0367E-4,9.047619E-1,-3.6874432E-3,4.422439E-2,8.879898E-3,-2.1359012E-2],"split_indices":[5,7,4,0,0,6,0,3,5,0,0,0,0],"split_type":[0,0,0,0,0,0,0,0,0,0,0,0,0],"sum_hessian":[2.8491547E2,1.5925267E2,1.2566278E2,1.5328629E2,5.96638E0,1.05717354E2,1.994543E1,9.583689E1,9.880464E0,3.7943883E0,9.20425E1,6.406732E0,3.4737315E0],"tree_param":{"num_deleted":"0","num_feature":"9","num_nodes":"13","size_leaf_vector":"1"}},{"base_weights":[1.0172309E-2,-4.2555016E-1,7.9163915E-1,5.285385E-2,-4.600675E-1,3.2831138E-1,8.435907E-1,6.7644906E-1,-4.9603882E-1,7.217809E-1,-1.0742605E-2,6.971518E-1,4.4904772E-2,1.2410771E-3,5.8859807E-2,-2.5647426E-2,2.2082247E-2,2.0628633E-2,4.388352E-2,1.5758926E-2,4.292018E-2],"categories":[],"categories_nodes":[],"categories_segments":[],"categories_sizes":[],"default_left":[0,0,0,0,0,0,0,0,0,0,0,0,0,0,0,0,0,0,0,0,0],"id":71,"left_children":[1,3,5,-1,7,9,11,13,15,17,-1,19,-1,-1,-1,-1,-1,-1,-1,-1,-1],"loss_changes":[1.22887E2,1.2344978E1,2.8326645E0,0E0,9.621742E0,3.2886436E0,2.9597473E-1,2.3827279E0,3.726799E0,5.8805466E-2,0E0,1.9348259E0,0E0,0E0,0E0,0E0,0E0,0E0,0E0,0E0,0E0],"parents":[2147483647,0,0,1,1,2,2,4,4,5,5,6,6,7,7,8,8,9,9,11,11],"right_children":[2,4,6,-1,8,10,12,14,16,18,-1,20,-1,-1,-1,-1,-1,-1,-1,-1,-1],"split_conditions":[1.3688763E-4,-1.58527E-4,1.6714523E-4,5.285385E-2,-2.0367E-4,4.7619048E-1,2.0382334E-4,2.9E-7,2.07061E-4,2.07061E-4,-1.0742605E-2,-5.293E-5,4.4904772E-2,1.2410771E-3,5.8859807E-2,-2.5647426E-2,2.2082247E-2,2.0628633E-2,4.388352E-2,1.5758926E-2,4.292018E-2],"split_indices":[1,8,1,0,3,5,1,2,8,8,0,2,0,0,0,0,0,0,0,0,0],"split_type":[0,0,0,0,0,0,0,0,0,0,0,0,0,0,0,0,0,0,0,0,0],"sum_hessian":[3.589094E2,2.3072147E2,1.2818793E2,4.5752583E0,2.2614621E2,1.3662141E1,1.1452578E2,6.391795E0,2.1975441E2,7.7321196E0,5.9300213E0,3.480508E1,7.97207E1,3.2335334E0,3.1582618E0,2.1630663E2,3.4477913E0,3.8138611E0,3.9182587E0,1.1208635E1,2.3596443E1],"tree_param":{"num_deleted":"0","num_feature":"9","num_nodes":"21","size_leaf_vector":"1"}},{"base_weights":[-1.9411169E-3,4.4778794E-1,-6.2963986E-1,4.7242254E-1,-3.98167E-2,-3.4862193E-1,-3.7824057E-2,-4.1392393E-2,4.8805553E-1,-5.65307E-1,3.3386686E-1,2.6313279E-2,1.3020533E-2,-3.112951E-2,5.5414513E-3,2.8283713E-2,1.9099087E-3],"categories":[],"categories_nodes":[],"categories_segments":[],"categories_sizes":[],"default_left":[0,0,0,0,0,0,0,0,0,0,0,0,0,0,0,0,0],"id":72,"left_children":[1,3,5,7,-1,9,-1,-1,11,13,15,-1,-1,-1,-1,-1,-1],"loss_changes":[1.8214218E2,1.1897003E1,9.336113E0,7.909439E0,0E0,1.2849397E1,0E0,0E0,3.041954E0,2.6001587E0,1.4354825E0,0E0,0E0,0E0,0E0,0E0,0E0],"parents":[2147483647,0,0,1,1,2,2,3,3,5,5,8,8,9,9,10,10],"right_children":[2,4,6,8,-1,10,-1,-1,12,14,16,-1,-1,-1,-1,-1,-1],"split_conditions":[1E-4,4.761905E-2,4.761905E-2,-1.58527E-4,-3.98167E-2,2.9E-7,-3.7824057E-2,-4.1392393E-2,8.18035E-5,1.0251117E0,5.596E-5,2.6313279E-2,1.3020533E-2,-3.112951E-2,5.5414513E-3,2.8283713E-2,1.9099087E-3],"split_indices":[8,5,5,8,0,2,0,0,8,0,2,0,0,0,0,0,0],"split_type":[0,0,0,0,0,0,0,0,0,0,0,0,0,0,0,0,0],"sum_hessian":[6.4322205E2,3.7490173E2,2.6832028E2,3.6823077E2,6.6709867E0,8.461143E1,1.8370885E2,3.7573717E0,3.644734E2,6.435188E1,2.0259542E1,3.1096616E2,5.3507236E1,5.9398735E1,4.9531503E0,1.0844297E1,9.415246E0],"tree_param":{"num_deleted":"0","num_feature":"9","num_nodes":"17","size_leaf_vector":"1"}},{"base_weights":[-9.381895E-3,-2.549689E-2,4.4050723E-1,7.451985E-1,-2.6304951E-2,-2.5252E-2,8.8784766E-1,4.7529276E-2,-2.9126694E-2],"categories":[],"categories_nodes":[],"categories_segments":[],"categories_sizes":[],"default_left":[0,0,0,0,0,0,0,0,0],"id":73,"left_children":[1,-1,3,5,-1,-1,7,-1,-1],"loss_changes":[5.1815624E1,0E0,3.6084618E1,1.6955803E1,0E0,0E0,8.25116E0,0E0,0E0],"parents":[2147483647,0,0,2,2,3,3,6,6],"right_children":[2,-1,4,6,-1,-1,8,-1,-1],"split_conditions":[9.929238E-5,-2.549689E-2,1E0,-2.83E-6,-2.6304951E-2,-2.5252E-2,2.9E-7,4.7529276E-2,-2.9126694E-2],"split_indices":[1,0,7,2,0,0,2,0,0],"split_type":[0,0,0,0,0,0,0,0,0],"sum_hessian":[2.2809506E2,1.0790465E2,1.20190414E2,9.15586E1,2.8631819E1,9.116576E0,8.2442024E1,7.94074E1,3.0346224E0],"tree_param":{"num_deleted":"0","num_feature":"9","num_nodes":"9","size_leaf_vector":"1"}},{"base_weights":[2.732654E-3,-4.3788776E-1,5.057107E-1,-2.5796598E-2,5.935667E-2,7.3506534E-1,-3.80276E-1,-6.817711E-3,7.747276E-1,8.909843E-3,-2.5724888E-2,-1.0699725E-2,4.035905E-2],"categories":[],"categories_nodes":[],"categories_segments":[],"categories_sizes":[],"default_left":[0,0,0,0,0,0,0,0,0,0,0,0,0],"id":74,"left_children":[1,3,5,-1,-1,7,9,-1,11,-1,-1,-1,-1],"loss_changes":[6.28231E1,1.9776072E1,2.7176888E1,0E0,0E0,3.7515297E0,2.1814094E0,0E0,3.415001E0,0E0,0E0,0E0,0E0],"parents":[2147483647,0,0,1,1,2,2,5,5,6,6,8,8],"right_children":[2,4,6,-1,-1,8,10,-1,12,-1,-1,-1,-1],"split_conditions":[4.761905E-2,1E0,1.8067524E-4,-2.5796598E-2,5.935667E-2,-2.299E-4,-1.0355332E0,-6.817711E-3,-2.166E-4,8.909843E-3,-2.5724888E-2,-1.0699725E-2,4.035905E-2],"split_indices":[5,7,1,0,0,2,0,0,3,0,0,0,0],"split_type":[0,0,0,0,0,0,0,0,0,0,0,0,0],"sum_hessian":[2.814699E2,1.5010439E2,1.3136551E2,1.4387698E2,6.2274127E0,1.0448731E2,2.6878204E1,4.4425263E0,1.00044785E2,5.1446404E0,2.1733564E1,3.0016947E0,9.704309E1],"tree_param":{"num_deleted":"0","num_feature":"9","num_nodes":"13","size_leaf_vector":"1"}},{"base_weights":[1.7452052E-2,-4.675847E-1,6.8968695E-1,-5.073819E-1,-1.0337645E-2,-8.7503366E-2,7.674952E-1,-2.5865171E-2,-6.968513E-3,-2.4616694E-2,5.061072E-1,-2.3287341E-1,1.672819E-2,4.7410342E-1,8.497766E-1,-3.0057146E-3,5.0144356E-2,2.7669768E-3,-2.2373764E-2,-2.1911979E-2,3.1382825E-2,3.2268792E-2,4.41698E-2],"categories":[],"categories_nodes":[],"categories_segments":[],"categories_sizes":[],"default_left":[0,0,0,0,0,0,0,0,0,0,0,0,0,0,0,0,0,0,0,0,0,0,0],"id":75,"left_children":[1,3,5,7,9,11,13,-1,-1,-1,15,17,-1,19,21,-1,-1,-1,-1,-1,-1,-1,-1],"loss_changes":[1.1251896E2,3.6428452E0,8.812798E0,6.012039E-1,4.4989223E0,9.405103E-1,2.7731705E0,0E0,0E0,0E0,2.5172784E0,7.080208E-1,0E0,4.628836E0,1.2727356E-1,0E0,0E0,0E0,0E0,0E0,0E0,0E0,0E0],"parents":[2147483647,0,0,1,1,2,2,3,3,4,4,5,5,6,6,10,10,11,11,13,13,14,14],"right_children":[2,4,6,8,10,12,14,-1,-1,-1,16,18,-1,20,22,-1,-1,-1,-1,-1,-1,-1,-1],"split_conditions":[5.584031E-5,1E0,2.3831904E-5,1.1302E-4,3.7308735E-5,5.296E-5,7.864273E-5,-2.5865171E-2,-6.968513E-3,-2.4616694E-2,5.813E-5,4.8984167E-1,1.672819E-2,5.213192E-2,1E0,-3.0057146E-3,5.0144356E-2,2.7669768E-3,-2.2373764E-2,-2.1911979E-2,3.1382825E-2,3.2268792E-2,4.41698E-2],"split_indices":[4,7,1,1,4,2,4,0,0,0,2,6,0,6,7,0,0,0,0,0,0,0,0],"split_type":[0,0,0,0,0,0,0,0,0,0,0,0,0,0,0,0,0,0,0,0,0,0,0],"sum_hessian":[3.430991E2,1.9947592E2,1.4362317E2,1.8340347E2,1.6072441E1,1.3058941E1,1.3056422E2,1.7819374E2,5.209743E0,8.337638E0,7.734803E0,1.0046827E1,3.0121133E0,3.0077717E1,1.0048651E2,4.0255456E0,3.7092574E0,4.6047373E0,5.44209E0,4.065912E0,2.6011806E1,1.7045988E1,8.344052E1],"tree_param":{"num_deleted":"0","num_feature":"9","num_nodes":"23","size_leaf_vector":"1"}},{"base_weights":[-3.5345457E-3,4.5230028E-1,-6.114535E-1,-4.5625544E-1,4.9664244E-1,-3.4269047E-1,-3.6955476E-2,-2.9294569E-2,9.2671876E-4,5.22069E-1,-3.767391E-2,-6.389945E-1,2.8576294E-1,-3.4925986E-2,2.7103344E-2,-7.3641366E-3,-3.3244297E-2,2.6868502E-2,-4.3622788E-2],"categories":[],"categories_nodes":[],"categories_segments":[],"categories_sizes":[],"default_left":[0,0,0,0,0,0,0,0,0,0,0,0,0,0,0,0,0,0,0],"id":76,"left_children":[1,3,5,7,9,11,-1,-1,-1,13,-1,15,17,-1,-1,-1,-1,-1,-1],"loss_changes":[1.7082797E2,1.44199295E1,8.80986E0,1.0519893E0,1.1085884E1,1.6370174E1,0E0,0E0,0E0,8.440315E0,0E0,6.581173E-1,8.787172E0,0E0,0E0,0E0,0E0,0E0,0E0],"parents":[2147483647,0,0,1,1,2,2,3,3,4,4,5,5,9,9,11,11,12,12],"right_children":[2,4,6,8,10,12,-1,-1,-1,14,-1,16,18,-1,-1,-1,-1,-1,-1],"split_conditions":[1E-4,2.794826E-6,4.761905E-2,7.8568304E-1,4.761905E-2,2.794826E-6,-3.6955476E-2,-2.9294569E-2,9.2671876E-4,-1.58527E-4,-3.767391E-2,-5.83943E-1,1E0,-3.4925986E-2,2.7103344E-2,-7.3641366E-3,-3.3244297E-2,2.6868502E-2,-4.3622788E-2],"split_indices":[8,4,5,6,5,4,0,0,0,8,0,6,7,0,0,0,0,0,0],"split_type":[0,0,0,0,0,0,0,0,0,0,0,0,0,0,0,0,0,0,0],"sum_hessian":[6.144633E2,3.5130264E2,2.6316068E2,1.5915243E1,3.353874E2,8.5930275E1,1.772304E2,1.2317963E1,3.5972807E0,3.2927258E2,6.1147885E0,5.8385723E1,2.7544556E1,4.7608347E0,3.2451175E2,3.2551198E0,5.5130604E1,2.306914E1,4.475415E0],"tree_param":{"num_deleted":"0","num_feature":"9","num_nodes":"19","size_leaf_vector":"1"}},{"base_weights":[-2.9563889E-2,7.465792E-1,-4.572025E-1,8.05452E-1,-2.5785262E-2,-3.2540238E-1,-2.5626278E-2,-4.283145E-3,8.4699523E-1,-2.4947492E-2,1.692825E-1,1.312374E-2,4.3482125E-2,3.2862738E-2,-2.2058014E-2],"categories":[],"categories_nodes":[],"categories_segments":[],"categories_sizes":[],"default_left":[0,0,0,0,0,0,0,0,0,0,0,0,0,0,0],"id":77,"left_children":[1,3,5,7,-1,9,-1,-1,11,-1,13,-1,-1,-1,-1],"loss_changes":[7.480138E1,6.3661118E0,8.924236E-1,2.919281E0,0E0,4.006685E0,0E0,0E0,7.455635E-1,0E0,4.0467763E0,0E0,0E0,0E0,0E0],"parents":[2147483647,0,0,1,1,2,2,3,3,5,5,8,8,10,10],"right_children":[2,4,6,8,-1,10,-1,-1,12,-1,14,-1,-1,-1,-1],"split_conditions":[1.1166954E-5,1.03908E-4,-2.0919256E-1,7.5455E-5,-2.5785262E-2,9.52381E-2,-2.5626278E-2,-4.283145E-3,-6.396793E-1,-2.4947492E-2,1.4285715E-1,1.312374E-2,4.3482125E-2,3.2862738E-2,-2.2058014E-2],"split_indices":[4,8,6,8,0,5,0,0,6,0,5,0,0,0,0],"split_type":[0,0,0,0,0,0,0,0,0,0,0,0,0,0,0],"sum_hessian":[2.233389E2,7.9075294E1,1.442636E2,7.589736E1,3.1779363E0,4.4686222E1,9.957738E1,3.3333776E0,7.256398E1,3.3074326E1,1.1611897E1,3.1762197E0,6.9387764E1,6.4106793E0,5.201218E0],"tree_param":{"num_deleted":"0","num_feature":"9","num_nodes":"15","size_leaf_vector":"1"}},{"base_weights":[1.2721946E-2,-4.5386994E-1,3.7638727E-1,7.662293E-3,-4.9843165E-1,5.019888E-1,-2.5517642E-2,-2.2478322E-2,3.5394695E-2,-2.5255034E-2,-1.2971821E-2,-3.3896953E-2,6.1425567E-1,-2.0547891E-2,6.0852047E-2,3.3576407E-2,-1.9688858E-2],"categories":[],"categories_nodes":[],"categories_segments":[],"categories_sizes":[],"default_left":[0,0,0,0,0,0,0,0,0,0,0,0,0,0,0,0,0],"id":78,"left_children":[1,3,5,7,9,11,-1,-1,-1,-1,-1,13,15,-1,-1,-1,-1],"loss_changes":[4.66377E1,2.4800758E0,1.7457449E1,4.0277667E0,4.399109E-2,8.18998E0,0E0,0E0,0E0,0E0,0E0,1.2040827E1,6.748848E0,0E0,0E0,0E0,0E0],"parents":[2147483647,0,0,1,1,2,2,3,3,4,4,5,5,11,11,12,12],"right_children":[2,4,6,8,10,12,-1,-1,-1,-1,-1,14,16,-1,-1,-1,-1],"split_conditions":[1E-4,-9.001E-5,1.0820808E-4,3.52415E-5,9.5116E-5,1.1166954E-5,-2.5517642E-2,-2.2478322E-2,3.5394695E-2,-2.5255034E-2,-1.2971821E-2,1E0,2.574665E-4,-2.0547891E-2,6.0852047E-2,3.3576407E-2,-1.9688858E-2],"split_indices":[8,2,4,8,8,4,0,0,0,0,0,7,8,0,0,0,0],"split_type":[0,0,0,0,0,0,0,0,0,0,0,0,0,0,0,0,0],"sum_hessian":[2.7284473E2,1.19401505E2,1.5344322E2,1.0586244E1,1.0881526E2,1.3478554E2,1.8657692E1,6.6209507E0,3.965293E0,1.0477806E2,4.037198E0,2.3467182E1,1.1131835E2,1.8547905E1,4.919276E0,1.0564958E2,5.6687655E0],"tree_param":{"num_deleted":"0","num_feature":"9","num_nodes":"17","size_leaf_vector":"1"}},{"base_weights":[1.1021269E-2,-4.5005825E-1,6.931577E-1,-4.933431E-1,2.7807066E-1,-1.6906185E-1,7.6958936E-1,-2.611852E-2,-3.4805644E-1,-2.1516157E-2,6.2813914E-1,-2.348427E-2,1.0825875E-2,5.185321E-1,4.1300952E-2,-2.1764431E-2,-3.731237E-3,8.8773994E-4,4.8621032E-2,4.1548543E-2,1.0040848E-2],"categories":[],"categories_nodes":[],"categories_segments":[],"categories_sizes":[],"default_left":[0,0,0,0,0,0,0,0,0,0,0,0,0,0,0,0,0,0,0,0,0],"id":79,"left_children":[1,3,5,7,9,11,13,-1,15,-1,17,-1,-1,19,-1,-1,-1,-1,-1,-1,-1],"loss_changes":[1.0550254E2,6.4458046E0,9.045372E0,6.1650085E-1,3.2141638E0,1.4736084E0,1.3347473E0,0E0,